layers 8
layer 0 Conv2D
3 3 1 6 valid
[ 0.06599507  0.2985885  -0.18518573 -0.2648143  -0.16211659  0.01628138]
[ 0.25058633  0.02077064  0.09225927  0.09999626  0.08005909 -0.10105769]
[0.12217958 0.12167609 0.14416079 0.04473516 0.1196994  0.21449323]
[-0.34493002  0.07501873 -0.08934235  0.15825647  0.25283176  0.12032193]
[ 0.07075828 -0.2034873  -0.21744458 -0.06346895 -0.15560912  0.1584179 ]
[-0.09698305  0.1368004   0.3468245   0.2534254   0.2065047   0.05414506]
[-0.17648746 -0.20486051 -0.36413878  0.05731568 -0.15507494  0.125137  ]
[-0.34956157 -0.1173407  -0.14204097 -0.3566492  -0.11224122 -0.19216105]
[-0.04167361 -0.25525644 -0.19847313 -0.1832384   0.12274392 -0.25792804]
[-0.00825427  0.10383785 -0.01071749 -0.00502442 -0.14475486 -0.06480614]
layer 1 Activation
relu
layer 2 AveragePooling2D
2 2
layer 3 Conv2D
3 3 6 16 valid
[-3.03068429e-01 -1.31299198e-01  1.98139846e-02  1.62697792e-01
 -1.78328440e-01 -1.25606777e-02 -1.65062815e-01  9.03483480e-02
  2.91972142e-02  2.98496336e-02 -2.83079267e-01  1.83154009e-02
 -5.35481647e-02  1.52185798e-01  2.05941222e-04 -1.19655915e-01]
[-0.11612737  0.12055079  0.13228123  0.03405814 -0.03752498  0.03465072
  0.01809384 -0.26711583 -0.05258488 -0.14116386 -0.07168587  0.01065004
  0.02929968 -0.18255617  0.03658652  0.15507573]
[ 0.1945152   0.17888021  0.07048858 -0.13254252 -0.30634308 -0.07091983
 -0.04325157 -0.06470176  0.21005863 -0.24038574 -0.1294601   0.04128429
 -0.12227765 -0.04409396  0.13511512 -0.05239525]
[ 0.02615281 -0.01238452  0.07657235 -0.0772128  -0.09060913 -0.11549888
 -0.01924807 -0.19976836  0.02934538 -0.0644849  -0.26545468 -0.01489041
 -0.03932649 -0.0131361  -0.1846016   0.01140445]
[-0.10293044  0.05674607 -0.11086897  0.11993996  0.07626931 -0.05126553
 -0.17013796 -0.12044646 -0.00829974  0.06520196  0.10980287 -0.07557128
  0.13134111 -0.08742037  0.10106822 -0.04225069]
[-0.2984664   0.1212464  -0.17417407  0.07686412  0.08334088  0.12650597
 -0.10829993  0.01978043 -0.02305907 -0.11042686 -0.0915572   0.13173762
  0.01219366  0.05585219  0.11318912  0.1257851 ]
[-0.03877655  0.04419371  0.07284398  0.16285495 -0.02143713 -0.06771677
 -0.12726536  0.04562739  0.1795713  -0.01426661  0.01868425  0.09517842
  0.01506722 -0.04069381 -0.14087711  0.13557397]
[-0.27450684 -0.17691967  0.11540787 -0.00896632 -0.04105447 -0.02276334
  0.02217457 -0.18097365 -0.17646477 -0.14650609 -0.13468426 -0.01681529
 -0.20213994 -0.1216073  -0.04861478 -0.02495269]
[-0.05399482  0.16581358 -0.09390333  0.07569563 -0.21985248 -0.03185051
  0.04795449 -0.22851945  0.07882908 -0.12767059  0.11633643  0.05263229
 -0.02816047 -0.11834092  0.02905575  0.12405053]
[-0.21249871 -0.13654478  0.10560418  0.04204886 -0.00604386 -0.15281771
 -0.06697199 -0.0692897   0.11819465 -0.02939045  0.12691768  0.16361997
 -0.00538929  0.18857549  0.06967095  0.13109602]
[ 0.13576561 -0.03345276 -0.0031518   0.06416358 -0.0408108  -0.05222708
 -0.13788362 -0.2230512   0.11274263 -0.20213275  0.13536137  0.011561
 -0.01557137 -0.10450971  0.06253878 -0.01770684]
[-0.14972124  0.02686254  0.05018672  0.12394559  0.1250314   0.028226
  0.06309664 -0.20237112 -0.09066191 -0.0061463  -0.25074786 -0.08251834
 -0.04069594  0.15848339 -0.09308345  0.05367352]
[ 0.09335403 -0.08982119 -0.17450307  0.03279492 -0.22801973  0.07557698
  0.00061826  0.19677256  0.10818076  0.06775913 -0.00087042 -0.24539761
 -0.02192092  0.13217609  0.034398   -0.21553434]
[ 0.06538614  0.0840731  -0.06101809  0.03454673 -0.01856079  0.12387185
 -0.14540176 -0.17350718 -0.058501   -0.12464607 -0.15510415 -0.2119513
  0.08027875 -0.05526818 -0.07770167  0.08403064]
[ 0.04200673  0.23737606  0.09407096 -0.24794838 -0.02415101 -0.24870522
 -0.05161631 -0.2402651  -0.00338633  0.04825037  0.11683129 -0.12728976
  0.18647072  0.01072322  0.11415685 -0.20187977]
[-8.26953799e-02  4.43709381e-02  6.07186705e-02 -1.01012900e-01
 -1.12722715e-04  6.90293834e-02  1.85893904e-02 -1.16610244e-01
  1.18579827e-02 -9.18631852e-02  1.19631007e-01  2.63074972e-02
  1.62733600e-01  5.68203107e-02  3.49759832e-02 -2.60488629e-01]
[-0.09227958 -0.10857408 -0.17611554 -0.02237505  0.1600066  -0.02630028
 -0.00068547 -0.23689747  0.05637584 -0.10387595  0.09499224  0.06693982
 -0.05577934 -0.02367121  0.041019   -0.23964158]
[ 0.15547389 -0.01876782 -0.04858323  0.11913934  0.19471343  0.16584174
  0.09251074  0.05304752 -0.12456289  0.10886288 -0.21170107  0.02767569
 -0.11756588  0.06460793  0.08027767  0.06597473]
[-0.15228105  0.23604816  0.08852679  0.17519769  0.001022   -0.02000467
 -0.11893926  0.05067996  0.16951323 -0.01368686  0.01205961 -0.05250229
 -0.12897205  0.00462579 -0.03704561 -0.00910548]
[ 1.4117754e-02 -4.0698759e-02 -6.4960637e-05 -9.9424034e-02
 -1.9376613e-02 -2.0030367e-01  4.9323715e-02  9.3558125e-02
  1.2722948e-01  1.4793101e-01  3.2907270e-02 -2.3196353e-01
 -1.8418421e-01  8.3868787e-02 -1.1542184e-02 -6.6872314e-02]
[-0.00979913  0.10981292  0.19274542 -0.04914059 -0.1255227  -0.00872911
  0.05051669 -0.12981604  0.12748228  0.09218554  0.14495057  0.0194248
  0.07153083 -0.04720755 -0.0955935   0.01239808]
[ 0.0239662   0.18798018  0.02572427 -0.07011548 -0.13967545  0.00558306
  0.04865932 -0.02795708  0.03957322 -0.06097185  0.1067979  -0.12051734
 -0.09750976 -0.14263257 -0.12319045 -0.11297141]
[-0.13864332  0.13683203 -0.06553698 -0.07854823 -0.0911124  -0.06164084
 -0.05695726  0.094179   -0.04019947 -0.13457295  0.01606826  0.02519588
  0.19863653 -0.00628892 -0.11937226  0.14657812]
[-0.24071729  0.10167462 -0.18868247 -0.09390444  0.12053549 -0.00746489
 -0.06393892 -0.05963355  0.07263818  0.02395194 -0.01770013  0.03799356
 -0.1321854  -0.14564961  0.08383245  0.04060078]
[ 0.02781477 -0.18706103  0.14116101 -0.05415287 -0.07673713 -0.06111471
  0.0659593  -0.11108459 -0.12073205  0.03826116 -0.02911216 -0.20881183
 -0.21002947  0.16319169 -0.11930382  0.05193823]
[-0.01639512  0.17898297  0.01725733 -0.0522561   0.04874757 -0.10900885
 -0.12519586  0.08315071 -0.03928593  0.09152807  0.00353919 -0.11024078
  0.15800123 -0.02662864  0.1346075   0.16882518]
[ 0.09294584 -0.22009176  0.08017656 -0.15733804 -0.11452024  0.02763037
 -0.05247974  0.09764598  0.06682345  0.05891383  0.2290901   0.21824186
  0.19889878 -0.09442198  0.02584677  0.05661835]
[-0.20038132 -0.01569702  0.05891475  0.09858085 -0.09427619  0.15123571
  0.03413663  0.17224053  0.0067556  -0.05567826 -0.04507219  0.13756628
 -0.19363268  0.00139058  0.06645637  0.04679461]
[ 0.14898244 -0.07911556  0.10963108 -0.03829967 -0.01997194  0.10833824
  0.07113715 -0.06892005  0.05342391 -0.07244892 -0.09205373  0.17846125
 -0.05912137  0.03561903 -0.00961783 -0.25192115]
[-0.0453775  -0.10429629 -0.04934252 -0.05375531  0.13345614  0.04698755
  0.1834081   0.05859758 -0.0729009   0.05693565 -0.08151794  0.10215718
  0.08873217  0.00940927 -0.11841358  0.08590391]
[-0.08787563 -0.02811528  0.07536908  0.01054798 -0.22678044 -0.1643489
 -0.00314864  0.05166194 -0.08683909  0.14401701  0.01427626 -0.21805948
 -0.19856136  0.14016603  0.15378809 -0.19841105]
[-0.13084866 -0.07988752 -0.09744111  0.07154585 -0.13979991  0.12126912
 -0.01782699 -0.07740629 -0.22582005  0.10699885  0.08188294 -0.20566799
 -0.08940572 -0.01369614  0.12004855 -0.02444297]
[-0.1284192   0.0386636   0.23395458 -0.017325    0.09816064  0.0648438
 -0.0092177   0.22315986 -0.06908066  0.19161327  0.1825174   0.14425452
  0.21359544  0.01111127 -0.14504549 -0.00066254]
[-0.02450861 -0.09262462 -0.08586194 -0.22602084 -0.0201226  -0.08042309
 -0.00302398 -0.06377261 -0.09862509 -0.0859246   0.1148662  -0.07021896
  0.04092605  0.01284477 -0.19525228 -0.1361854 ]
[-0.07750212 -0.10709368  0.10676169  0.07078324 -0.07092156  0.04539686
  0.1266589   0.0857219   0.02708671 -0.17734084  0.08713955  0.13835397
 -0.1842072  -0.07711088  0.13335632 -0.03322429]
[ 0.14210622 -0.29710108 -0.16672322 -0.17506255  0.13923928 -0.05112799
  0.1925082   0.21454643 -0.01817664 -0.05646979 -0.15797043 -0.18306284
 -0.13294148  0.03950582  0.09651284 -0.1768531 ]
[-6.58825934e-02  1.68325722e-01  3.04065924e-02 -1.36288419e-01
 -7.97473863e-02 -1.62011274e-04  8.52016732e-02  8.22983012e-02
  1.95252523e-01 -3.11708841e-02  1.08394146e-01  5.05410209e-02
 -7.84018710e-02  8.52800533e-02 -6.57259077e-02  4.30034064e-02]
[-0.1710061  -0.0471708   0.02510605 -0.08260405 -0.17497632 -0.01445653
 -0.11786994  0.1404462   0.13999876 -0.07044787  0.15911148 -0.19456424
 -0.19635826  0.12143687 -0.13074288 -0.17307144]
[-0.02214664 -0.14579254  0.1746862  -0.11077879  0.11673131  0.25849047
  0.22558358  0.00418411 -0.04412048 -0.11991771 -0.13909073  0.08182009
  0.09733365  0.09474792 -0.2054944   0.08660992]
[-0.01302723  0.18310255  0.06240104 -0.10153187 -0.11363026  0.09677071
 -0.10893378 -0.0051811   0.00408799  0.11299264  0.05224191 -0.00386313
  0.10861777  0.03688684 -0.14468053 -0.16567603]
[-0.00665547 -0.257575   -0.00762065 -0.00036357  0.06819359  0.00546805
 -0.08534741 -0.18150283 -0.07109281  0.17478244  0.07574213 -0.02913775
  0.10410516  0.04525563 -0.00845724 -0.14621456]
[-0.19663872 -0.2823145   0.0470711  -0.0516106  -0.01148476 -0.0751854
 -0.08298426 -0.10237619 -0.05339435  0.10709822  0.03525144  0.00347398
  0.11971036 -0.16033784 -0.18028559  0.12937944]
[-0.0154473  -0.09091409  0.21647966 -0.15298882  0.00065639 -0.03974855
  0.05207473  0.17068937 -0.13439712  0.08538328  0.04097851 -0.03755812
  0.08132701  0.03148861 -0.02151064 -0.0021327 ]
[ 0.07618652 -0.08452923 -0.05351592 -0.25290975  0.05172025 -0.17945759
  0.10033151  0.06606438 -0.10483115 -0.2319844   0.04910467 -0.07244332
  0.14306425  0.09576548 -0.1512603   0.07788175]
[-0.03019129 -0.1530627  -0.09157352 -0.1882059   0.18714117  0.15730293
 -0.17401363  0.07269996  0.07309179  0.10432275  0.14661667  0.05739965
 -0.00572152  0.11558948 -0.20973839 -0.17723842]
[-0.20050198 -0.07076115  0.04134375  0.16572809 -0.02237359  0.11690857
  0.10391162  0.17687498 -0.0067362  -0.04729072 -0.0590067  -0.06805468
  0.06406212  0.10474803 -0.06503804 -0.14383729]
[ 0.01150786 -0.12491088 -0.16230485  0.03536485 -0.00212085 -0.165474
 -0.11462674 -0.15217838  0.0694713   0.22614075  0.0975572  -0.190021
 -0.2097156  -0.01208145  0.0174505   0.10704613]
[ 0.14452417 -0.06120193 -0.03149858 -0.03368751 -0.03468604 -0.20048115
  0.01603894 -0.07097632 -0.11946153  0.07693335  0.0683447   0.1794459
 -0.10964738 -0.08081024 -0.07490148 -0.21007216]
[-0.02962099  0.06940687 -0.04154906 -0.17357036  0.13164365 -0.01111931
 -0.06298709  0.04846683 -0.05425593  0.08640312 -0.11548001 -0.08686186
 -0.30918723 -0.05549103  0.11199225 -0.05507679]
[ 0.04068115 -0.21802288  0.06703367 -0.00570221 -0.12391169 -0.117838
  0.10010947  0.01310658 -0.11726964 -0.19243376 -0.10279113 -0.2287558
 -0.00907815 -0.15599862 -0.16761687 -0.24862604]
[-0.04879665 -0.11332046  0.02167539  0.02798232  0.10750764  0.01699766
 -0.18493994 -0.00726572  0.08168222 -0.14068013  0.12206125  0.01193086
 -0.08334537  0.02020356 -0.12807325 -0.12265138]
[ 0.09349246 -0.129722    0.02530395  0.01892159  0.05094429  0.05324832
 -0.01627824  0.00415356 -0.04463411 -0.00139991  0.07057807 -0.06610107
 -0.15212716  0.03743029  0.06904361  0.00271684]
[-0.13322303  0.01534931  0.00806383 -0.09053703  0.00429555  0.05983774
  0.02504555 -0.00689646 -0.16305384 -0.06040347 -0.15490447  0.15917195
 -0.00894887  0.09416748 -0.13455068  0.01215443]
[ 0.12152809 -0.03123276 -0.01932834  0.02336306 -0.09747099  0.1065728
 -0.05528542  0.02317924  0.15993507 -0.13007714 -0.15119274 -0.21440445
 -0.038319   -0.04436829 -0.18897799 -0.03023088]
[ 0.0152824   0.01329628 -0.05611265 -0.06608378 -0.13744102 -0.08543048
 -0.08334866  0.017779    0.01348381 -0.0010607  -0.01719862 -0.01451306
 -0.03758658 -0.10512866 -0.07940154 -0.01011494]
layer 4 Activation
relu
layer 5 AveragePooling2D
2 2
layer 6 Flatten
layer 7 Dense
576 120
[-0.02619834  0.07718736 -0.07338123 -0.05813096 -0.05325045  0.02223246
  0.02546983 -0.02245877 -0.0016465  -0.04020723  0.08780117  0.09717925
 -0.03342754 -0.03717332 -0.10162394 -0.07647485  0.02902823  0.0376846
  0.0894338  -0.09242927  0.08582035 -0.06914342 -0.02033158 -0.09034137
 -0.10147735  0.00825019  0.09985822 -0.0434683   0.07344873 -0.0109221
 -0.05667203  0.06906241  0.05918816 -0.12207428 -0.06945835 -0.053811
  0.09473915  0.12834167  0.00759593 -0.00299703 -0.08592304 -0.03758806
  0.01997781 -0.03175511 -0.0043578  -0.00088176 -0.01799223  0.04562708
 -0.00314905  0.02105369 -0.06436224  0.0149897  -0.03140401 -0.0121351
  0.11776382 -0.0633762  -0.00144224  0.03163444 -0.03977619 -0.10163224
 -0.07930971  0.02925261 -0.00379146 -0.01264053  0.06511787 -0.09956647
 -0.02222363 -0.11375794 -0.02661015  0.05166741 -0.06716015 -0.03919264
 -0.02493685  0.01698305 -0.00982698 -0.00405459 -0.01188557 -0.08042812
  0.09582147 -0.03175233 -0.04384902  0.04804093  0.07089908  0.03310677
 -0.04894023  0.04069691  0.01523267  0.08751298  0.04685014  0.00902873
  0.00343565  0.01933731  0.06100212  0.05772954 -0.08295438  0.07618319
 -0.09149551 -0.0043885   0.01034832  0.07433069 -0.10788402  0.00665265
  0.02071373 -0.0854693  -0.09295315  0.00738744 -0.0139914  -0.00855121
  0.09728066 -0.06896307 -0.08836386  0.10612459  0.15435414 -0.06388821
 -0.01336423  0.03248394  0.00924707 -0.05445017 -0.06066634 -0.02017131]
[ 6.77249720e-03 -7.67591819e-02 -3.79328383e-03  8.09795111e-02
  4.85854689e-03  2.25077774e-02  9.41029564e-02  1.36052057e-01
  9.55117047e-02 -6.70780544e-04 -3.17604095e-02 -4.25471254e-02
 -2.91257575e-02 -6.08356632e-02 -1.18750721e-01 -1.52660117e-01
 -1.13405623e-01  4.68085259e-02 -3.10948938e-02 -2.61975545e-02
  6.03353791e-03 -8.16848204e-02  1.54061869e-01 -8.49282648e-03
  7.40558608e-03  2.16905791e-02  7.77731091e-02  9.34626535e-03
 -1.39196767e-02  8.56636316e-02  2.22164020e-02  1.12730354e-01
  1.08796880e-01  2.77736429e-02 -1.73861149e-03  5.43057397e-02
 -1.16637219e-02  1.46557540e-01 -4.65787724e-02  1.70625411e-02
 -8.50190446e-02  7.68840546e-03  4.17671986e-02  1.50421392e-02
 -9.99509469e-02 -1.22773565e-01  9.93112922e-02 -8.39474704e-03
 -9.62510426e-03 -1.19199291e-01  5.70254289e-02  3.44213098e-02
  1.13602385e-01  7.02323616e-02  2.08378509e-02 -4.15456016e-04
 -2.63940170e-03 -1.04505226e-01  3.14964284e-03  8.26850310e-02
 -5.78827336e-02 -5.75057901e-02 -9.44561698e-03  4.39444520e-02
 -5.20844273e-02 -1.20043159e-01 -9.11518633e-02  4.04122062e-02
 -1.24538168e-01 -5.49394898e-02 -8.94941688e-02  2.09850725e-03
 -1.54883772e-01  2.31086016e-02  3.76891159e-02  1.03028188e-03
  2.60648932e-02 -9.38027054e-02 -6.79288059e-02 -1.78493923e-04
 -2.95889042e-02 -9.50306579e-02 -9.14327875e-02 -9.76574346e-02
 -7.29012713e-02  3.50848101e-02  6.37725890e-02  3.29924747e-02
  2.07226407e-02  3.38612609e-02  9.67471004e-02  8.36840048e-02
  4.27464098e-02  3.57513689e-02  7.18815550e-02  1.86177101e-02
  5.54202236e-02  1.09039381e-01  1.89424735e-02  4.61961627e-02
 -9.63198170e-02 -4.44957428e-02 -6.79701120e-02 -2.98092384e-02
 -3.98015864e-02  4.40804511e-02 -9.33820307e-02  3.29145901e-02
 -3.52276675e-02 -3.65019813e-02 -1.82637602e-01 -6.31504208e-02
  2.23728549e-03  6.82162121e-02  1.86380502e-02  6.17702268e-02
 -2.50589624e-02  4.03997414e-02 -3.15749720e-02 -8.04790668e-03]
[-0.02911839  0.08268448 -0.03109822  0.03068268 -0.00155808 -0.05050447
 -0.03046001 -0.00744486 -0.05312955  0.0775236   0.06144767  0.06795909
 -0.00836124  0.01426222 -0.05754702  0.01046227  0.0505229   0.0912063
  0.03229011 -0.0314434  -0.06725251 -0.04392665 -0.08601625 -0.01507974
  0.04613768  0.07323361  0.14042228 -0.03223423  0.04535954  0.07935787
 -0.03420678  0.0675917  -0.10263644 -0.04656218 -0.01929425  0.07237674
 -0.02353927 -0.03986836 -0.01463854 -0.01625011 -0.10884698  0.03367021
 -0.03235524 -0.04853324 -0.08037525 -0.10689846 -0.05511452  0.08072991
 -0.03722835  0.02130574 -0.04882706  0.03448651 -0.02852548  0.0739698
 -0.00743643 -0.01497719 -0.07330578  0.05267477  0.03879191  0.06507265
  0.00243702 -0.00232579 -0.01030703 -0.01746805  0.07956131  0.08489469
 -0.06140155  0.0320118   0.08641624 -0.00873287 -0.01407682 -0.0835105
 -0.06637133  0.02131359 -0.10899831 -0.03784347 -0.02899837  0.00039266
  0.01441167  0.06133792 -0.06691884  0.01373801 -0.04694384  0.06793853
 -0.0417071  -0.00764757  0.00365947  0.00876091 -0.0386135   0.01185059
  0.06330534  0.00338844  0.01494544 -0.09750831 -0.04213658  0.07021007
 -0.01228856 -0.08224553  0.04934382  0.13704018  0.09851386  0.08183826
  0.00150922 -0.01795529  0.01436527  0.04476725 -0.1197947  -0.07251512
  0.01168556  0.10943549  0.06794601  0.03663792 -0.09085557 -0.12083916
 -0.05892354 -0.05901457 -0.0976069  -0.00255289 -0.05506827  0.0383676 ]
[ 0.02393339  0.04435344 -0.10859337 -0.02396182  0.05445748 -0.06711214
 -0.06109483 -0.06488646 -0.05595569  0.01475952  0.05253976  0.04970108
  0.0123555  -0.00376529 -0.07736553 -0.03141368  0.01330444  0.09596788
 -0.04013775  0.04424256 -0.00566298 -0.01438293 -0.00774506 -0.07913095
 -0.00856876 -0.07798863  0.06428947  0.0596684  -0.00966769  0.07524116
  0.03386905  0.05268182  0.02799975 -0.01321495 -0.06975727 -0.01816669
 -0.06252304  0.07474987  0.01446794  0.08613177  0.01650014  0.00885956
  0.00138278  0.039837    0.06945318 -0.06523984  0.05795959  0.00491642
 -0.08049018  0.01421248 -0.0652407   0.0229145   0.06715049 -0.06444538
  0.00516244  0.02734806 -0.09773252  0.00255273  0.0680965  -0.02080035
 -0.02840058 -0.05333521  0.01892096 -0.05097267 -0.05438082 -0.08085504
 -0.03622065  0.07793364  0.04834865  0.09036771 -0.05742323 -0.04612245
 -0.01598236 -0.01600631 -0.03401107 -0.03677138 -0.10306741  0.00165961
  0.01780833  0.00096627 -0.04561127  0.06014918  0.06122751  0.10264179
 -0.0011243   0.01598734  0.06463473 -0.00672538  0.03499433  0.0032741
  0.06773837  0.03473654 -0.10806388 -0.09423351 -0.07715156 -0.05460222
  0.00386875  0.07202684  0.08916984  0.05741702 -0.0895096   0.06179618
  0.07970034 -0.06627154  0.00878428  0.08701079  0.04538167 -0.10883199
 -0.00644587 -0.0029871  -0.09436569  0.01577836  0.13473229 -0.05931788
 -0.04845788  0.05125011  0.08222484  0.02953808 -0.01179531  0.02687519]
[-7.28860572e-02  3.67792919e-02 -8.35072324e-02  4.86782677e-02
  1.79526058e-03  1.94570031e-02  8.09876472e-02 -4.03707065e-02
  4.87532243e-02  4.51677181e-02  4.05936502e-02 -5.50186820e-02
 -1.28826097e-01 -1.04730159e-01 -1.09025173e-01  6.86418861e-02
 -2.71399636e-02  1.41328439e-01  3.50610018e-02 -9.94825214e-02
 -1.55177182e-02  7.18908161e-02  1.12560466e-01  2.53748074e-02
  8.73393416e-02 -6.56614602e-02  1.53275758e-01  1.15150683e-01
 -9.94158685e-02  3.24140862e-03 -1.18345514e-01  1.08968429e-01
 -4.53190878e-02 -3.91523503e-02 -5.04015610e-02 -2.36588158e-02
 -1.19377866e-01  3.88422161e-02 -3.06953173e-02  6.65962845e-02
  1.39623787e-02  2.28395090e-02  3.42485271e-02 -3.78550813e-02
 -1.70029309e-02  3.94294672e-02  7.97936991e-02  2.71363277e-02
 -1.66068986e-01 -8.27778317e-03 -2.33046431e-03 -1.52608324e-02
  1.92236712e-05  1.39625311e-01  4.74018753e-02 -8.60211328e-02
  3.53288725e-02  5.55849597e-02 -8.59583318e-02 -9.62894782e-02
 -4.87725213e-02  3.76570411e-02 -7.71938562e-02  4.11471911e-02
  5.66267455e-03  8.49575996e-02  9.99723282e-03  3.27575207e-02
  1.37655139e-01 -8.72346237e-02  4.21695262e-02  8.70839432e-02
 -7.52920061e-02 -6.42098039e-02  5.62336929e-02  3.47522041e-03
  1.13218334e-02 -1.02110416e-01 -2.70244405e-02  1.12546101e-01
 -3.89591418e-02 -1.06565513e-01 -6.62076920e-02 -2.54834443e-02
  9.77183357e-02  3.96856852e-02  2.96250451e-02  7.33886212e-02
  1.26931429e-01 -4.25223932e-02  5.98866772e-03  2.11130152e-03
  1.28631759e-03 -6.30779266e-02 -8.11369196e-02  3.25176157e-02
  7.19488878e-03 -1.67207941e-02 -1.01953842e-01  3.08195185e-02
 -6.85598180e-02  7.19743669e-02 -5.69925597e-03  2.21347772e-02
 -2.32275873e-02  5.30611165e-02  2.53433902e-02 -1.34528279e-02
 -3.76553200e-02  3.63185778e-02  8.34772363e-02 -6.63477257e-02
 -4.47012372e-02 -6.33363202e-02 -6.66887164e-02 -3.37890312e-02
 -3.58554646e-02 -6.29701316e-02 -3.37210596e-02  2.32150722e-02]
[-0.07301581  0.01216974  0.08851822  0.07580103  0.06679918 -0.02802886
 -0.0711342  -0.08413752 -0.0839185   0.04685286  0.12115768  0.12538777
  0.00126765 -0.10963119 -0.06760249  0.00176734  0.13179983  0.00346411
  0.02962349 -0.09373188 -0.05962647 -0.06610507 -0.03757005 -0.01076561
 -0.01161081  0.04842738  0.11393838  0.07814042 -0.02560092 -0.06301025
 -0.12411442  0.05201822  0.02265269  0.02029071  0.05214369 -0.05176212
 -0.06485211  0.01547089 -0.05165352  0.01089341 -0.07707786 -0.08273836
 -0.04801413 -0.06181179  0.08215083  0.04964048  0.02883525  0.07015678
 -0.03984942 -0.08651637 -0.16216122 -0.01436864 -0.04844027  0.08934056
  0.01063144  0.05554458  0.00486954 -0.03864978 -0.06915743  0.06724942
  0.05054428 -0.01801127 -0.03951856  0.04314015 -0.07031754  0.02051466
  0.02926598 -0.03279246 -0.01622944 -0.07001085  0.06024061  0.06684618
 -0.04741741  0.08522334 -0.05146758  0.06599535  0.0354443  -0.01613915
  0.02320537  0.06062424 -0.07658796  0.01026484  0.03391152 -0.0735748
  0.00049013 -0.03632101 -0.00742356 -0.0439564   0.0700532   0.05034972
  0.02285613  0.06472936 -0.0062787   0.03065961 -0.04898395  0.00893704
  0.03613775  0.02370748  0.03865323  0.04682068  0.08969655  0.10047013
 -0.07363253 -0.0324755  -0.10954532 -0.09582651 -0.0509471  -0.05061922
  0.09909796  0.0382145  -0.03861316 -0.06895681 -0.02795879 -0.19393477
  0.04602175 -0.04207678 -0.00893178 -0.04281459 -0.08797924 -0.08694769]
[ 0.05025828  0.05557117 -0.08394484 -0.08238465  0.04507533 -0.05156184
 -0.04475739 -0.03962187  0.08290473  0.09194208 -0.05873074 -0.01914534
 -0.10873558 -0.02938114  0.08054099  0.08187426  0.05836234 -0.09006529
 -0.04717747 -0.02663191  0.04367264 -0.04445611 -0.09996951 -0.09336618
 -0.06137425 -0.02433151  0.08466557 -0.09025278 -0.10657459 -0.03749485
  0.05878722  0.06044942  0.0546036   0.00265628  0.06721366 -0.05962066
 -0.07367198  0.04163342  0.12869374 -0.07785737 -0.06840678  0.0675732
  0.01113767  0.06402184 -0.0916309  -0.06338222  0.02347832 -0.04303587
  0.03720514  0.09012868  0.01032853 -0.01801256 -0.01813174  0.11058338
 -0.06456063 -0.00701673 -0.09631375 -0.03689322 -0.02018318 -0.07641601
 -0.07134764 -0.03586579 -0.09197411  0.05939892  0.02746997 -0.06969044
  0.08374763  0.06675351 -0.05042528  0.03840564  0.01263691 -0.05907071
 -0.01803321  0.00202322  0.0239663  -0.0575701   0.02018021  0.01229166
 -0.00914962 -0.06181468 -0.07689676 -0.01125886  0.09023339  0.03056332
 -0.01042258 -0.07791025 -0.05813913  0.03416481  0.07768133 -0.03251697
 -0.0478703   0.07368035  0.03531326  0.00040346 -0.06878167  0.01661897
  0.05106165 -0.05184168  0.02910143  0.01826662  0.03477554 -0.06954248
 -0.05006181  0.05185039  0.06816601 -0.10395356 -0.08030661  0.05942715
  0.08800117 -0.01767071 -0.07757544  0.05736417  0.04716815 -0.05801602
 -0.01137058  0.00421492  0.02133198  0.0275968   0.0293763  -0.03883625]
[-9.75508243e-02  1.40125938e-02 -8.75775591e-02 -1.23987691e-02
  7.82437101e-02 -4.62063774e-02  1.39818359e-02 -9.05802250e-02
  5.30905537e-02 -6.18350543e-02  4.09536399e-02 -6.61060363e-02
  5.84819242e-02 -9.32845548e-02 -9.09827873e-02 -7.33456574e-03
  1.00664020e-01 -6.38888925e-02 -3.50777879e-02 -2.12837216e-02
  5.97525723e-02  4.94513549e-02  9.81155261e-02 -1.01197936e-01
  6.04541115e-02 -3.28188129e-02  1.01903297e-01 -9.50440671e-03
 -7.45272636e-03 -1.60422511e-02 -8.67950544e-02 -2.65698647e-03
  6.16682097e-02 -1.10470578e-02 -9.30004865e-02  2.52876151e-02
 -9.25500095e-02 -3.09805688e-03 -6.30757809e-02 -2.57289782e-02
 -1.05950817e-01  3.55284624e-02  1.37688322e-02  8.48118216e-02
 -9.13068429e-02 -1.03476912e-01  9.90214050e-02 -1.05325980e-02
 -6.39302358e-02 -5.31320274e-02  4.81424332e-02  1.24131106e-01
  6.27244264e-02  1.17816173e-01 -1.45691754e-02 -1.00794733e-01
  4.93739508e-02 -1.18666291e-02  2.42148470e-02  1.37515413e-03
  6.63464740e-02 -2.19595432e-02  5.03348038e-02 -7.85719976e-02
 -7.53526464e-02 -3.06643508e-02  1.04121715e-01  4.59039211e-02
  7.15450123e-02  2.94794235e-02  7.06338212e-02 -1.05300022e-03
 -1.44406661e-01  1.73718724e-02 -8.34562480e-02 -3.90572511e-02
 -7.71959051e-02  3.23745944e-02 -1.51060671e-01 -5.12911798e-03
  1.17654679e-02 -8.00754428e-02  2.01531984e-02 -5.14991321e-02
 -1.20214507e-01  4.00085822e-02  2.68771639e-03  1.13283910e-01
  1.10080190e-01  6.15771189e-02 -4.04424630e-02  1.23952450e-02
  1.70344394e-03 -6.40219077e-03 -8.64267945e-02 -9.47821513e-02
 -2.29138788e-02 -4.47427183e-02  2.84518171e-02  4.71708439e-02
  5.88204786e-02  5.69186080e-03  3.73195633e-02 -2.41396911e-02
  7.23010162e-05  7.35280812e-02 -9.73706413e-03  1.81746092e-02
 -2.11776197e-02  9.73745584e-02  1.30920401e-02 -8.25816467e-02
 -1.02829814e-01 -4.12004665e-02 -3.18306759e-02  4.65481728e-03
  5.30403517e-02 -1.08448379e-02  8.03769678e-02 -8.98789987e-02]
[ 6.87773153e-02  6.47419319e-02 -1.51270896e-01 -2.83584073e-02
  1.35691492e-02 -1.81767140e-02  4.05317284e-02 -1.75788738e-02
 -6.40936382e-03 -7.04774307e-03  3.52590252e-03  3.50200385e-02
  5.93377426e-02 -1.22139171e-01 -1.23979405e-01  7.41787627e-02
  3.51339430e-02 -5.74799813e-02 -2.16810070e-02  4.66961972e-03
  6.16217516e-02 -1.32676857e-02  1.00804307e-01 -1.05025329e-01
  2.85893995e-02  1.00392632e-01  8.53464976e-02  1.41068950e-01
 -1.44437701e-01 -1.17904700e-01 -8.30745697e-02  9.37023163e-02
 -6.92387074e-02  3.25052701e-02  6.58981428e-02  9.46301520e-02
 -8.55490714e-02  2.27851883e-01 -6.93464279e-02 -1.05225388e-02
 -4.35309522e-02  1.30267143e-01  1.55312223e-02 -7.49409646e-02
 -1.44002475e-02  6.52078092e-02  3.57303619e-02  1.01720378e-01
  8.43479931e-02  8.45496729e-02  8.37144405e-02  6.15954287e-02
 -4.38464247e-02 -2.30177473e-02  2.95891333e-03 -4.04370092e-02
  3.23722251e-02  4.70076725e-02 -9.92269889e-02 -1.06962375e-01
 -2.45037284e-02 -8.23579580e-02 -7.31304139e-02  1.05147757e-01
  7.15211630e-02  1.53822780e-01 -5.51724732e-02  8.15797318e-03
  1.29589885e-01  4.48586792e-02 -1.47600155e-02  9.82116908e-05
 -3.27133499e-02  4.11408991e-02  5.75850271e-02 -1.36253424e-02
 -1.42524794e-01  1.61968708e-01 -8.83045122e-02  1.01978645e-01
 -6.60792217e-02 -1.60082653e-01 -6.89159930e-02 -2.40255259e-02
 -3.85848582e-02 -5.98588102e-02 -5.63548803e-02 -3.81207839e-02
  2.48907898e-02  4.67819236e-02 -1.37934759e-02  1.23430744e-01
 -1.86414257e-01  5.13781458e-02  2.49613766e-02  1.87899359e-02
  6.97872266e-02  2.54924931e-02 -7.37625733e-02  1.56768188e-01
  7.47815743e-02 -2.67039146e-02 -1.66767463e-02 -1.36713430e-01
 -8.30858946e-03  5.55580668e-03  5.70429675e-02 -1.42351776e-01
  6.02002162e-03 -1.70624927e-02  5.60421981e-02 -5.82660036e-03
  8.60099420e-02 -7.28144944e-02 -1.89663433e-02 -4.14741337e-02
 -6.97592273e-02  5.10183461e-02 -6.44914806e-02 -2.52221469e-02]
[-0.06465214  0.05624278 -0.097385   -0.08598628  0.0124165  -0.00506549
  0.05494268  0.02735206 -0.022727   -0.02006977 -0.01481828  0.07786769
 -0.11982337  0.03659234 -0.03547647  0.10709991  0.05022647 -0.14182965
  0.02822591 -0.0972503   0.05054628 -0.08507203  0.1808212  -0.0990304
 -0.00790414 -0.06809121  0.05472747  0.07999717 -0.15593599  0.05170907
 -0.12811184  0.05023468  0.07616127  0.04036867 -0.00479296 -0.01186426
  0.0313931   0.20582873  0.02508632 -0.00304524 -0.08319508 -0.02249706
  0.00750076  0.03164635  0.05855276 -0.00892433  0.03108336  0.0435927
 -0.07662822 -0.00246775 -0.02967468  0.08187168  0.00841193 -0.07821245
  0.03000892 -0.06793866 -0.00180573 -0.00495883 -0.00320131 -0.09011795
 -0.01764467 -0.08292551 -0.01963419  0.06430656 -0.06078709  0.05738724
  0.06832598  0.09638431  0.04274502 -0.10163314  0.06365371  0.11096357
  0.03018171  0.03578146  0.07686706  0.06248295 -0.04682365  0.03801739
 -0.15281913 -0.06107487  0.0822948  -0.11242913  0.09258279  0.02954259
  0.03226847 -0.076244    0.07522861 -0.03322763  0.11397334  0.13713399
  0.0603523   0.06046696 -0.00740577 -0.09743585 -0.05937054 -0.0098601
  0.05278111  0.08403341 -0.00601907  0.13533725 -0.08302876  0.09906792
  0.00996947 -0.03708289  0.11134937 -0.01912436 -0.04958012  0.0610436
 -0.059491   -0.04803227 -0.01174604  0.02072209 -0.00111732  0.02052025
 -0.07740926 -0.0533622   0.00537014 -0.01026204 -0.01662808 -0.00512815]
[-0.00603331  0.15606198 -0.09913658 -0.04736699 -0.00911082 -0.07844095
 -0.00448811 -0.0391442   0.09265629  0.02717517  0.1470663  -0.0889817
 -0.024081   -0.02638878 -0.1072587   0.02702293  0.09794402 -0.10832114
 -0.06739288 -0.14650296 -0.09590825  0.04336844 -0.01808664  0.02317651
 -0.07757383 -0.00330996 -0.0431858  -0.00590538 -0.05986609 -0.03748866
  0.06208503  0.06394547 -0.0071364   0.1067932  -0.09527782 -0.08481246
 -0.10810854 -0.00949513  0.0127592   0.09539313 -0.15004286  0.07400385
  0.00345569  0.11310363 -0.01185135 -0.11680319  0.11723273  0.11491566
 -0.08675027  0.06869418  0.09741697  0.11847869 -0.12882131  0.2144711
 -0.02454562  0.05812583 -0.04756412 -0.04075727  0.03895836 -0.10225309
 -0.09222187  0.03686111 -0.03200646 -0.04479127 -0.00189968 -0.0132399
  0.04049126  0.0386132   0.17339489 -0.10145945 -0.06484013 -0.05766148
  0.04445283 -0.01654801  0.05797412 -0.0287223   0.00961388  0.07876949
 -0.09942891 -0.09328822  0.00216205  0.04168499 -0.00352138  0.02393163
  0.04847068  0.02980042 -0.02509501  0.02380629  0.01613061  0.07341084
 -0.01277694  0.02321296 -0.10477575 -0.02041829 -0.06294391  0.0435321
  0.03465383 -0.02874384  0.09174934  0.17002864  0.06474639  0.00898558
 -0.07568458 -0.02862428  0.0856391  -0.02667184 -0.06946988 -0.0303509
 -0.00650871 -0.05275645  0.0921316   0.0029735  -0.07956558 -0.00587097
  0.0552571   0.02255017  0.01097229 -0.04365003  0.06985572  0.04207496]
[ 0.03089887  0.07356177 -0.03750189 -0.00970923  0.04517604  0.05184019
  0.00627058  0.03061924 -0.09293243 -0.0247052   0.09520715 -0.01993807
  0.02753109 -0.00650637  0.07754236  0.08527196  0.0528691  -0.10750788
 -0.04783102  0.01074266 -0.14378344  0.03698194 -0.05954038 -0.10040487
 -0.05541609  0.06281533 -0.00025224 -0.08606493  0.02696494 -0.03346728
 -0.15581897  0.05509815  0.00597267 -0.11272918  0.00677982 -0.09610516
 -0.13748589  0.06627118 -0.029612    0.00284097  0.04169114 -0.06324685
 -0.07371043  0.01009903  0.03850754 -0.11139373  0.01661089  0.11303568
 -0.04900328  0.1016167  -0.0838618  -0.05334743  0.10239385  0.00030291
 -0.17641558 -0.09049314 -0.05167686 -0.08601079 -0.05970158  0.10086477
  0.03820257 -0.11891589  0.04566712 -0.10528554 -0.00242684  0.09044831
  0.0077068   0.0676169  -0.0229863  -0.07143256  0.01956658  0.03872099
  0.01193821  0.11893047 -0.07089378 -0.0581387  -0.05004973 -0.03828894
  0.05062008 -0.0103754   0.05674609 -0.01408353  0.03606486 -0.16520607
 -0.01839201  0.13027877 -0.07114284  0.03025393 -0.0101145   0.0774564
 -0.11805031  0.06039506  0.02415293 -0.08244225 -0.06346418 -0.11947323
  0.11594944 -0.10714023  0.00133466  0.11647132 -0.00221569 -0.00309349
  0.02071179 -0.05596931 -0.02320868  0.00243155 -0.02291797 -0.01936129
 -0.0317488   0.00092897  0.05093703 -0.13846678 -0.01040161 -0.1913587
  0.00880382  0.02715011 -0.06475738 -0.05566832 -0.08885045 -0.14667492]
[ 0.0118093   0.05640403 -0.04665106 -0.07894659  0.04857579 -0.01143163
 -0.0025334  -0.07898077  0.04938114 -0.02944489  0.0309083   0.02127261
  0.09299862 -0.06361108  0.08813178 -0.06053206 -0.02848243 -0.00914782
  0.01725726 -0.08979464  0.13886453 -0.09333255  0.08097181  0.02608754
 -0.06376818  0.08585644  0.11185549  0.04601767  0.06398778  0.02656953
 -0.00813322  0.08789674  0.06402575  0.06610727  0.08428209 -0.03436534
  0.10617936  0.0503025  -0.03956304  0.03059226 -0.02318125 -0.00244342
  0.1097436  -0.0376353   0.09090431  0.02471164 -0.00934408 -0.14199175
 -0.07450734  0.08948897  0.05569707  0.11706495 -0.00628828  0.00771449
 -0.03939098 -0.09066707  0.02684788  0.05745645 -0.07696851 -0.00119278
 -0.00590399  0.02380244  0.08069593 -0.06517842 -0.00961198 -0.1154248
  0.12441439  0.08966282 -0.06847439  0.05296708  0.03873026 -0.09790341
 -0.0762212  -0.14199197 -0.00546994  0.08616294 -0.06128062 -0.01138802
 -0.03084868  0.02138472 -0.07022505  0.02622367  0.01291114  0.08944391
  0.0258764  -0.0152238  -0.01022499 -0.04542993 -0.01784     0.07399666
  0.12264977  0.01248039 -0.00576491 -0.00348487  0.07992281  0.08760571
  0.08168741  0.0224173   0.00421678  0.00635917 -0.08894741 -0.01306627
  0.05228547 -0.03232406 -0.03340572  0.01088076 -0.06268054 -0.03534067
  0.05191885  0.00696069  0.06065501 -0.00710257  0.07726254 -0.0486147
 -0.06462585  0.08354764  0.0921317   0.00196073 -0.01902757 -0.03036844]
[ 3.22852060e-02  1.58769009e-03 -7.57166417e-03 -2.83523053e-02
  2.90683024e-02 -3.95802110e-02  8.46386626e-02 -2.99328249e-02
 -1.02090418e-01  6.24391586e-02  1.26687273e-01  5.85489534e-02
 -1.20943516e-01 -7.57047953e-03 -1.90184228e-02  1.00806653e-01
 -1.69129148e-02  5.87715320e-02 -7.22163171e-02  3.32054012e-02
  2.62843305e-03 -3.24260304e-03  9.25814211e-02  5.34128696e-02
  9.92477462e-02 -3.54439728e-02  1.27280191e-01  4.47676107e-02
 -5.43640032e-02 -8.06450546e-02  2.26405542e-02  5.07109389e-02
 -1.58319939e-02 -1.09540686e-01  3.14264521e-02  4.23374362e-02
 -1.47218719e-01  7.36573935e-02 -6.99005648e-02  4.58197622e-03
  7.43896654e-03 -6.57195151e-02  1.07347555e-01  2.79145855e-02
 -7.73763955e-02  2.65824851e-02 -6.76605031e-02 -7.41361901e-02
 -7.41939396e-02 -8.80779922e-02 -1.11096539e-01 -8.07462409e-02
 -6.23451099e-02  7.93212652e-02 -7.68104047e-02 -1.05808116e-01
  3.24924402e-02 -7.23550888e-03  3.46740931e-02  4.54395488e-02
 -5.70886582e-02 -5.12815155e-02  3.37480530e-02  1.94189418e-02
 -3.32666415e-04 -3.92487310e-02 -4.41857055e-02  5.64831309e-02
  1.40611315e-02 -4.05114256e-02  4.31450121e-02 -9.14477787e-05
 -8.56586080e-03 -4.25513759e-02  4.58704643e-02  7.34652334e-04
 -8.67659152e-02 -5.02139218e-02 -9.90751833e-02 -4.72019278e-02
 -3.81313525e-02 -7.66741037e-02  3.77639495e-02 -1.00837670e-01
 -1.18005581e-01  3.78670171e-03  3.33621539e-02  2.02830229e-02
  1.36391789e-01  1.23417705e-01  5.43801114e-03  1.60990632e-03
  2.96634506e-03  3.52748223e-02 -6.00718148e-02 -7.16266930e-02
  1.02658153e-01 -3.33629698e-02 -1.81158353e-02  5.98094463e-02
 -2.11236849e-02  6.63673207e-02 -2.00716589e-04 -5.63459657e-02
 -1.17992498e-02 -2.18061097e-02 -1.01385839e-01  4.44877073e-02
  6.57257140e-02  5.76627254e-02 -4.72904295e-02 -1.03441775e-01
 -6.36364445e-02 -8.23755041e-02  3.79954018e-02  1.13726854e-02
 -4.45077866e-02 -5.14399260e-02  6.43120408e-02 -3.32741030e-02]
[-0.00929971  0.02097355 -0.06976389 -0.07887734 -0.04991363 -0.11341153
  0.02927822  0.03804618  0.08045761  0.0532503   0.00427433  0.04141175
 -0.0757051   0.01724684 -0.06013374 -0.06276531  0.02981096 -0.09835174
 -0.03096922  0.01114196 -0.10952777 -0.0706906  -0.00751365  0.00111403
  0.06542345 -0.00973452  0.08924868  0.05399342  0.02708145 -0.00958272
  0.00233873 -0.09033863  0.01293781 -0.00103692 -0.05728368  0.03600166
  0.05049733 -0.02556709  0.00996709 -0.00662408 -0.03744809  0.06451239
  0.02357053 -0.02379622 -0.02507828 -0.10730406  0.04406278 -0.00331686
  0.01766403  0.03210943 -0.02018338  0.00270371  0.08803245 -0.00047897
 -0.04872721  0.05982691 -0.08201753 -0.01269761 -0.01932597  0.03449928
 -0.05516381 -0.00593171 -0.00636616  0.09838463 -0.02641281 -0.05139917
 -0.0068427   0.00574916  0.07569538  0.02432043  0.01488258  0.04443862
  0.06007285  0.01947878 -0.02780332 -0.08454956  0.01358203 -0.06230254
  0.08056082 -0.01527842 -0.02993733 -0.03711212  0.03599342 -0.06777093
 -0.03113749  0.06557287  0.04487616 -0.0938196  -0.02024519  0.03651764
 -0.00504461  0.06104752 -0.08365613 -0.04363233  0.05341463  0.05453378
  0.00452604 -0.01796701  0.0678188   0.0664934   0.08565223 -0.06047604
 -0.08321972 -0.1263016   0.0352263  -0.05203443  0.02104917 -0.0128589
  0.10375368  0.00678926  0.01010068  0.0627298   0.05783307 -0.01509996
  0.06506062  0.03182013 -0.09286263  0.06344576 -0.00945305  0.01651062]
[ 9.19770543e-03 -2.38919221e-02 -1.66440755e-01 -6.36606663e-02
 -1.26135886e-01  8.38766992e-02  1.20866727e-02 -5.20679867e-03
 -7.90180713e-02 -6.88172355e-02  3.21117230e-02  1.03168525e-01
  3.13847363e-02 -7.60038123e-02 -7.94622675e-02  1.27696067e-01
 -3.95519696e-02 -7.52585605e-02 -7.10827559e-02 -8.92574713e-02
 -8.84899795e-02 -3.22388411e-02  1.72031075e-02  6.30542263e-02
 -5.92522658e-02  8.00650939e-02 -4.13267314e-03  7.48675466e-02
 -1.27228960e-01 -5.34305768e-03 -1.64431751e-01 -4.92332466e-02
 -1.19741805e-01  5.96581548e-02 -8.68791416e-02 -7.06528500e-02
  2.42773164e-02  1.67559177e-01  8.38443544e-03  7.26124877e-03
 -7.80806541e-02  6.06338643e-02  8.57513249e-02 -3.31488512e-02
 -1.02652453e-01  5.31868674e-02  7.97035247e-02  1.17264818e-02
  1.57982148e-02  1.98185537e-02  2.32028961e-02  6.18988089e-03
  7.31224492e-02 -6.63463995e-02  6.91954419e-02  1.99315492e-02
 -8.00587144e-03  6.65275231e-02 -3.85444649e-02 -1.08271852e-01
 -8.20780545e-02  9.75708291e-02 -4.90857884e-02 -1.28841391e-02
 -7.01037273e-02  4.71015312e-02 -4.73217219e-02  9.05037895e-02
 -4.00338396e-02 -1.26451582e-01  9.93703529e-02  1.20403590e-02
 -2.50366684e-02  1.29253715e-01 -9.44935605e-02  4.26728092e-02
 -1.09988473e-01  5.50253876e-03  2.20627058e-02 -2.16903090e-02
  4.66664545e-02  1.87581591e-02 -1.00260591e-02  1.23580828e-01
 -1.72276840e-01  1.03068888e-01  5.18927053e-02  2.49183103e-02
  1.20283142e-02  8.56468529e-02  2.80535929e-02  2.04940379e-01
  7.48018967e-03 -9.38176550e-03 -7.44754001e-02  4.90205083e-03
 -7.28812069e-02  1.07419781e-01  1.49986699e-01  1.21186815e-01
 -6.39853030e-02  5.36253229e-02 -7.87949413e-02 -1.54489363e-02
 -1.18321422e-02 -9.12163332e-02  1.60375729e-01 -1.23902960e-02
  1.85859055e-04 -4.91359867e-02 -9.20011327e-02 -5.66071346e-02
 -4.32846025e-02 -3.08403689e-02 -2.76648086e-02  6.83000162e-02
 -1.90845542e-02  1.30959690e-01  1.92469619e-02 -8.21605548e-02]
[ 0.12276855  0.08664526  0.12242716  0.02643643 -0.00914882  0.06629964
 -0.1233193   0.05210392  0.03990854 -0.16550772 -0.05232694 -0.08857673
  0.05361503 -0.01604296  0.03759007  0.01014197  0.0399707  -0.01395682
  0.03125265  0.02134438 -0.11047915  0.02970755  0.0318237   0.02879662
  0.11283522  0.11260246 -0.0776675   0.04563383 -0.05772156 -0.01178126
 -0.08520261 -0.04556427 -0.06216887  0.04376763  0.06667013 -0.06274055
 -0.11552069 -0.06703186 -0.08838709  0.00083364 -0.08864187  0.07266302
 -0.01708661 -0.08223377 -0.09848206  0.03002216 -0.1062005   0.10462777
  0.14985807 -0.0720893  -0.09375858 -0.0356801   0.09481601  0.07109924
  0.0087278  -0.02460731 -0.0341023  -0.08795787 -0.03713223  0.15008192
 -0.00049315 -0.06889793 -0.07451553 -0.08301016  0.11683072  0.10059087
  0.06362207  0.01296862  0.1067205   0.03628023  0.03961539 -0.0462309
  0.02453813  0.04865838  0.0308444  -0.05754283  0.00883568  0.02464028
  0.0194391   0.09552072 -0.07297137 -0.02971679  0.10136207 -0.05209501
 -0.00994676  0.04718608  0.05761977  0.06052111 -0.14509562 -0.10269377
 -0.14864579  0.06372949 -0.03832596 -0.07399974 -0.06381045 -0.03374166
 -0.03594445  0.09009695  0.02358992  0.06080269  0.06202667  0.06728491
  0.07408633 -0.0938025   0.02975536 -0.07096531  0.01097643  0.01783858
 -0.07834091  0.11176404  0.04918139  0.06748545 -0.00191153  0.00749099
 -0.01242511  0.06732    -0.09099195 -0.03451216  0.061352    0.06541926]
[-0.01980694  0.14615276 -0.03375731  0.01424977 -0.04929953  0.08093391
  0.01823762  0.06422434 -0.00546634 -0.05317247 -0.00661411 -0.01709359
  0.04902511 -0.0326318  -0.11190866 -0.01861507  0.02241611  0.00847153
  0.08153903 -0.09188811 -0.07634143  0.0618941   0.05347863  0.03965165
 -0.03269825 -0.035074   -0.01554507  0.14229968  0.04946871 -0.02062253
  0.13232884  0.05331943  0.09565915 -0.00674794 -0.03578906  0.06559939
  0.03061132  0.02348178  0.16135032  0.02864932 -0.15019242  0.13902831
  0.03577391  0.09900994 -0.07226688 -0.10141702  0.15933123 -0.1127497
 -0.05806195 -0.10041998  0.0409883   0.01913492 -0.07809742  0.0968948
  0.07567392 -0.00239301 -0.07662382  0.03887086 -0.06503843 -0.00065147
 -0.04475453  0.06312792 -0.06688605 -0.09877385  0.07938094  0.03393985
  0.07091852 -0.02582181  0.11089793  0.13526525 -0.09657007  0.05623169
  0.02048342  0.05035657 -0.0935788  -0.02829003 -0.02812526  0.0593417
 -0.04553017 -0.08303482 -0.0084635  -0.08168426 -0.09689468  0.1501397
 -0.15971924 -0.15456083 -0.07788856  0.00256294  0.0482775  -0.08531492
  0.13000268  0.03204922  0.03104807  0.0105315   0.04376267 -0.00558194
 -0.03656111  0.02122631  0.10853462  0.08278857 -0.11150245  0.01753278
 -0.00574862  0.00831531  0.04701358 -0.00259749 -0.08952882 -0.01068436
  0.05144814  0.01630491  0.08370479  0.02310929 -0.05037484  0.12860636
  0.1130085  -0.08400424 -0.01680476 -0.03841973  0.08792087 -0.0604319 ]
[ 0.05257181 -0.01875661 -0.00899785 -0.06848429 -0.01303765  0.09783331
  0.02024686  0.00806645  0.03684369 -0.02730173 -0.05178614  0.0173752
  0.02706446 -0.09866436 -0.09121689 -0.08863226 -0.05826697 -0.0731452
 -0.05860815  0.14387193  0.07320739 -0.1093822   0.07090521  0.02668302
  0.03569263 -0.02373396 -0.07263097  0.01119839 -0.02501928  0.00968777
 -0.01307001 -0.05782139 -0.03072206 -0.03361775 -0.04238547  0.01695922
 -0.04207008 -0.17535336  0.06060635  0.0471305  -0.01010334 -0.0734327
 -0.00147721  0.05397718  0.01746596 -0.00130611  0.0250838   0.01131865
 -0.05964392 -0.08651555 -0.09739473 -0.07986058 -0.15687177  0.05582398
 -0.06105176  0.00340627 -0.09660064 -0.01536384 -0.04177074 -0.0416129
 -0.04105546  0.07539961  0.02435942 -0.03798918  0.05143644 -0.04945584
  0.03859683  0.01885834  0.10177582  0.03547816  0.05501151  0.03059441
 -0.10779336 -0.03142084 -0.03656907  0.06214969 -0.01521857 -0.01949456
  0.05779682 -0.10005714  0.01975548  0.00584179 -0.06642362  0.10760126
  0.03249737  0.02339562 -0.08709393 -0.00197685  0.00626286  0.03143653
 -0.10425857 -0.09436303 -0.07227646 -0.00502215 -0.005685    0.02921067
  0.06184657  0.00105794  0.15175463  0.07500221 -0.01800216  0.07920089
  0.01960769 -0.052332    0.03730788 -0.03216445  0.10094901  0.06475794
 -0.06157065  0.00117114  0.01905819  0.11579477 -0.06019717 -0.06530519
 -0.0279238   0.06528411 -0.03765226 -0.06899959  0.02922988 -0.01246022]
[ 0.10425987 -0.12949462  0.06573515 -0.00309315  0.00530494  0.0613475
 -0.00325833 -0.0668968   0.00057619 -0.06929969 -0.02482727 -0.09796451
  0.0246424   0.0469599   0.00629598 -0.07795829 -0.06870805 -0.02278608
 -0.04931919 -0.07670958  0.00041695  0.00298405  0.03033618  0.04356721
 -0.0646107  -0.04911232 -0.02072517 -0.04824284 -0.07189267 -0.02123839
  0.05621441 -0.02052716  0.00258593  0.10305972  0.00623674  0.03601866
 -0.06130109  0.03751724 -0.05932238  0.06849436 -0.13201359  0.11110825
 -0.02065375 -0.01332991 -0.06495255  0.06125434  0.00173747  0.04318229
  0.14698523 -0.09195548  0.115983   -0.03290995  0.09122254 -0.06123821
  0.07248048 -0.05743414 -0.07691061 -0.08332268 -0.0482321   0.04287425
 -0.01210243 -0.1264744  -0.04849494  0.10093573 -0.06230192 -0.01547968
 -0.0491538  -0.04678579  0.07080416  0.04618762  0.06667265 -0.00773977
 -0.00101051  0.0025112   0.01503257 -0.05542126  0.05152511  0.02722573
 -0.07767577  0.04334925  0.00618163 -0.07355265  0.04118439 -0.07140908
  0.04556647  0.11669103  0.0524735  -0.0093072  -0.15405299  0.05352883
 -0.08009765  0.06430428 -0.03123008 -0.09158386 -0.0057467   0.04723673
 -0.0368377   0.04950133 -0.07424846  0.06245898  0.15825596 -0.02258271
 -0.08770308  0.05671071 -0.11442146 -0.03144836  0.01443565 -0.00477461
 -0.00079815  0.06313415 -0.06488386  0.01584325  0.03904031  0.03261557
  0.03495581  0.04466168  0.0002517   0.07973545 -0.04460279 -0.07927743]
[ 0.08331194  0.06829084 -0.03103791  0.00945104  0.02361194  0.11365054
  0.01792388 -0.11024807  0.07096548  0.01926248  0.03190013  0.0184468
  0.05642113 -0.04691743  0.08090472  0.20365837  0.03936549  0.00032662
 -0.02825185  0.12454463  0.08030682  0.00518091 -0.06360473 -0.05140143
 -0.0796189   0.07672003  0.08667144 -0.01917915 -0.03205149 -0.03594521
 -0.10856771 -0.05197013 -0.01276854 -0.02038397 -0.05786082  0.00984154
 -0.08381286 -0.15321745 -0.00146776 -0.08339524  0.01646684  0.00458151
  0.00660083  0.10746375 -0.09106585 -0.0633339   0.02286566  0.10764825
 -0.13091835 -0.09970656 -0.02778897  0.00870607  0.01343223 -0.04790276
  0.05449921 -0.07072998 -0.00522317  0.05830446 -0.04575736  0.04545153
 -0.07230816  0.06889114 -0.02202455  0.04693737 -0.02177032  0.06607881
 -0.08523756 -0.05167488  0.10563169 -0.03055667 -0.07230092  0.02993004
  0.06490036  0.00328027 -0.05031483  0.0301514  -0.02847866  0.0548145
 -0.09775947  0.13989875 -0.0113956   0.01836899  0.01113168  0.12294508
 -0.05445596 -0.0862812  -0.01159949  0.02354353  0.06504168  0.1064413
 -0.1045956  -0.08890048 -0.01194896  0.08203426 -0.13376652 -0.03305387
 -0.00765062  0.06572214 -0.07690426  0.1176438   0.04554477  0.06040472
 -0.08970677  0.04329829 -0.04423734  0.02444169  0.09185479 -0.00202785
 -0.01752158 -0.03801581  0.01174148  0.07584466 -0.02285384 -0.11657147
 -0.01189479 -0.08896898  0.05128933 -0.1208217   0.00148166  0.02149463]
[ 0.06909427 -0.10879827  0.04591802 -0.07826591  0.05582143  0.17184575
  0.05054491 -0.05977156 -0.07455368  0.05865253  0.08686942 -0.08923969
 -0.00693598  0.0553119  -0.07647922  0.0416815   0.09634446  0.0250327
 -0.08187974  0.05131237 -0.02941734  0.08480526 -0.02662466 -0.01525176
  0.0374633   0.01124662 -0.03401341  0.00480446  0.02768935 -0.02880884
 -0.05655086  0.00145005  0.01895351 -0.00700265 -0.0183852  -0.03375725
 -0.00320212 -0.21179357  0.01355445  0.07396416 -0.02046711  0.02565976
  0.01751078  0.03073239 -0.05010507 -0.00102013 -0.0209741   0.04797386
 -0.01260144  0.06500714 -0.06829928 -0.07785679 -0.01742311 -0.08620312
 -0.08447673 -0.01756805  0.03855855  0.04343029  0.04016561 -0.03315545
  0.0828701  -0.07358218  0.00170159 -0.00322675 -0.07449842  0.02612051
 -0.04380314 -0.02457026 -0.07216325 -0.05071153  0.0663515   0.06343398
 -0.10909034 -0.08308133  0.08951888 -0.03792551  0.00810512  0.01560434
 -0.04966716  0.02362179  0.07686638 -0.08023208 -0.01322023  0.04770346
  0.07716193  0.04623786  0.07310375  0.03410068  0.102585    0.02541035
 -0.13325815 -0.07289983  0.03887386 -0.03394905 -0.11396959 -0.09037688
 -0.09323137  0.04428413  0.01445513 -0.05584347  0.07447433 -0.11846112
 -0.08339351  0.04705705 -0.02645967 -0.02629093  0.09326393 -0.03834217
 -0.04992725 -0.01385133  0.06930919  0.02165326 -0.07127966 -0.02910219
 -0.03360127 -0.00671507 -0.07102202  0.03992366 -0.03136086 -0.02358215]
[-0.00325625 -0.05548748  0.04988917  0.00608666  0.01995771  0.07744242
 -0.11155985  0.05121054  0.00743779 -0.06711177  0.11952214  0.01261149
 -0.03734249  0.03928664  0.0554951  -0.19186614 -0.02716844 -0.07308065
  0.04141566  0.10613546  0.00648517 -0.06971861 -0.06728807 -0.02202696
  0.07081123 -0.04286045  0.04841539 -0.10755155  0.06251121 -0.03346375
 -0.06794907  0.01296263  0.05474785  0.04332147  0.01918658 -0.0059092
 -0.00662647 -0.06905607  0.0670964   0.10543828 -0.01627382  0.08114915
 -0.02394543 -0.12483315  0.08923108  0.03962666 -0.06723651  0.10658866
 -0.00856723 -0.02142435  0.00411921  0.07828335  0.06717243  0.05287825
 -0.00396453 -0.06098467 -0.08278942  0.08238674 -0.04812139  0.07691063
 -0.01312901  0.00829674  0.00039462 -0.02069796  0.03412093 -0.0514844
  0.0500152   0.06599178  0.14328204  0.17345527  0.00309582 -0.04077568
  0.02221805 -0.08449852 -0.06354178  0.0738763   0.0507574  -0.08117367
  0.05870252  0.00628476 -0.09227798 -0.04882257  0.00652995 -0.0426041
 -0.04024205  0.0801933   0.02564477  0.05950196 -0.10349731  0.0267513
  0.00261803  0.03795201 -0.01082284  0.05931499 -0.02971077 -0.0516437
  0.09902908 -0.00508862 -0.00356752  0.03722772  0.07666695 -0.09467456
  0.0517926   0.02050834 -0.0567717   0.04816639  0.11190806  0.06173898
  0.02386374  0.00099024  0.0517803  -0.00365296 -0.02513062 -0.12698993
 -0.02687104 -0.06261878 -0.07706814 -0.04434483  0.06343947 -0.04185371]
[ 0.09148829 -0.08974574  0.02342968  0.07008684 -0.15411223  0.05654503
 -0.0781434  -0.09486878 -0.0114395   0.06409772  0.06523412  0.02880943
  0.00366629 -0.03501709  0.07553685  0.01918138 -0.02765909 -0.05396584
 -0.03068358  0.18720666  0.05350795  0.02009185  0.10965037 -0.01090268
  0.01750093 -0.03150968 -0.00672239 -0.01752533  0.01771814  0.06095336
  0.02502106  0.00114759 -0.04869828  0.06031085 -0.08204634 -0.08682413
 -0.04724113 -0.04476131  0.01671666 -0.04488001 -0.05046637 -0.08388516
  0.0486914   0.09114841  0.0024504  -0.06480844  0.06910493  0.07398042
 -0.02138741 -0.08466477  0.0138446   0.01164534 -0.07482544  0.01049491
 -0.04298845 -0.07178079 -0.07228769  0.03776253 -0.004632   -0.03108104
 -0.08699762 -0.01647259 -0.05507956 -0.00794014 -0.037086    0.05552638
 -0.06634891  0.01839192  0.04370157  0.09214105  0.0779086  -0.01600581
 -0.02165924 -0.01986569 -0.0067688  -0.0678017   0.09112277 -0.10711794
 -0.04292068 -0.08248929  0.09298647 -0.03703685 -0.05266247  0.14626907
 -0.02282334  0.09542402 -0.11007542  0.0776234   0.09027177  0.04034445
 -0.05101383 -0.01926803  0.03478786  0.02002995 -0.10673043  0.07265073
 -0.00052116  0.04950152  0.17641708  0.06531616  0.09712642  0.08233171
  0.05472777  0.02447691  0.04110813  0.0565013   0.10750894 -0.07466538
  0.10631598 -0.14912201  0.03408335  0.0242769  -0.08340697 -0.11543573
  0.08109879  0.03959542  0.01775801  0.0070682   0.0739408   0.03415442]
[ 0.23866646  0.17561194 -0.00843025  0.0258281   0.17947517 -0.00844967
 -0.02740089  0.04865545  0.00356539 -0.04784365  0.06354451 -0.02658836
  0.03641061 -0.09161891 -0.0874246   0.07225731  0.17437378  0.09538867
 -0.01275995  0.05954744 -0.05863522  0.15666847 -0.00576774 -0.06146879
  0.12363695  0.12729208  0.06635982  0.07560159 -0.1210187  -0.10594088
 -0.08658097  0.02220807 -0.08882965 -0.14086685  0.06489953 -0.01043192
 -0.25754905 -0.05134027  0.11715851  0.16100839  0.06363022  0.06271809
 -0.02443454 -0.05842693 -0.11349448 -0.01885632 -0.14734985  0.01186148
  0.0179231   0.08422235  0.03659262  0.02146858  0.0606628   0.07144304
 -0.14243849 -0.1415328  -0.0027854   0.01105184 -0.06144581  0.10846464
  0.11127827 -0.11225664 -0.08504827  0.09625676  0.02890499  0.01036876
  0.02638096 -0.00845063  0.01868265  0.02014601  0.01893843 -0.03081925
 -0.07625709  0.11049028  0.00846172  0.07574208  0.13703854  0.0598716
 -0.03971381  0.24021362 -0.2618415  -0.16816331 -0.02835106  0.00860902
  0.00453669 -0.19874325  0.05299286  0.00267817 -0.09547263  0.00957396
  0.0078859   0.0588358  -0.07419267  0.01837357  0.00905872 -0.01058809
  0.13334024  0.04166313 -0.13053156 -0.01048342  0.113708   -0.04531725
  0.05037013 -0.10321195  0.14370786 -0.04541042 -0.1634713   0.05517035
 -0.04277932  0.05938766  0.16034158 -0.18833542 -0.0150641  -0.14873533
  0.13238311  0.01708654 -0.07120256  0.0064028  -0.06009628 -0.06994181]
[ 0.12362795  0.19822969 -0.0458402   0.04918682  0.06184193  0.02158948
  0.08883074  0.04376687 -0.07559089  0.09456656  0.11196803 -0.03679452
  0.0110382  -0.00145314  0.02573185  0.24124528  0.16717656  0.08043475
  0.06182406  0.0075651  -0.03516112 -0.07418788  0.01802613 -0.12431736
  0.08274687  0.01772253 -0.01808357 -0.02081264 -0.05262426  0.05429399
 -0.08290671  0.07298683 -0.10149241 -0.02262552 -0.02795677 -0.07935582
  0.01356444  0.05355006  0.0500369   0.07563283  0.11784258 -0.01519597
  0.10065099  0.04424503  0.06990848  0.05017648  0.03527788  0.07551849
 -0.12084389 -0.07746199 -0.12156367 -0.05377523 -0.07540932  0.19142045
 -0.05530946 -0.03267502 -0.03717308  0.00750045  0.0649629  -0.11986037
  0.07481819  0.12216561  0.07668936  0.09578568 -0.01187454  0.01606498
 -0.03391112  0.00798336  0.02265646 -0.16145457  0.00216796 -0.03654118
 -0.0827767   0.12423421 -0.07748176  0.04545581  0.02379639  0.01167527
 -0.02195556 -0.00313922 -0.03291435  0.01825769 -0.05282387 -0.01194091
 -0.02935477 -0.06228969 -0.09582984 -0.00964518  0.11000729  0.06073606
 -0.08962324  0.03440627 -0.05919877  0.07239804  0.05499348  0.06655212
  0.07163401 -0.13339573 -0.07928324  0.02231821  0.05714168 -0.06481986
  0.03710188 -0.14268348 -0.03253861 -0.06290826 -0.11041576  0.01629904
 -0.05102291 -0.12557314  0.1318621  -0.04723581  0.00645425 -0.09408553
 -0.00904925 -0.0440799  -0.08836044  0.13840973  0.03408127 -0.12417978]
[ 0.07686429  0.05027097 -0.12931022  0.02886939 -0.00827392  0.01988181
 -0.00797889  0.00434518  0.0088237  -0.03327885  0.08535466  0.06862296
  0.03400453 -0.1365434  -0.01423811  0.03712825  0.00598581  0.1756923
  0.02240563  0.1106133   0.14505102  0.00286692  0.09842042 -0.12105813
  0.05601992 -0.04867944  0.13263816 -0.13232014  0.11221842  0.13702254
 -0.11612516  0.03791602 -0.01948494 -0.03552604  0.01410585  0.04171412
 -0.003336    0.0153666  -0.00230786 -0.05784156  0.02644123 -0.03967631
  0.08575149  0.09666292 -0.09330336  0.05977204  0.15730855  0.0781389
 -0.07521459  0.06411295 -0.09979039  0.01235424 -0.13154006  0.13149467
 -0.03685842 -0.09194894  0.04885746  0.03488411  0.04478643  0.05918683
 -0.12738846 -0.0114661   0.00893016 -0.08093889  0.04383512  0.0527714
  0.02547373  0.1205142   0.12205252 -0.14533824 -0.12492354  0.06525561
 -0.0799829  -0.07987698  0.03729795 -0.07018302  0.09482665 -0.00866692
 -0.0751757  -0.05753994 -0.00738745  0.12283722 -0.06714758  0.08335029
  0.13958746  0.12781942 -0.01224914  0.08293207 -0.02148687  0.04633074
  0.08134726 -0.06677329  0.02451537  0.03328208 -0.02687693  0.08103337
 -0.01405454 -0.05051965  0.05829922  0.03146161 -0.04962423 -0.05390266
 -0.04366696  0.01420665 -0.03961574  0.05657976 -0.01562436  0.1061187
  0.00295692 -0.10497469  0.01995105  0.06055726 -0.05831148 -0.03341188
 -0.08036299  0.06602276 -0.00859668  0.05838848  0.1469012  -0.0717852 ]
[ 0.12782814  0.01786324  0.05499355  0.03254153 -0.072095    0.14451773
 -0.08129674  0.00053757 -0.1401863   0.01884414  0.11140846 -0.08965932
 -0.07792801 -0.1139105   0.02552139  0.11415544  0.11426866 -0.1438891
  0.01426131  0.13350219  0.04269939  0.00555792  0.02358061 -0.16436304
 -0.12675881  0.11943489  0.0204122   0.07692318 -0.06364451 -0.0553763
  0.01457317 -0.03783859 -0.05725598  0.08658927  0.03521086 -0.10710444
 -0.14306594 -0.15471385  0.0123647  -0.00465348  0.0999228   0.11959495
 -0.03286414 -0.00104371  0.08799035 -0.05600965 -0.00694951  0.20021993
 -0.03356651  0.00689598  0.05257163 -0.08980381 -0.13076821  0.11285208
 -0.03577606  0.07143807 -0.05952627 -0.0059037   0.05366552 -0.01315254
 -0.04038766 -0.08827429 -0.08523751  0.04396394  0.06618363  0.0285767
  0.0448417   0.04182091  0.0809729  -0.04879305 -0.06981944 -0.09998292
 -0.1297807   0.04821438 -0.08939198  0.01764771 -0.00636634  0.03239901
 -0.04790223  0.01399766 -0.04880173 -0.13470098 -0.15263656  0.03469295
 -0.04697802 -0.11742768 -0.07896241 -0.03279658  0.00999001  0.03685203
 -0.00461658 -0.05007163 -0.11054951  0.00166974 -0.08185808 -0.16406703
  0.01969053 -0.07455347  0.02526475 -0.005088    0.09007414 -0.19963485
  0.0605808  -0.0383348   0.13914214 -0.04853483  0.12753321 -0.06636168
 -0.11925901  0.02229703  0.09946394 -0.03412751 -0.15307845  0.01983813
  0.08779878 -0.08814399 -0.03318797  0.10689202  0.02855322 -0.09273926]
[-0.01387983  0.14475396 -0.03190426  0.07530496  0.08756007  0.02209976
 -0.10948671 -0.07675534 -0.04650246 -0.00942288  0.00201479 -0.07775672
 -0.04604298  0.02488412 -0.03174126  0.12913442  0.09852108  0.06334598
  0.07379708  0.05551163  0.06093017 -0.0309878  -0.10038086  0.02078553
 -0.10441169  0.1082679   0.0118796  -0.07827172 -0.0378071   0.01605831
 -0.08082379  0.01952913 -0.02378912  0.07548579 -0.08340209 -0.01443204
 -0.02188412 -0.01625865  0.09367095 -0.08456262  0.02745884 -0.01996869
 -0.01220421  0.15161775 -0.002316   -0.05278927  0.12908828  0.02489982
  0.10084145  0.08607783 -0.08497205 -0.00092907 -0.07203505  0.14319158
 -0.09300849 -0.02847119  0.0308805  -0.09626212 -0.02573251  0.01387803
  0.00591978  0.03813858 -0.03655489  0.05750277  0.06855448  0.04332639
  0.04283518 -0.0361248   0.20673911 -0.03658836 -0.12004402 -0.01349778
 -0.10127169  0.02076299 -0.05866892 -0.06173459  0.0189415   0.0705308
  0.05098377  0.04055123  0.08920069 -0.04630164  0.06958149  0.12397283
 -0.06085547 -0.07536738  0.06930446 -0.04723994  0.05107041 -0.0194004
  0.07823507 -0.03208365  0.05334633 -0.03263924 -0.01004655 -0.06943634
 -0.02554696 -0.01228526 -0.04584802  0.03310519  0.12904978  0.0546383
  0.07132473 -0.03784415 -0.11003119 -0.08444168  0.04567915  0.02506888
 -0.04258475  0.04252974 -0.05923533 -0.1344809   0.05264685 -0.05547965
  0.00082604 -0.02850933 -0.00699145 -0.1349335  -0.01552419 -0.06619056]
[ 0.01342463 -0.06819231 -0.07932891  0.05232714  0.02956439  0.08213387
 -0.0234459   0.03276404  0.04999039 -0.03548303  0.07881258  0.03571965
 -0.05072155 -0.02312137 -0.03150114 -0.02053782  0.02602955  0.01779911
 -0.01320573  0.10335936  0.06264063  0.01503355 -0.00142326  0.01089123
 -0.01392771  0.03211361 -0.01458335 -0.11282936  0.01817782  0.11207026
  0.06184546 -0.03084258 -0.01745242 -0.05868737 -0.08619804 -0.01478513
 -0.03777581 -0.15396851 -0.04036287  0.05742354  0.0157834  -0.11236116
  0.0917578  -0.06870667 -0.02271027  0.04916648 -0.01317599  0.05751304
 -0.01566799  0.01204214  0.0704735   0.0445838  -0.01791149 -0.06334643
 -0.06078373 -0.09496613 -0.03138468  0.06985465 -0.07559238 -0.01276765
  0.01714845 -0.01883089 -0.0192067  -0.00401615  0.10149359 -0.08449959
  0.10127863  0.02572512  0.09033328 -0.01460155  0.00674448 -0.08716401
 -0.06904481 -0.07793374  0.0540023  -0.10687056 -0.02625832 -0.12393201
  0.01675213  0.01924159 -0.03803257  0.07606544  0.005931   -0.036382
 -0.01162943  0.02046794 -0.04285085  0.06330238 -0.02155659  0.07490809
 -0.06279869  0.0519908  -0.05615312  0.01829268 -0.00776872 -0.01356479
  0.03673981  0.058936    0.06463271 -0.07260821 -0.06472381 -0.06481651
 -0.04952005  0.02919745 -0.03569    -0.0650259   0.00674321 -0.11100595
 -0.03837854  0.03166635  0.03703951 -0.01002089 -0.11859486 -0.07654864
 -0.03189629  0.02121489 -0.02831182  0.00467276  0.08985036 -0.04515026]
[-0.01524698 -0.03327454 -0.02865401  0.05937888 -0.05116989 -0.02220933
  0.06755427  0.04227388  0.04010263  0.0624368   0.0381701  -0.10613819
 -0.09681006 -0.1199639   0.07998152 -0.01713013 -0.04476662  0.16465577
 -0.03024275 -0.02598647  0.10315495 -0.02462461 -0.02619093  0.03119008
  0.0252842   0.04576455 -0.01229322  0.05943118 -0.09660842  0.07685845
 -0.09931517 -0.09058517 -0.013872    0.00276159 -0.05822961 -0.08277232
 -0.01994641  0.13748427 -0.04158236 -0.05011654  0.13734518  0.0361819
  0.02529625  0.06403711 -0.06568916  0.01609831  0.08233047 -0.01593457
 -0.15839384  0.08775806  0.09059552 -0.00835264  0.03409164 -0.02482805
  0.0715281  -0.05228956  0.0646639  -0.01470964  0.06086672  0.01789836
 -0.02705661  0.05322355  0.00476918 -0.01356587 -0.01923791  0.10090828
  0.08293748 -0.02935611 -0.04896882 -0.06432217 -0.00834057 -0.05989157
 -0.04387901 -0.11093146  0.08308773 -0.01737326  0.02030021 -0.0321187
  0.03607319  0.02877345 -0.06005713  0.08707523  0.08344043 -0.19582148
  0.09613743 -0.07977125 -0.00549035 -0.01193077 -0.05837617  0.10794257
  0.12739347 -0.05178547 -0.02679952  0.07434556 -0.0225393   0.00893506
 -0.03659763 -0.04462089 -0.03072714  0.05900114 -0.10049662  0.04110072
  0.02971169 -0.0923268  -0.03366797  0.1398239   0.07496537 -0.03693936
 -0.0356324  -0.04541434  0.05575619  0.0990661   0.06032214  0.0042813
  0.0430796   0.06655569  0.0389775  -0.03905426 -0.06507399 -0.03829156]
[ 0.06489608  0.04639752  0.05131396 -0.02668778 -0.0980856  -0.04202363
 -0.06326425 -0.04950492 -0.02587378  0.05715371 -0.16377532  0.01506381
 -0.00919514  0.03127168 -0.03037777  0.0355389   0.09837213  0.01269976
 -0.02686287 -0.10520262  0.00625308 -0.16780855  0.0625478  -0.12699144
 -0.07421812 -0.01250463 -0.03472752 -0.08322076  0.06705444  0.03162701
  0.02174699 -0.04043595  0.08852014 -0.05201001  0.0260309  -0.0832964
 -0.08075266 -0.18605117  0.04639684  0.05706822 -0.00740329  0.02990215
 -0.11466517  0.03658478  0.0686294  -0.10172901  0.06619433 -0.03351203
  0.08585299 -0.0117824   0.12214305 -0.01476248 -0.02678262  0.02489544
 -0.09451963  0.07679857 -0.07822062  0.00397758  0.0787213   0.0879978
 -0.00066087  0.05989081 -0.02114406  0.07241603 -0.07221645 -0.13836733
 -0.06970531  0.00202354 -0.09515311  0.01820644 -0.0538891   0.04034736
 -0.05203431  0.09113002 -0.00455907 -0.07356177  0.03058073 -0.02611118
  0.05461154  0.05944386 -0.01696622 -0.05683908 -0.04402607 -0.04615352
 -0.09950526 -0.17429358  0.02572199  0.05505216 -0.12897187  0.01303826
 -0.04684701  0.07869223 -0.06090199  0.06413791  0.05655042  0.04568248
 -0.01946895 -0.06000904  0.00539178  0.01822482 -0.01121264 -0.04925834
  0.08066663  0.02639351 -0.01608978 -0.18506686 -0.1534707   0.15783797
  0.01218317 -0.03303785  0.00373141  0.0500887   0.06601325  0.06706329
  0.04418106  0.01585163 -0.07142657  0.01806584 -0.12126545  0.1838426 ]
[ 0.0818477  -0.09330923  0.0127846  -0.01448618  0.05480896 -0.05748747
 -0.03259677 -0.10489285  0.00662002 -0.05409428  0.11551889 -0.14300163
 -0.05487221  0.0420482  -0.07152567 -0.01807665  0.10564671 -0.0979273
 -0.10939924  0.03321502  0.01696225  0.01873248 -0.02430791 -0.15935664
 -0.06693813 -0.02579405  0.03113285 -0.04263584  0.1435972   0.04393766
  0.08974759 -0.10569888 -0.07635192  0.00037474 -0.01998376 -0.07377097
  0.00960966 -0.05203515 -0.01297159 -0.0252705  -0.01212251 -0.0463873
  0.0221728   0.00439296 -0.08068319 -0.06637241 -0.10011993  0.03525842
  0.07334208 -0.08830678  0.08829607 -0.02758507 -0.06929128 -0.09345598
  0.13190998 -0.02198    -0.08792137 -0.00167514  0.07318433 -0.06617132
 -0.02174392 -0.13899398 -0.07634132  0.16015023  0.05176818 -0.05339599
 -0.06921064 -0.0808632   0.1444176  -0.04177192 -0.09211174 -0.07563861
 -0.02272826  0.09599875 -0.07209478 -0.12085555  0.01776334  0.00958523
  0.01851396  0.09651072  0.00455816  0.01954222  0.01534681 -0.07569179
 -0.05443873  0.08666304  0.02243298 -0.01834557  0.07443586  0.06963154
  0.1150259   0.04530323  0.05671113  0.04250655 -0.03444042 -0.04914436
  0.05767891 -0.02011033 -0.02350357  0.06675914  0.11559921 -0.02203553
 -0.02612895 -0.02527933  0.022187   -0.04941465  0.06120555  0.00832409
  0.01266739 -0.02466787  0.03355337  0.00833141 -0.0118626  -0.13865364
 -0.06148664  0.03617825  0.02795591 -0.02063128 -0.01279465 -0.03520013]
[-0.06500033  0.10251357  0.08835816  0.02181083 -0.03777929 -0.01704358
 -0.03845841  0.16424395  0.14662145 -0.00818766  0.02633961 -0.07681833
 -0.14923161  0.04323584 -0.04158524 -0.02445927 -0.13393866  0.09181654
  0.01438714  0.00545075  0.1650488  -0.05923897 -0.08379026  0.08736619
 -0.12265548  0.06200172  0.08847123  0.1135311   0.03185857  0.05446719
 -0.06522673  0.12002801  0.10961611 -0.06274849  0.07544161  0.00562398
 -0.03824176  0.15642598 -0.03118616 -0.11275566 -0.03175359 -0.13751557
  0.00875612  0.11322165  0.09613573  0.14912109  0.03152042  0.04073555
 -0.0761226  -0.10245717 -0.1672976  -0.0791861  -0.02294022 -0.1314911
  0.07253231  0.14890729 -0.05621043  0.11028484 -0.04173424  0.04818536
 -0.01904543  0.01923226 -0.02058113  0.03887624 -0.09201792 -0.011406
  0.03508663 -0.11677466 -0.11673823 -0.04122429 -0.07085158 -0.03882203
  0.04006177  0.08701711 -0.0011516  -0.04666435  0.02507017  0.00412434
  0.05461356  0.05943096 -0.05562638 -0.04603345 -0.02886094 -0.06658062
  0.14503616 -0.04627822 -0.07694481  0.06848658 -0.1718136   0.03018976
  0.2232122   0.07311855 -0.01354114  0.0665001  -0.03813487 -0.05497971
 -0.01823089 -0.09918597 -0.06814116 -0.09315834  0.00372777 -0.05860913
 -0.0538003   0.00847605  0.03681336  0.19689177  0.05713463  0.01055428
  0.04562532  0.01644035 -0.1190711  -0.1196907   0.01310463  0.01065604
  0.02752905 -0.00076406  0.01590823  0.05784019 -0.15708457 -0.02404918]
[ 0.0484343  -0.00669926 -0.00457792 -0.10670184 -0.01253128  0.0638734
 -0.11690919 -0.04160022 -0.09772699 -0.02564825 -0.0532339   0.09541836
  0.04118434 -0.05637079 -0.10179061  0.02020135 -0.00817455 -0.11081757
  0.02029055  0.00783079  0.06792162 -0.16593735  0.04498607  0.01975471
 -0.01902066 -0.09228785 -0.00418326  0.04658138  0.09005896 -0.08630145
 -0.01870931 -0.02864431  0.12806767 -0.0190463  -0.07524778  0.0813866
  0.05575139  0.08971457  0.04036771 -0.01720911 -0.07564389  0.06051334
  0.04849863  0.00526438 -0.09214009 -0.07686914 -0.10689538  0.0114534
 -0.0385702   0.04755086 -0.00778883 -0.03788815 -0.07384698  0.08235575
 -0.02300121  0.02118888  0.07435796 -0.04387985 -0.03197028 -0.09651002
  0.02188008 -0.02351543  0.04973403 -0.06470576 -0.00642648  0.05165027
 -0.10357148  0.10513406 -0.07182591  0.06251702  0.06012952  0.04200993
 -0.11214115 -0.05013388 -0.02768759 -0.02750474 -0.11658224 -0.06698798
 -0.00102639 -0.04029392  0.05358236 -0.07659022  0.0421614   0.05789284
 -0.07954239  0.17707585 -0.01195839  0.00131009 -0.07843855  0.08232532
  0.04974614  0.09658114 -0.02489043  0.07039989 -0.0313446   0.01373411
 -0.00327175  0.06246874  0.06805494 -0.04121243  0.09405814 -0.00724187
  0.03483457 -0.03072949  0.02513738 -0.10376534  0.09405372  0.0121877
 -0.03390688 -0.06107983  0.02948863  0.03551484 -0.09641092 -0.02725401
  0.03902635 -0.02607624 -0.06930156 -0.10574206 -0.06082151 -0.09492195]
[ 0.09696111  0.02426383  0.01795966  0.01278093  0.04240956  0.06259774
  0.02030477  0.0609673  -0.0222522   0.08486214 -0.02047105 -0.0773266
  0.07388713  0.03799747  0.04393002  0.01368995  0.07922594  0.06969959
 -0.00788508  0.08858541  0.06021912  0.02855417  0.03582798 -0.17328575
 -0.00324798 -0.07461246 -0.03523304  0.00979754  0.03472721 -0.05441732
 -0.03821488  0.0228605  -0.05583585  0.10965293 -0.08209218  0.02460655
 -0.10353599  0.08458296 -0.02932473  0.02331159 -0.07547986  0.09774569
 -0.03705733  0.04041785  0.0818467   0.02413013  0.02848186  0.07444176
 -0.03334939 -0.00759997 -0.06700741  0.01523096 -0.06180148  0.02155918
  0.01891307  0.02043429  0.0749919  -0.02366035  0.01775965  0.02725965
  0.02018859 -0.06647576 -0.06938092  0.0767075  -0.06202043  0.01706504
  0.0942928   0.07738227  0.02296859 -0.03055766 -0.05060875 -0.05369136
 -0.02058653  0.11530996 -0.09843285  0.01136534  0.01552017  0.02063873
  0.05127728  0.02667213  0.03846924 -0.06691141  0.07620418 -0.08510622
 -0.03178301  0.07019989  0.03570567  0.01518352  0.07950363  0.01989867
 -0.08041086  0.00820117  0.04942636  0.03685884 -0.0127378  -0.04641272
 -0.07596295 -0.04785937 -0.08995333 -0.00627294 -0.02231111 -0.02895302
 -0.01733372 -0.01943106 -0.04662913  0.11744077  0.02571482  0.01210997
  0.02624817  0.04187527 -0.07175994  0.0810868   0.01409119  0.01374736
  0.04251974  0.03494488  0.00669288 -0.008156    0.02872462 -0.05693104]
[ 0.0701312   0.05623845 -0.02291117  0.08820004  0.00482374 -0.00035844
  0.07601608 -0.04089374  0.05295794 -0.03389721  0.09651384 -0.0413116
  0.05122474  0.05181712 -0.02865002  0.12383101  0.0825939  -0.08568417
 -0.05429481  0.12095624  0.08993439  0.11547243 -0.02608864 -0.16321367
 -0.06120642 -0.03492729 -0.05979159  0.03347471  0.00048591 -0.06328753
 -0.06071564  0.0340285   0.05005108 -0.02515884 -0.03981573 -0.05601626
 -0.00682484 -0.0334077   0.06279337 -0.0950819   0.08002415 -0.0305111
  0.03306592  0.1058931  -0.06578171 -0.08694248  0.09636927 -0.05954358
  0.02957262  0.00525434 -0.00066029  0.0266996   0.05059377 -0.06487538
 -0.09146465 -0.03691903  0.04386242 -0.0024873  -0.08268255 -0.07301443
  0.07696923  0.06837771 -0.03657513 -0.01636186 -0.08948661  0.04754999
  0.15632434  0.00135995  0.13934825 -0.11054437 -0.09808731 -0.07280842
  0.0145977  -0.1461491  -0.09344665 -0.03571138 -0.04063202  0.0681292
 -0.10158462  0.07419475  0.0725306  -0.0635424  -0.02188594  0.04105117
 -0.05899952 -0.00985793 -0.06311213  0.02066744 -0.01970635 -0.03313676
  0.05256641 -0.06673589 -0.06890067 -0.03395217 -0.00307042 -0.01718912
  0.0114692  -0.08254971  0.11107536  0.02568485  0.04582231  0.08466695
  0.00217403 -0.08292881  0.01299786 -0.10110031  0.06157899  0.02629332
 -0.07741721 -0.03628896  0.11001168 -0.05944444  0.05706579 -0.05096803
  0.06312827 -0.0418019   0.01868658  0.03337993 -0.01162527 -0.0879621 ]
[-0.00767595 -0.0203713  -0.06317946  0.02032382  0.00464805 -0.1054314
  0.00993595 -0.07160393 -0.0003241  -0.09705877  0.06144485  0.05032887
 -0.02955771 -0.07838203 -0.06102426 -0.01709089  0.11895047 -0.11275912
 -0.0211681   0.10316772 -0.04801744 -0.02728877 -0.03625503 -0.03432725
  0.03555486  0.01226376 -0.0320421   0.04192775 -0.07199901 -0.11344082
 -0.02635054 -0.04580433  0.02955823  0.01356018  0.05532457  0.06544353
 -0.02650118  0.08972146 -0.00302439 -0.15340285  0.02708194 -0.07395451
  0.11521211  0.06628106  0.04075174  0.0162124   0.01896151  0.06950223
 -0.00387544  0.08698521 -0.03001871  0.11388819 -0.09274357 -0.0270033
 -0.02046431  0.06577825  0.03158385 -0.00957684 -0.01877232  0.01889133
  0.03598681 -0.02313696 -0.00952301 -0.03250738  0.01577167  0.03676843
 -0.01992918  0.02491003 -0.00737855  0.01476347 -0.04642302 -0.06257963
 -0.08306821  0.05123382 -0.0725178   0.07592957 -0.00312389 -0.07613802
 -0.06031337  0.06443271  0.1767602  -0.02139581  0.05774462  0.12012814
 -0.0648803   0.10385175 -0.06926776  0.0555046  -0.11101055  0.09959137
  0.02621401 -0.08833578 -0.06776523 -0.04743125 -0.02753364  0.04332081
  0.07597781  0.02274284  0.03748154  0.10754283  0.03772353 -0.02477164
  0.06540331 -0.00263736  0.05376173  0.01464087  0.05162131 -0.03420132
 -0.10090243  0.03767079  0.02482998 -0.10625463 -0.011805   -0.01056049
  0.07655989 -0.10754575 -0.03666161 -0.08730468  0.05408115  0.06811279]
[ 0.01177368 -0.07149684  0.00986585 -0.05194369  0.03072864  0.1106065
  0.00465263  0.02691068 -0.0173812  -0.04952796  0.05512137 -0.04015404
  0.07768419 -0.01118125 -0.07676934  0.04670233 -0.05790256 -0.04860838
 -0.09290021  0.05577192  0.10254974 -0.07397037 -0.00535073  0.07536938
  0.05910258 -0.13331264  0.08059065 -0.03729691  0.03678526 -0.01038183
  0.11641578  0.08421248  0.09858742  0.00515234  0.0702233  -0.02874156
 -0.03490509 -0.01332782 -0.11981148 -0.01131595 -0.03533437 -0.03727791
  0.02217012  0.0683515   0.03200188  0.01154432 -0.09513181  0.06270114
 -0.0237763  -0.09016843 -0.02003336  0.08632302 -0.01805058  0.04790111
 -0.03184843  0.10167715 -0.01454141 -0.07937648  0.03862169 -0.0688197
 -0.01469591  0.00954274 -0.07665924  0.08458062 -0.05006641 -0.04356341
 -0.09325436  0.01083805  0.06405868  0.03385016  0.04177162 -0.00712996
 -0.0288072  -0.08735433  0.0944035   0.06882448 -0.04328938  0.0300631
 -0.1733079  -0.09162463  0.10334947 -0.07976836  0.03426138  0.00950442
  0.03193652  0.04372837 -0.05831278 -0.03860465  0.00559176  0.01107342
 -0.04947089 -0.08193225  0.04147575 -0.07179341 -0.11121887  0.01918921
  0.00705013 -0.02585444  0.03565912 -0.01446133  0.0767968  -0.01204754
 -0.09858945 -0.08490462 -0.08465667  0.07854296 -0.03072869 -0.09085524
  0.0885151  -0.00505383  0.00204399 -0.01317539  0.06713504  0.04653439
  0.01456789 -0.09187131 -0.03549101 -0.06731469  0.01338001  0.01871571]
[-0.00583348 -0.07600774 -0.06355835 -0.05622073 -0.15052497 -0.01653114
 -0.0126138  -0.0018308  -0.03957665  0.00594977  0.07258172  0.06937668
  0.17548653 -0.11505371 -0.10697631 -0.06426791  0.05539852 -0.01488544
  0.05769384  0.03815655  0.0856662  -0.23911272 -0.02176571 -0.15893395
  0.09615175 -0.08126664  0.05263876  0.00110868 -0.00995032 -0.07065393
 -0.00056789 -0.03263485  0.16477118 -0.0400041   0.01113467  0.08543012
  0.03709264 -0.00282255 -0.04524155 -0.05625426  0.02503993 -0.07131968
  0.0223215  -0.04033748 -0.09462618 -0.13355592  0.03119863  0.00976678
 -0.02207989 -0.06405163  0.02009953  0.03535994  0.03376807 -0.07235167
  0.0284989  -0.10545983 -0.05333215 -0.07149716  0.06097263  0.06191994
  0.10501677 -0.02533983  0.0157944  -0.00189452  0.01018736  0.00879533
  0.00344559  0.13663019 -0.07232602  0.08754689  0.00524962 -0.00968755
  0.1164181  -0.13178472  0.07983115  0.01615874 -0.06957407  0.05235098
 -0.06751931 -0.05317431  0.04817457 -0.00264532  0.1053597   0.0644066
 -0.10729746  0.21157992 -0.01184839  0.06447254 -0.04326346 -0.08160178
 -0.07481968  0.07236856 -0.00971364 -0.04714352 -0.07411772 -0.01351812
  0.05385122 -0.03720315  0.16522528  0.0140689  -0.00570618  0.20270921
  0.03524747 -0.08099022 -0.09751435 -0.00903901  0.04940847  0.12122288
 -0.11541739 -0.12277048 -0.0808271  -0.0322938   0.02522024  0.01700439
  0.06043299 -0.01274551  0.01722997 -0.1320677   0.08540755 -0.11788385]
[ 2.79341824e-02  4.58266623e-02 -5.65717965e-02  7.73995649e-03
  4.47891019e-02 -8.21877737e-03 -7.66103566e-02 -1.31328672e-01
  3.09576504e-02  5.16412891e-02  2.48842955e-01  1.20879151e-01
 -2.12638289e-01 -1.65518165e-01 -1.75369270e-02  8.02402198e-02
  1.71731710e-01 -1.51253104e-01  7.90936723e-02 -6.00789338e-02
  5.65408207e-02 -7.08941929e-03 -3.20119597e-02 -2.65952349e-01
  6.89836144e-02  3.47446464e-02 -5.13740852e-02  9.91876125e-02
 -1.48505732e-01 -2.21054673e-01  1.88696571e-02 -1.05429478e-01
  5.71351238e-02  1.51491901e-02  7.90686905e-02 -6.07062690e-02
 -1.01874307e-01  1.82884976e-01 -1.21407293e-01 -1.18728101e-01
 -1.02005862e-01  3.44489366e-02 -2.79815607e-02 -3.13477255e-02
 -7.39813894e-02  2.53532249e-02 -1.27277777e-01  4.49533649e-02
 -2.71038152e-02  1.39873149e-02 -8.03106055e-02  1.37267098e-01
 -2.21769474e-02 -1.72122475e-02  1.48802370e-01 -9.77113470e-02
 -3.07264719e-02  3.81281152e-02  2.08494184e-03 -1.18857384e-01
  1.57835215e-01 -1.22688532e-01  4.11949791e-02  1.21765547e-02
  3.52547280e-02  1.53256012e-02 -4.79856245e-02 -8.28253329e-02
  1.14734545e-01 -1.46746203e-01 -2.32688114e-02 -1.00779980e-01
  7.88271241e-03  1.09268457e-01 -2.51263063e-02 -2.22585946e-02
 -1.00917526e-01 -5.76279387e-02 -4.28855605e-02  1.55737534e-01
 -5.33621237e-02 -9.64607820e-02 -3.93512212e-02 -1.74080551e-01
 -1.77306697e-01 -1.72661200e-01 -9.24681053e-02 -1.19830063e-02
 -8.24318267e-03  1.31942883e-01  1.13242619e-01 -2.11169440e-02
  2.27302015e-02 -4.57477272e-02  1.31652176e-01  3.61598805e-02
 -4.51295115e-02  6.99245557e-02 -2.83487607e-03 -6.18493557e-03
  7.66369551e-02  4.73145358e-02 -1.18797652e-04 -2.57701129e-01
 -5.66653796e-02  1.35311440e-01  3.59478854e-02  7.70288184e-02
  3.60027514e-02 -1.18528090e-01 -8.00833330e-02  7.50720054e-02
 -3.29322703e-02  5.03564142e-02  1.20526344e-01 -5.51164225e-02
  6.86993673e-02 -1.65886179e-01  6.77444562e-02  2.97118141e-03]
[ 0.09306475  0.08766185 -0.0211465   0.01297119 -0.15827751 -0.04046262
  0.04097036  0.00282458 -0.02612862 -0.02321753  0.02703738 -0.04128417
  0.00233051 -0.05892823 -0.04791284 -0.08947225 -0.01512966 -0.0297994
 -0.02515905 -0.02100448 -0.06182456 -0.11642847 -0.03365099 -0.20868422
 -0.04839573  0.06202178 -0.00202326 -0.03616443 -0.01596879 -0.00967786
 -0.15934932 -0.0486106  -0.05511302 -0.00128438 -0.04634389  0.05406858
 -0.10620725 -0.05511527 -0.05761367  0.00402203 -0.11204962  0.03629065
 -0.00242074  0.03407214  0.08067209 -0.04070515  0.17103662  0.035286
  0.0250652  -0.06342706  0.04671064 -0.10244484  0.02641466 -0.0868524
 -0.02923012 -0.1317855  -0.05404685  0.02111251 -0.00458456  0.0579153
  0.10717417  0.09641156  0.01095676 -0.07793854 -0.01921852  0.03376271
 -0.0384517   0.11548852  0.00088311 -0.08715143  0.06508448 -0.00562528
 -0.12115221 -0.02223942 -0.09908713 -0.00787717 -0.03365793  0.05199894
  0.04879068  0.02417017  0.07231509 -0.0045559   0.0184463  -0.08885033
 -0.13218048  0.05690987  0.02401573 -0.04873959  0.09539136  0.01956506
 -0.11737885 -0.02675111 -0.03605017 -0.02317282 -0.02775601 -0.06056606
 -0.06886017  0.10426191  0.01059409 -0.09474929  0.04988848 -0.02041144
  0.07488271  0.02691875  0.04655915 -0.04279629 -0.01377737 -0.15276226
 -0.08022819  0.02783808  0.01463025  0.08767254 -0.10781382 -0.06018418
  0.05160778 -0.09188855 -0.08242054 -0.00746658  0.0156936  -0.13369709]
[ 7.6346070e-02 -3.5974648e-02  6.0341582e-03 -4.1692287e-02
 -4.7875538e-02 -6.6951044e-02 -8.0192871e-02 -7.3712878e-02
 -1.9623075e-02 -1.4289302e-01 -1.0842228e-02  9.0806611e-02
  1.4255773e-01 -1.0298947e-01 -1.0906138e-01 -2.9946003e-02
 -7.1214892e-02 -8.6477794e-02 -4.4523096e-03  1.0036342e-01
  6.0107253e-02 -4.6049178e-02 -7.3976561e-02 -1.7788784e-01
 -1.0432610e-02  4.1120268e-02 -3.3244293e-02 -9.6314922e-02
  1.2704982e-01  6.6807427e-02 -6.4721383e-02  5.4874100e-02
 -4.2188294e-02 -4.2913776e-02 -9.3716279e-02 -8.2204521e-02
 -1.3447325e-01 -1.4824745e-01 -7.3667951e-02  1.1778072e-01
 -5.5080049e-02  6.0465682e-02 -1.2335440e-01  3.4533277e-02
  3.7414290e-03 -1.2645277e-01 -4.4522295e-03  8.4245384e-02
  6.3703470e-02 -8.6843640e-02 -1.9420184e-01  9.6686725e-03
  8.8004366e-02 -7.4194737e-02 -1.3341765e-01 -1.5118700e-01
 -6.7742802e-02  5.2614454e-02  5.1607322e-02  4.1253645e-02
  5.5985752e-02  1.1940643e-02  2.0849399e-02 -5.2359686e-03
 -5.2100103e-02  3.3732469e-03  1.7865293e-02  7.5538911e-02
 -6.9093540e-02  3.9505079e-02 -6.2782049e-02 -9.2487700e-02
  6.8344355e-02 -1.3048805e-01 -9.0704255e-02 -2.8342063e-02
 -2.2086861e-02  3.2502651e-02  1.1325610e-01  7.2353114e-03
  2.4769248e-02  9.7570911e-02 -8.2356028e-02 -1.5751863e-01
 -3.2633636e-02  1.9830687e-01 -3.1859651e-02  5.7602204e-02
  7.0962578e-02 -6.1526656e-02 -2.3815952e-01  7.9952292e-02
  1.1829486e-02  1.1480823e-04 -1.4500394e-01  1.9732874e-02
 -5.3003844e-02  8.0667518e-02  1.8126015e-01  4.6255819e-02
  1.0182508e-01  1.3163599e-01  7.0430882e-02  3.9215483e-02
  4.0320411e-02 -8.2767449e-02  4.9631592e-02 -1.1626947e-01
 -3.7461121e-02 -6.4945787e-02 -6.7741200e-03  3.0706730e-03
  3.1824354e-02 -9.1668025e-02 -9.3997367e-02 -5.1515553e-02
 -5.4807346e-02 -1.6131419e-01  9.0044416e-02 -1.7853620e-02]
[-0.12732217  0.15593866  0.10371948 -0.02214475  0.10436982 -0.12109652
 -0.00840346 -0.07131674 -0.06784061 -0.07643171  0.06898483 -0.08200056
 -0.079943   -0.03191384  0.02462985  0.08929559  0.05476252 -0.10220321
 -0.11019686  0.09775256 -0.03969932 -0.06125266  0.00029102  0.0137585
  0.02079928  0.03912457 -0.04851906  0.05656023 -0.19229136 -0.17015696
  0.06378825  0.04604019  0.10167041  0.11781551 -0.03482815 -0.07340825
 -0.07794176  0.1008392  -0.06723363 -0.22186981 -0.06355594 -0.0165011
 -0.00557522 -0.00916922 -0.11174467 -0.02276444 -0.13664919 -0.01158271
 -0.08403531  0.0567159   0.01526821  0.04041633  0.06126639 -0.02499231
 -0.02253074 -0.07581295  0.04500766 -0.03614568  0.05034558 -0.13311222
  0.06249899 -0.05997942 -0.05007023  0.15266696 -0.03251002 -0.0462028
  0.01199698 -0.06162365  0.03514744 -0.12521255  0.01489909  0.04422804
 -0.13578866  0.2077563  -0.03230125 -0.00726474 -0.07333641  0.0720337
 -0.13770619  0.0546623  -0.06328083 -0.10519954  0.07336968 -0.04766345
 -0.07312731 -0.069224    0.00720525  0.01588861  0.02580169  0.02659143
  0.0307919  -0.01328473 -0.04083309 -0.00800082 -0.02691642  0.0993929
 -0.08764742 -0.03017905 -0.05442502  0.03132963  0.05386616  0.00818937
  0.04607394 -0.15082014  0.11623816  0.04840344 -0.13672604 -0.02483096
 -0.01248568  0.07362159  0.08622607  0.05066913  0.00577102  0.10843277
  0.02166958  0.05779329 -0.07332414 -0.07053238 -0.01755769 -0.04038831]
[ 0.21305054  0.0138512  -0.00324034  0.06952979 -0.07552627  0.11892583
 -0.08395981 -0.06804921  0.02032647 -0.01758072  0.10692848  0.10673953
 -0.10990401  0.03124929  0.05472835 -0.04948577 -0.01389155 -0.05680808
 -0.005489    0.13137661 -0.00139698  0.09100004  0.04590693 -0.06620365
  0.04787193  0.13041596  0.07875344  0.0603162  -0.01233333 -0.11519035
  0.02744814  0.00305076 -0.06524955 -0.09109101 -0.06324761 -0.06171029
  0.04230284  0.0182071   0.01299465  0.01390622  0.08628882  0.01059424
 -0.04668821  0.0677618   0.04847479 -0.03589194 -0.02442134  0.09974182
  0.11140636 -0.01978545 -0.11466692 -0.08048363  0.05155834  0.05858767
 -0.01520632 -0.08605739  0.01984705  0.04849709 -0.01854612  0.01598179
  0.06320794 -0.05933711 -0.01906949  0.10400724  0.01739431  0.09306146
  0.07840239 -0.04076554  0.1087684   0.01985978 -0.03001521 -0.03322485
 -0.12505655  0.11640553  0.07579621  0.05558029  0.08808218 -0.04238759
 -0.03338292  0.03702078 -0.06155106  0.02959938  0.05571876 -0.10093953
 -0.08573923 -0.02046762  0.02612423  0.00908557  0.0309412   0.14734967
 -0.1058206   0.03056267 -0.02998756 -0.06653171 -0.11753107 -0.04176763
  0.09711416 -0.0144372  -0.05671575  0.04031119 -0.03020489  0.0631067
 -0.00620343  0.00806495  0.17966169 -0.11418765 -0.04107763  0.02310635
  0.05768073 -0.0077451   0.00340885  0.01312962 -0.01990355 -0.07074637
  0.0647554  -0.06186609  0.07573474 -0.08640792 -0.05068579  0.04826965]
[-0.0108697   0.11424883  0.04762957 -0.09720789 -0.06407713 -0.00087681
  0.1335181  -0.01034294  0.00551815 -0.07223524  0.02736934 -0.06290524
  0.10742328 -0.03327388  0.01128067  0.05555491  0.00279448 -0.03789288
  0.08290667  0.00464218 -0.02643274  0.03595902 -0.07481492  0.00523658
 -0.07388466  0.02173086  0.05889001 -0.00056518 -0.07929984  0.02725876
 -0.06106343  0.04056952  0.05498557 -0.0983089   0.05826406 -0.05841956
 -0.09678806 -0.02657283  0.12900491 -0.0143377  -0.1201171   0.07355101
  0.00062203  0.06207047  0.02898457  0.07956975 -0.04974683 -0.09493356
  0.01827269 -0.03408372 -0.13187069 -0.0371465  -0.0991474  -0.04456029
  0.0050164   0.02122205 -0.08324597  0.02011513  0.06568389 -0.02531574
 -0.09519336 -0.02194399 -0.09364895 -0.05014667 -0.05917278 -0.09970632
  0.04704569  0.06745001  0.04921497 -0.04124924 -0.09329794  0.04487197
  0.01283891 -0.09616993 -0.00950056  0.08104329  0.00594372 -0.08480451
 -0.08976647  0.0242357   0.1105903  -0.07386508 -0.01326555  0.09190959
 -0.06755627  0.05334946 -0.08158055 -0.03814491 -0.02648214 -0.0161884
  0.03802725  0.01468646 -0.05390129  0.021459    0.0373332   0.04299874
  0.07636776 -0.01091704 -0.00784995  0.11601124 -0.05800114  0.02507706
  0.07067188 -0.00210882 -0.0305058   0.00134433  0.08826771  0.09792992
  0.07370184 -0.02200164 -0.04717854  0.04553693 -0.04240068  0.10293891
 -0.06621881  0.0730935  -0.06214482 -0.01130462  0.0868379   0.00334201]
[-0.05992204 -0.04147305  0.09240228  0.04998986  0.00225219  0.0399121
  0.0519556  -0.01410629 -0.00791219  0.05423284  0.0741918  -0.10464001
 -0.0595726  -0.0030372  -0.07688132  0.08264526  0.01836251  0.04527802
 -0.04781561  0.07793053 -0.01618382  0.02245967  0.00106244  0.01400895
 -0.02622114 -0.02077846 -0.04273313  0.02514389 -0.05368856  0.04306046
 -0.01751358 -0.04893869 -0.03138327  0.09634107  0.00162783 -0.04565531
  0.00510817  0.04218646 -0.08837324  0.01634477 -0.09087098  0.01596185
  0.05978655  0.0433384   0.01147719  0.05084497  0.06516031  0.0272741
 -0.0668964   0.08726107  0.02760039  0.0774467  -0.09492654  0.03917606
  0.05091142  0.05463798  0.01480874 -0.04726078 -0.038325   -0.01848268
  0.06097701 -0.07993022 -0.00014405 -0.08708485 -0.03890533 -0.04052534
  0.11411875 -0.00450604  0.01996057 -0.07634854  0.00296101  0.07471182
  0.11501539 -0.01199663  0.02412979  0.03860035  0.0182205   0.10095258
 -0.01648085  0.05947584  0.02542553 -0.06929911  0.06096626  0.05809019
  0.01100029 -0.05838474 -0.0841003  -0.07143253  0.01125566 -0.02876491
 -0.03415767  0.01114105 -0.00885433  0.01302789 -0.00318595 -0.00755813
  0.06979778 -0.01048308  0.0701822   0.02434265 -0.04602169 -0.04055894
  0.08217141 -0.04690873  0.05959513  0.04646572  0.01894945  0.01699944
 -0.05789118 -0.07498096  0.01801592  0.02212439  0.00820477 -0.01572156
  0.07238342 -0.06897701  0.0107067  -0.04854078 -0.01084199 -0.01525721]
[ 0.01330497 -0.03554097  0.0671494  -0.00360171  0.03487457  0.04643103
 -0.21537702  0.00227016 -0.10450448 -0.02567552 -0.03188165  0.04933299
 -0.14002626 -0.11220983  0.00150194 -0.01894144  0.07134201 -0.04317339
  0.04364664 -0.10443054 -0.07683575 -0.11633344 -0.04717911 -0.03542433
  0.01958186  0.01700897  0.00717651 -0.04748737  0.07952362 -0.0893496
 -0.08746952 -0.06627689 -0.06309227  0.14895791 -0.06757488 -0.05225326
 -0.08238164 -0.07887121  0.10803302 -0.01927676 -0.04447843  0.12666929
  0.04593579 -0.01118206  0.02487758 -0.09877818  0.04891747  0.10477968
  0.14159502 -0.03716041  0.09641708 -0.00103638  0.04941469  0.05955215
 -0.08147774  0.04878637  0.08648169 -0.07089622 -0.08077594  0.13758354
  0.1675974  -0.0829913  -0.02437891  0.09057546  0.08165348  0.03468476
 -0.02660014  0.00801462 -0.0608645  -0.01146726 -0.01300377 -0.02920372
 -0.08239405  0.09563925 -0.05450334 -0.06871116 -0.19584814  0.043972
  0.06245936  0.01798243 -0.00095275 -0.05229811 -0.03151687  0.01226599
 -0.09178535 -0.06314303  0.00819165  0.0603451  -0.03371776  0.05695576
  0.08741289 -0.06816547  0.03455977  0.01120231  0.12765332 -0.03188036
 -0.07484274  0.01734388 -0.14776443  0.03606112  0.08559395  0.03802954
  0.06946639 -0.09066052 -0.00310663 -0.00749519  0.02418796 -0.11115044
 -0.06997542 -0.05457451 -0.11810312  0.10163213 -0.11478078 -0.08092707
  0.01350997 -0.02123355 -0.06430073 -0.09638036 -0.06818584 -0.05861715]
[-0.10646448 -0.01137385 -0.00746796  0.06658087  0.14384009  0.01893262
 -0.04102935 -0.09634309 -0.02873545 -0.1030457   0.06378859 -0.06576012
 -0.12661093  0.0103562   0.01541047  0.00663687 -0.02446448 -0.15362126
  0.04470725  0.00136969  0.0131798   0.00219636  0.00944191 -0.00315414
 -0.01727903 -0.05147917  0.03111627 -0.0461183  -0.15495287  0.06101555
 -0.05975517  0.02816714 -0.02069931 -0.01419778  0.04935671  0.06151005
 -0.12972541  0.04578607  0.04889358  0.01963867 -0.07359633  0.07151449
 -0.0128039  -0.0299823  -0.07039337 -0.09454077 -0.00333616 -0.03072412
  0.07864468 -0.083067    0.06582665 -0.0041329  -0.07462402 -0.07834025
  0.01430773 -0.0295938  -0.00464483  0.07902735 -0.05263343  0.11216694
  0.10348946  0.05277197 -0.00168281 -0.05552492 -0.06235102 -0.0451704
 -0.04464306  0.00350316  0.0586369   0.05984968  0.01858986 -0.00958072
 -0.0579419   0.1044464   0.00114325 -0.03051056 -0.02080764 -0.02045769
  0.01322625  0.06715097 -0.15952618  0.00198594 -0.01281032 -0.03906627
 -0.06978166 -0.0299296   0.04510567 -0.03941165 -0.00482256  0.07710991
  0.00927714  0.0573185  -0.04846797  0.0505692   0.0589336   0.01019898
  0.08155174 -0.06343548 -0.08340645 -0.02434535 -0.08445424 -0.05346757
  0.06583927 -0.04693628 -0.04895743  0.06482863 -0.05651872  0.06629008
  0.04607707  0.12253053 -0.05882728  0.03045832 -0.10504626 -0.03893865
 -0.03779288 -0.06250635  0.03728031  0.01340471  0.06068038 -0.02609436]
[ 0.06694795  0.06629091 -0.01408168 -0.02478645 -0.00955177  0.03167369
  0.03895196  0.03980643 -0.04033679  0.08343646 -0.0525867  -0.13982767
 -0.04291452 -0.03102493 -0.02995719  0.03530376  0.06847898  0.19514385
 -0.06274851 -0.0394562   0.14011541 -0.03928266 -0.09167882 -0.00907805
 -0.10518878  0.12040842 -0.07555328 -0.08399179 -0.00134688  0.03964474
  0.00090036  0.06624085  0.02132742  0.06615421 -0.09660036  0.05695543
  0.00486999  0.23456189  0.05851294  0.01495012  0.15530884 -0.08443498
 -0.00426873 -0.11167195 -0.00663146 -0.13134274  0.05795997  0.03787503
 -0.14979719  0.0179312  -0.02773976  0.03514419 -0.09091222  0.03472862
  0.03809531  0.07200796  0.02925505 -0.04131563 -0.02866779  0.08063118
 -0.14195684 -0.12011277 -0.0269159  -0.00270885  0.00802572  0.05064702
  0.12913866 -0.09194345 -0.08031993 -0.09192947 -0.01877123  0.01565056
  0.06148105 -0.11849514 -0.04034633  0.04587164  0.0169294   0.00164615
 -0.12242865  0.05713541 -0.00680815 -0.04704971  0.03970589 -0.10141812
  0.00612855 -0.09900571  0.07540043 -0.07747684 -0.0283356  -0.10343905
  0.20054266  0.00829167 -0.00564003 -0.04314849 -0.07891461 -0.03539716
  0.00342572  0.06586988  0.09693718  0.09915785  0.03907928 -0.11033104
  0.05941238  0.06129075  0.20676309  0.17782445 -0.04668649 -0.0555921
 -0.01549762 -0.00314789  0.05712252  0.02869875  0.09336665  0.02534946
 -0.06541538 -0.04090292  0.03480191  0.12837708 -0.12695761 -0.07599367]
[ 0.09287661  0.02984503  0.0130892  -0.0673691  -0.0334689  -0.03974404
  0.0689766  -0.05905897 -0.00818169  0.0059303   0.04491884 -0.01105285
 -0.06755603 -0.03842018 -0.00855184  0.01773355  0.05756335 -0.05358182
 -0.11751477 -0.05469859  0.00499056  0.03688674 -0.11634944 -0.07823442
  0.05471837 -0.03304545  0.0824702  -0.01867607 -0.02450265  0.03444315
 -0.01870033 -0.05622925 -0.00742996 -0.01404232 -0.05564432 -0.02576206
  0.06322943  0.04544484  0.02372449  0.02769879 -0.0638505  -0.05682229
  0.12565003 -0.03389047 -0.09059939  0.08758611 -0.12221301  0.05551397
 -0.04822484  0.02443107  0.02620862  0.00854524  0.0302283  -0.01138212
  0.00144692 -0.04899723 -0.07177403  0.04902809 -0.07353081 -0.02909028
 -0.00317649  0.07297434 -0.04477002  0.10539876 -0.09454226 -0.02717556
  0.01336555 -0.03548959  0.00326334  0.126932    0.06300472 -0.01273858
  0.02150605 -0.03680279 -0.07554823 -0.02117687  0.07224764 -0.09672284
 -0.06849987  0.09119678  0.09620076 -0.12886848 -0.10980422  0.04551722
  0.06123274  0.06330549 -0.0998777   0.0079077   0.06962509  0.07165766
 -0.08702264  0.04185136 -0.05904562 -0.03378993 -0.02652445  0.02662673
 -0.09394379  0.00678286  0.03259474 -0.07076399  0.04309163  0.05612224
  0.0512849  -0.07725008  0.02014132  0.0070279   0.01019707 -0.01514363
 -0.02989923 -0.09282886  0.01123075  0.0090382  -0.0251778  -0.05938342
 -0.05390351 -0.02092005 -0.05838959  0.02329057 -0.02870418 -0.0462814 ]
[ 0.08733459 -0.05362098  0.08752152 -0.00249956 -0.06185762 -0.0657277
 -0.05823593 -0.05268592 -0.05152177 -0.05123767  0.0867075  -0.02551593
 -0.0623927  -0.07237117 -0.07410244  0.01223275  0.07023671 -0.06738606
 -0.04865829  0.08872747  0.06046618 -0.02465197  0.10601503  0.02400031
  0.08120253  0.00207582  0.06953236  0.04575809 -0.11110083 -0.00164431
 -0.02246584  0.08563355  0.01115473  0.05074141 -0.08612463 -0.01713008
  0.02328278 -0.02756244  0.01241559  0.04717136  0.00223442 -0.0186432
 -0.04245418 -0.10567172 -0.04842654 -0.06950282  0.01623674  0.03223607
  0.00173236 -0.07368153  0.02829501  0.06627503 -0.05533941 -0.02916891
  0.02388278 -0.03064744 -0.0278889   0.06510045  0.07191338  0.02961599
  0.09709666 -0.08570456 -0.0911807  -0.04555406 -0.07606488  0.00184297
 -0.05207167 -0.01655364 -0.0790008  -0.02362205  0.07070971 -0.01095427
 -0.05473595  0.02737029 -0.08058004 -0.0578265   0.01190295  0.0334987
  0.04729339  0.05125695 -0.03099378  0.06613287 -0.10005204 -0.04874766
  0.0119829  -0.0907837  -0.01123392 -0.04111986  0.08404418  0.00298558
  0.03133996 -0.04714344 -0.03468919  0.02942626  0.13076918  0.03934633
 -0.06258762  0.00277595 -0.10103372  0.00020072  0.05670182 -0.12064336
 -0.0577093  -0.12746319 -0.06420048  0.1297315  -0.01079119  0.05093959
 -0.05923361 -0.03236172 -0.06013823 -0.02395536  0.05731968 -0.03423369
 -0.03309827  0.03057424  0.00229621 -0.03839627  0.08572981  0.08889744]
[-0.08330055  0.09015708  0.0997091   0.07763804  0.05104659 -0.05918447
 -0.03816048 -0.0335207   0.07649204  0.01940038 -0.06162885 -0.02251285
  0.00146722 -0.0392394  -0.09514921 -0.04643356  0.04145135  0.05810388
  0.00655545 -0.01749766 -0.10447419  0.05488319  0.02570854  0.00353598
  0.0162528  -0.06352299 -0.05368253  0.00467689 -0.06577091  0.01732089
 -0.00986321 -0.05983426  0.00598264  0.04808278 -0.06350057 -0.07844315
 -0.08022525  0.04634337 -0.02433871 -0.02268912 -0.04443725  0.05244685
  0.07105587 -0.06552049 -0.00553177  0.03375457  0.03712035  0.04431023
 -0.00744204  0.0703362   0.03350567  0.03745553 -0.04465903  0.05328118
 -0.03763649 -0.08965931 -0.07036352  0.06530452 -0.04440828 -0.05873402
  0.03267492 -0.06658105  0.00929179 -0.09371092 -0.00585179 -0.06445415
  0.00664512 -0.04776057  0.00904881  0.0610589  -0.05978137 -0.10270701
  0.02876458 -0.05716209 -0.02442409  0.04776197 -0.08146126 -0.06127317
 -0.01323672 -0.06267452 -0.00805064  0.01804508 -0.04319018  0.01195216
  0.02147854  0.01892275 -0.07290398 -0.03023597 -0.06372582 -0.06945374
  0.05128552  0.05945309  0.06954518  0.0419776  -0.05920044 -0.10927567
 -0.05962114  0.059713    0.03060913  0.02436887  0.07255319 -0.00110764
  0.0383728  -0.03327522  0.03212819 -0.00402739 -0.04024141 -0.0846291
 -0.04545819 -0.07789818  0.04179328 -0.10407554 -0.0452623   0.03566374
 -0.07303749  0.05010052  0.06473389 -0.10905869 -0.00871148  0.02859437]
[ 0.05111397 -0.06137849 -0.0045971   0.05174175  0.09564393 -0.10094476
  0.05144243 -0.07407266  0.05940121  0.00602447  0.0992108   0.01714762
 -0.04183617  0.03236855  0.00576122 -0.03065772  0.08677953 -0.10951855
  0.06330309  0.06699939  0.0248012   0.10400615 -0.00155725  0.11039265
 -0.14184028 -0.02067379  0.0646266   0.05681951  0.03330806  0.0452919
  0.06068275 -0.03512812  0.07206162  0.00132572 -0.00556331 -0.08838764
  0.02629298  0.09409773  0.00135959 -0.03517142 -0.09650724  0.02521961
  0.00055171  0.05267365 -0.09872601  0.02446789 -0.11346249  0.06939994
  0.10741524 -0.01833061  0.10187537  0.00441584 -0.06374946 -0.08315949
 -0.02913259  0.00921218 -0.04008629  0.04238962 -0.09712217  0.04300397
  0.03615687 -0.02523012 -0.0368055   0.0830462  -0.08160465  0.01200118
 -0.00280483  0.1258258  -0.0241812   0.01256968  0.01601552 -0.047742
 -0.04362706 -0.18293151 -0.09715614  0.06610275  0.05507319  0.02798603
 -0.02426587  0.01718734 -0.09907132 -0.04545981 -0.05424805  0.09271003
  0.06407253  0.09601004  0.02865431 -0.15150444 -0.00738987 -0.02592997
 -0.01911921  0.00949018  0.02032944 -0.06937438 -0.09880545  0.08338452
 -0.03749929  0.03886954 -0.05653689  0.04341736  0.02567482 -0.11692527
  0.00509336 -0.11032276  0.0823082  -0.07944817  0.05529688  0.02719032
 -0.00953666  0.06946556  0.01321018  0.00823919  0.03271811  0.11194277
 -0.02335042 -0.07445423 -0.01192101 -0.06448016 -0.05171252  0.04410103]
[-2.4283567e-02  5.6446642e-02  7.4795552e-02 -5.1560193e-02
 -6.9294833e-02 -4.1270263e-02 -3.1079194e-02 -9.4763726e-02
  2.9270176e-02 -4.8382744e-02 -9.6812017e-02  6.9038537e-03
  2.9316723e-02  2.5014287e-02  1.8046653e-02  7.1416780e-02
  8.8757765e-04 -6.7183644e-02 -4.3581698e-02  1.2762602e-01
  3.9164532e-02  9.9253133e-02 -5.6716524e-02 -1.5162941e-02
  4.1280687e-02 -4.7823448e-02  4.7837507e-02  2.7718248e-03
  5.5454738e-02 -9.6950885e-03  6.7372143e-02 -8.5430793e-02
 -9.3148604e-02  2.3407700e-02 -2.8203297e-02  5.2645538e-02
 -9.1427229e-02  8.0156632e-02  9.8844491e-02 -1.7200975e-02
 -4.1595008e-02 -2.7983779e-02  3.7092447e-02  7.3954381e-02
 -7.4972972e-02 -2.7214011e-02 -9.5958717e-02 -6.1820995e-02
 -1.1506026e-01  3.6070362e-02 -8.0470055e-02 -6.6101395e-02
 -6.6560604e-02  6.8618976e-02  1.0775133e-01 -4.7960334e-02
 -4.8594676e-02 -1.1124674e-02 -1.7935947e-02 -3.2340601e-02
 -4.3509025e-02  1.0074346e-01 -4.3112200e-02 -4.1242559e-02
 -1.0679213e-01 -2.0412896e-02 -1.7471382e-01  2.7154190e-02
 -3.0055277e-02  6.7390045e-03 -3.7676580e-02  2.2218710e-02
 -3.2436524e-02 -1.9536836e-02  2.7591744e-02 -5.8822032e-02
  1.8372037e-04  8.2317494e-02 -8.2803324e-02  5.8395624e-02
 -1.6104303e-02 -5.1573928e-02 -1.9741938e-02  1.1515305e-01
  4.1526195e-02  8.8377900e-02 -2.2315079e-02 -9.6476093e-02
  6.8619519e-02 -1.6647190e-04  6.7895435e-02  3.5996221e-02
  1.0327077e-02 -2.8676527e-02  1.2671717e-02 -7.5683865e-04
  8.5036173e-02 -8.3548902e-03  5.9209608e-02  2.1390783e-02
  5.4299351e-02  8.3332518e-03  3.5297275e-02  1.0787982e-01
  1.1197147e-01 -9.1606170e-02  8.6684428e-02  7.3972836e-02
  5.3877361e-02 -6.5481193e-02  6.3675549e-03 -5.3265966e-02
  6.6575855e-02  2.9193396e-02  1.2791355e-01  5.5303574e-02
 -2.1984002e-03  3.1780459e-02  7.4987352e-02 -8.1407033e-02]
[-0.02837147 -0.05095724  0.02230613 -0.09605819 -0.03304426 -0.01270461
  0.02702721  0.06617733 -0.02402116  0.04452703 -0.01648377  0.04134846
 -0.01341169 -0.06227123 -0.01948952  0.04921354  0.00324275 -0.00970837
  0.00490305  0.11350749 -0.08098192 -0.09739822 -0.09754107  0.01703943
  0.08862553 -0.02623448  0.0932121  -0.06326175  0.04715163 -0.14221986
 -0.05013714 -0.07037829 -0.04230212  0.01221188 -0.01314536 -0.0770532
  0.00139025  0.04180836  0.06379364 -0.03602353  0.162213   -0.02297414
 -0.05218201 -0.06088173 -0.00148628 -0.04279918 -0.0813014  -0.00318701
 -0.03761999  0.03809864 -0.00343183  0.04383167  0.12164607 -0.01313223
 -0.0762984  -0.08655146 -0.08887403  0.04867712 -0.07854868  0.01620285
  0.06881973 -0.03798014  0.02126036 -0.09300315  0.05081563  0.0034886
 -0.05152473 -0.03424143 -0.02712475 -0.09644344 -0.03056616  0.00727289
  0.17352387 -0.01278298  0.00021935 -0.04287431 -0.02245446  0.08722258
 -0.08277442 -0.05214713 -0.03693236 -0.05351485  0.04280394  0.02900874
 -0.05501011  0.10973153  0.04721611  0.0574461  -0.04429957 -0.01295365
  0.06265364  0.06942237 -0.02640687 -0.04367458 -0.06785572 -0.00891577
  0.0474017   0.04183606 -0.06518845 -0.10349759  0.1328427  -0.03149351
  0.02468699  0.0108197   0.00475988  0.11726679 -0.04241063 -0.08219374
 -0.1312823  -0.03915296  0.04843908 -0.04301781  0.06984081 -0.02674441
  0.02465908  0.0022859   0.00597156 -0.04583226 -0.01453816 -0.14796552]
[ 0.11131611 -0.11538165 -0.01187292  0.01341555  0.06562269  0.01473212
 -0.12857793  0.05635352  0.00049141 -0.09638339  0.0285365   0.04067702
  0.01197348 -0.14904726  0.05805494 -0.00587131  0.0889466  -0.12221625
 -0.08146367  0.05670792 -0.00930108 -0.09701066 -0.0344501  -0.14333047
  0.01357237  0.05926532 -0.05288522  0.03810622 -0.12287378 -0.09832475
 -0.03912008  0.04556827  0.06471051  0.09413826  0.07260731 -0.00761352
 -0.08177917 -0.01161342 -0.02121333  0.10196282 -0.13277167  0.08047735
 -0.10278615 -0.09160012 -0.05165609 -0.0468119  -0.12734503  0.0262406
  0.07619742  0.02568245 -0.05482242 -0.10049434 -0.0022311   0.03290511
 -0.09837355  0.05339526 -0.02973682 -0.00599537 -0.07641485 -0.0729823
  0.12344353  0.05894889 -0.06530672 -0.05452487 -0.07015979  0.05448412
 -0.17912069  0.00634749  0.12265017  0.10083205 -0.0213118   0.06353381
 -0.00436708  0.03929663 -0.01432452  0.01232521 -0.03758071 -0.01978643
  0.01665597  0.03976753 -0.12600647 -0.0590434  -0.0265552  -0.09075517
 -0.10347483  0.15244353 -0.06925002  0.05394003 -0.00810212  0.10665437
 -0.00920338 -0.00980639 -0.03287203 -0.09330178  0.01620454  0.07234845
 -0.00203347 -0.06885553 -0.10564042 -0.03919138 -0.00795038 -0.05280753
  0.04272092 -0.11056564 -0.1107642   0.01626823  0.05173501  0.09305371
  0.05267633  0.12316485  0.03969499 -0.00696919 -0.13062032 -0.06383675
  0.05986862 -0.00726278 -0.09019761 -0.06517902  0.06333034  0.12409612]
[-0.04372521 -0.10259479 -0.00565452  0.04647972 -0.08951877 -0.07516218
 -0.01415091  0.09324757 -0.0172506   0.05616478  0.06477971  0.07913444
  0.09881449  0.05580742  0.01335096 -0.00797735 -0.00847203 -0.0166691
 -0.06522276  0.02610343  0.07324277 -0.06945483  0.07376831  0.08601176
 -0.00459403  0.04018597 -0.02761996 -0.05141801  0.1238755  -0.07622444
  0.04984773 -0.10625764  0.00842607 -0.02683798 -0.04472765  0.06273048
 -0.08552111  0.10472199  0.00116891 -0.10701203 -0.07877886  0.11109548
 -0.07914118  0.06951895  0.03860756 -0.02113867 -0.06213107  0.07602264
  0.15678191 -0.01647582  0.01049217  0.02215179 -0.11412424 -0.1231725
