#ifndef WEIGHTS
#define WEIGHTS

#include "lenet.h"
#include "dimensions.h"

static CL1_wei_t conv_1_weights[CONV1_NEURONS][CONV1_FM_INPUTS][CONV1_KERNEL_DIM][CONV1_KERNEL_DIM] = {
{{{0.065995075,0.25058633,0.122179575},{-0.34493002,0.070758276,-0.096983045},{-0.17648746,-0.34956157,-0.041673608}}},

{{{0.2985885,0.020770643,0.12167609},{0.07501873,-0.2034873,0.1368004},{-0.20486051,-0.1173407,-0.25525644}}},

{{{-0.18518573,0.09225927,0.14416079},{-0.08934235,-0.21744458,0.3468245},{-0.36413878,-0.14204097,-0.19847313}}},

{{{-0.2648143,0.09999626,0.044735163},{0.15825647,-0.06346895,0.2534254},{0.05731568,-0.3566492,-0.1832384}}},

{{{-0.16211659,0.08005909,0.119699396},{0.25283176,-0.15560912,0.2065047},{-0.15507494,-0.11224122,0.12274392}}},

{{{0.016281378,-0.101057686,0.21449323},{0.12032193,0.1584179,0.054145057},{0.125137,-0.19216105,-0.25792804}}}};

static CL1_wei_t conv_1_biases[CONV1_NEURONS] = {-0.008254272,0.10383785,-0.010717494,-0.00502442,-0.14475486,-0.06480614};

static CL2_wei_t conv_2_weights[CONV2_NEURONS][CONV2_FM_INPUTS][CONV2_KERNEL_DIM][CONV2_KERNEL_DIM] = {
{{{-0.30306843,-0.03877655,0.09335403},{-0.15228105,0.027814766,-0.08787563},{-0.06588259,-0.015447295,-0.029620994}},
{{-0.11612737,-0.27450684,0.06538614},{0.014117754,-0.016395116,-0.13084866},{-0.1710061,0.07618652,0.040681146}},
{{0.1945152,-0.053994823,0.042006735},{-0.009799131,0.092945844,-0.1284192},{-0.022146644,-0.030191287,-0.04879665}},
{{0.02615281,-0.21249871,-0.08269538},{0.023966199,-0.20038132,-0.024508614},{-0.013027231,-0.20050198,0.093492456}},
{{-0.10293044,0.13576561,-0.09227958},{-0.13864332,0.14898244,-0.07750212},{-0.00665547,0.0115078585,-0.13322303}},
{{-0.2984664,-0.14972124,0.15547389},{-0.24071729,-0.0453775,0.14210622},{-0.19663872,0.14452417,0.12152809}}},

{{{-0.1312992,0.044193707,-0.08982119},{0.23604816,-0.18706103,-0.028115284},{0.16832572,-0.090914086,0.069406874}},
{{0.12055079,-0.17691967,0.0840731},{-0.04069876,0.17898297,-0.079887524},{-0.047170796,-0.08452923,-0.21802288}},
{{0.17888021,0.16581358,0.23737606},{0.10981292,-0.22009176,0.0386636},{-0.14579254,-0.1530627,-0.11332046}},
{{-0.01238452,-0.13654478,0.044370938},{0.18798018,-0.015697025,-0.09262462},{0.18310255,-0.07076115,-0.129722}},
{{0.05674607,-0.03345276,-0.108574085},{0.13683203,-0.07911556,-0.107093684},{-0.257575,-0.124910876,0.015349315}},
{{0.121246405,0.026862543,-0.018767817},{0.10167462,-0.10429629,-0.29710108},{-0.2823145,-0.06120193,-0.031232765}}},

{{{0.019813985,0.072843984,-0.17450307},{0.08852679,0.14116101,0.07536908},{0.030406592,0.21647966,-0.041549064}},
{{0.13228123,0.11540787,-0.061018094},{-6.496064e-05,0.017257325,-0.097441114},{0.025106046,-0.053515922,0.06703367}},
{{0.07048858,-0.09390333,0.09407096},{0.19274542,0.08017656,0.23395458},{0.1746862,-0.09157352,0.021675395}},
{{0.07657235,0.10560418,0.06071867},{0.025724271,0.058914755,-0.08586194},{0.062401038,0.041343752,0.025303949}},
{{-0.11086897,-0.0031517958,-0.17611554},{-0.06553698,0.10963108,0.106761694},{-0.0076206457,-0.16230485,0.008063829}},
{{-0.17417407,0.05018672,-0.048583232},{-0.18868247,-0.04934252,-0.16672322},{0.047071103,-0.03149858,-0.01932834}}},

{{{0.16269779,0.16285495,0.03279492},{0.17519769,-0.05415287,0.010547975},{-0.13628842,-0.15298882,-0.17357036}},
{{0.034058135,-0.00896632,0.03454673},{-0.099424034,-0.052256096,0.071545854},{-0.08260405,-0.25290975,-0.0057022073}},
{{-0.13254252,0.075695634,-0.24794838},{-0.049140587,-0.15733804,-0.017325005},{-0.110778786,-0.1882059,0.02798232}},
{{-0.0772128,0.04204886,-0.1010129},{-0.07011548,0.09858085,-0.22602084},{-0.10153187,0.16572809,0.018921593}},
{{0.11993996,0.06416358,-0.022375055},{-0.07854823,-0.038299672,0.070783235},{-0.0003635715,0.03536485,-0.090537034}},
{{0.076864116,0.123945594,0.11913934},{-0.09390444,-0.053755313,-0.17506255},{-0.051610604,-0.033687513,0.023363061}}},

{{{-0.17832844,-0.021437135,-0.22801973},{0.0010220042,-0.07673713,-0.22678044},{-0.07974739,0.0006563873,0.13164365}},
{{-0.037524983,-0.04105447,-0.018560788},{-0.019376613,0.048747573,-0.13979991},{-0.17497632,0.05172025,-0.123911686}},
{{-0.30634308,-0.21985248,-0.024151012},{-0.1255227,-0.114520244,0.09816064},{0.11673131,0.18714117,0.10750764}},
{{-0.090609126,-0.006043857,-0.000112722715},{-0.13967545,-0.09427619,-0.020122604},{-0.11363026,-0.022373594,0.050944287}},
{{0.07626931,-0.0408108,0.1600066},{-0.0911124,-0.019971939,-0.07092156},{0.06819359,-0.0021208469,0.0042955545}},
{{0.08334088,0.1250314,0.19471343},{0.12053549,0.13345614,0.13923928},{-0.0114847645,-0.03468604,-0.09747099}}},

{{{-0.012560678,-0.06771677,0.07557698},{-0.020004675,-0.061114714,-0.1643489},{-0.00016201127,-0.039748546,-0.011119314}},
{{0.034650724,-0.022763342,0.12387185},{-0.20030367,-0.10900885,0.12126912},{-0.014456526,-0.17945759,-0.117837995}},
{{-0.07091983,-0.03185051,-0.24870522},{-0.008729112,0.02763037,0.064843796},{0.25849047,0.15730293,0.016997663}},
{{-0.11549888,-0.15281771,0.06902938},{0.00558306,0.15123571,-0.080423094},{0.09677071,0.116908565,0.053248316}},
{{-0.05126553,-0.052227084,-0.026300283},{-0.06164084,0.108338244,0.045396857},{0.0054680514,-0.165474,0.059837744}},
{{0.12650597,0.028225997,0.16584174},{-0.007464894,0.04698755,-0.051127985},{-0.0751854,-0.20048115,0.1065728}}},

{{{-0.16506281,-0.12726536,0.0006182559},{-0.11893926,0.0659593,-0.0031486445},{0.08520167,0.05207473,-0.06298709}},
{{0.018093845,0.022174573,-0.14540176},{0.049323715,-0.12519586,-0.017826995},{-0.117869936,0.10033151,0.100109465}},
{{-0.043251567,0.047954492,-0.051616315},{0.050516687,-0.052479737,-0.009217702},{0.22558358,-0.17401363,-0.18493994}},
{{-0.019248074,-0.06697199,0.01858939},{0.048659325,0.03413663,-0.0030239793},{-0.10893378,0.103911616,-0.016278239}},
{{-0.17013796,-0.13788362,-0.0006854668},{-0.056957263,0.071137145,0.1266589},{-0.085347414,-0.114626735,0.025045551}},
{{-0.108299926,0.06309664,0.092510745},{-0.06393892,0.1834081,0.1925082},{-0.08298426,0.016038943,-0.055285417}}},

{{{0.09034835,0.045627385,0.19677256},{0.05067996,-0.11108459,0.051661942},{0.0822983,0.17068937,0.048466828}},
{{-0.26711583,-0.18097365,-0.17350718},{0.093558125,0.083150715,-0.07740629},{0.1404462,0.06606438,0.013106581}},
{{-0.06470176,-0.22851945,-0.2402651},{-0.12981604,0.09764598,0.22315986},{0.004184107,0.072699964,-0.0072657247}},
{{-0.19976836,-0.0692897,-0.116610244},{-0.027957078,0.17224053,-0.06377261},{-0.005181102,0.17687498,0.004153556}},
{{-0.12044646,-0.2230512,-0.23689747},{0.094179004,-0.06892005,0.0857219},{-0.18150283,-0.15217838,-0.006896464}},
{{0.019780433,-0.20237112,0.053047523},{-0.05963355,0.05859758,0.21454643},{-0.10237619,-0.070976324,0.023179244}}},

{{{0.029197214,0.1795713,0.10818076},{0.16951323,-0.120732054,-0.08683909},{0.19525252,-0.13439712,-0.054255933}},
{{-0.052584883,-0.17646477,-0.058500998},{0.12722948,-0.03928593,-0.22582005},{0.13999876,-0.10483115,-0.117269635}},
{{0.21005863,0.07882908,-0.0033863294},{0.12748228,0.066823445,-0.06908066},{-0.044120476,0.07309179,0.08168222}},
{{0.02934538,0.11819465,0.011857983},{0.039573222,0.0067556016,-0.098625086},{0.0040879943,-0.006736196,-0.04463411}},
{{-0.008299737,0.112742625,0.05637584},{-0.040199466,0.05342391,0.027086712},{-0.071092814,0.0694713,-0.16305384}},
{{-0.023059074,-0.090661906,-0.12456289},{0.072638184,-0.0729009,-0.018176643},{-0.05339435,-0.11946153,0.15993507}}},

{{{0.029849634,-0.014266614,0.067759134},{-0.013686865,0.03826116,0.14401701},{-0.031170884,0.08538328,0.086403124}},
{{-0.14116386,-0.14650609,-0.12464607},{0.14793101,0.091528066,0.10699885},{-0.07044787,-0.2319844,-0.19243376}},
{{-0.24038574,-0.12767059,0.048250373},{0.09218554,0.05891383,0.19161327},{-0.119917706,0.10432275,-0.14068013}},
{{-0.0644849,-0.029390452,-0.091863185},{-0.060971852,-0.055678263,-0.085924596},{0.11299264,-0.047290716,-0.001399908}},
{{0.06520196,-0.20213275,-0.10387595},{-0.13457295,-0.07244892,-0.17734084},{0.17478244,0.22614075,-0.06040347}},
{{-0.11042686,-0.0061463,0.108862884},{0.023951942,0.05693565,-0.056469787},{0.10709822,0.07693335,-0.13007714}}},

{{{-0.28307927,0.018684251,-0.0008704159},{0.012059613,-0.029112162,0.014276257},{0.108394146,0.040978506,-0.11548001}},
{{-0.071685866,-0.13468426,-0.15510415},{0.03290727,0.0035391923,0.08188294},{0.15911148,0.049104672,-0.10279113}},
{{-0.1294601,0.11633643,0.11683129},{0.14495057,0.2290901,0.1825174},{-0.13909073,0.14661667,0.12206125}},
{{-0.26545468,0.12691768,0.11963101},{0.1067979,-0.045072187,0.114866205},{0.052241914,-0.0590067,0.07057807}},
{{0.10980287,0.13536137,0.094992235},{0.016068261,-0.092053734,0.087139554},{0.075742126,0.0975572,-0.15490447}},
{{-0.091557205,-0.25074786,-0.21170107},{-0.017700128,-0.08151794,-0.15797043},{0.03525144,0.0683447,-0.15119274}}},

{{{0.0183154,0.09517842,-0.24539761},{-0.052502286,-0.20881183,-0.21805948},{0.05054102,-0.037558116,-0.08686186}},
{{0.010650041,-0.016815288,-0.2119513},{-0.23196353,-0.11024078,-0.20566799},{-0.19456424,-0.07244332,-0.2287558}},
{{0.041284293,0.052632295,-0.12728976},{0.0194248,0.21824186,0.14425452},{0.081820086,0.057399645,0.011930857}},
{{-0.014890405,0.16361997,0.026307497},{-0.12051734,0.13756628,-0.07021896},{-0.0038631281,-0.068054676,-0.06610107}},
{{-0.07557128,0.011560999,0.066939816},{0.025195884,0.17846125,0.13835397},{-0.029137753,-0.190021,0.15917195}},
{{0.13173762,-0.08251834,0.027675692},{0.037993558,0.10215718,-0.18306284},{0.0034739769,0.1794459,-0.21440445}}},

{{{-0.053548165,0.015067218,-0.021920923},{-0.12897205,-0.21002947,-0.19856136},{-0.07840187,0.081327006,-0.30918723}},
{{0.029299676,-0.20213994,0.08027875},{-0.18418421,0.15800123,-0.08940572},{-0.19635826,0.14306425,-0.0090781525}},
{{-0.122277655,-0.028160468,0.18647072},{0.071530834,0.19889878,0.21359544},{0.097333655,-0.005721516,-0.08334537}},
{{-0.039326485,-0.005389294,0.1627336},{-0.09750976,-0.19363268,0.04092605},{0.10861777,0.06406212,-0.15212716}},
{{0.13134111,-0.015571372,-0.055779338},{0.19863653,-0.059121374,-0.1842072},{0.10410516,-0.2097156,-0.008948871}},
{{0.012193659,-0.040695935,-0.11756588},{-0.1321854,0.08873217,-0.13294148},{0.119710356,-0.10964738,-0.038319003}}},

{{{0.1521858,-0.04069381,0.13217609},{0.0046257945,0.16319169,0.14016603},{0.08528005,0.031488612,-0.055491026}},
{{-0.18255617,-0.1216073,-0.055268176},{0.08386879,-0.026628643,-0.013696142},{0.12143687,0.09576548,-0.15599862}},
{{-0.044093963,-0.118340924,0.010723216},{-0.047207545,-0.094421975,0.01111127},{0.09474792,0.115589485,0.020203564}},
{{-0.013136098,0.18857549,0.05682031},{-0.14263257,0.0013905758,0.012844769},{0.036886837,0.10474803,0.03743029}},
{{-0.087420374,-0.10450971,-0.023671206},{-0.006288916,0.03561903,-0.07711088},{0.045255635,-0.012081451,0.09416748}},
{{0.055852193,0.15848339,0.06460793},{-0.14564961,0.009409272,0.039505824},{-0.16033784,-0.08081024,-0.044368286}}},

{{{0.00020594122,-0.14087711,0.034397997},{-0.037045605,-0.119303815,0.15378809},{-0.06572591,-0.02151064,0.111992255}},
{{0.036586523,-0.04861478,-0.077701665},{-0.011542184,0.1346075,0.120048545},{-0.13074288,-0.1512603,-0.16761687}},
{{0.13511512,0.029055746,0.11415685},{-0.095593505,0.025846768,-0.14504549},{-0.2054944,-0.20973839,-0.12807325}},
{{-0.1846016,0.069670945,0.034975983},{-0.12319045,0.06645637,-0.19525228},{-0.14468053,-0.06503804,0.069043614}},
{{0.10106822,0.06253878,0.041019004},{-0.11937226,-0.009617826,0.13335632},{-0.008457243,0.0174505,-0.13455068}},
{{0.11318912,-0.09308345,0.080277674},{0.08383245,-0.11841358,0.09651284},{-0.18028559,-0.07490148,-0.18897799}}},

{{{-0.119655915,0.13557397,-0.21553434},{-0.009105485,0.051938232,-0.19841105},{0.043003406,-0.0021327029,-0.055076793}},
{{0.15507573,-0.024952693,0.084030636},{-0.06687231,0.16882518,-0.024442967},{-0.17307144,0.07788175,-0.24862604}},
{{-0.05239525,0.12405053,-0.20187977},{0.012398084,0.05661835,-0.0006625366},{0.08660992,-0.17723842,-0.12265138}},
{{0.011404451,0.13109602,-0.26048863},{-0.11297141,0.04679461,-0.1361854},{-0.16567603,-0.14383729,0.0027168416}},
{{-0.04225069,-0.017706841,-0.23964158},{0.14657812,-0.25192115,-0.033224292},{-0.14621456,0.107046135,0.012154434}},
{{0.1257851,0.053673524,0.06597473},{0.040600777,0.08590391,-0.1768531},{0.12937944,-0.21007216,-0.030230882}}}};

static CL2_wei_t conv_2_biases[CONV2_NEURONS] = {0.015282402,0.013296281,-0.056112655,-0.06608378,-0.13744102,-0.08543048,-0.08334866,0.017779002,0.01348381,-0.0010607042,-0.017198622,-0.014513062,-0.037586585,-0.10512866,-0.07940154,-0.010114941};

static DL1_wei_t dense_1_weights[DENSE1_NEURONS][DENSE1_WEIGHTS_PER_NEURON] = {
{-0.02619834,0.0067724972,-0.02911839,0.02393339,-0.0728860572,-0.07301581,0.05025828,-0.0975508243,0.0687773153,-0.06465214,-0.00603331,0.03089887,0.0118093,0.032285206,-0.00929971,0.00919770543,0.12276855,-0.01980694,0.05257181,0.10425987,0.08331194,0.06909427,-0.00325625,0.09148829,0.23866646,0.12362795,0.07686429,0.12782814,-0.01387983,0.01342463,-0.01524698,0.06489608,0.0818477,-0.06500033,0.0484343,0.09696111,0.0701312,-0.00767595,0.01177368,-0.00583348,0.0279341824,0.09306475,0.07634607,-0.12732217,0.21305054,-0.0108697,-0.05992204,0.01330497,-0.10646448,0.06694795,0.09287661,0.08733459,-0.08330055,0.05111397,-0.024283567,-0.02837147,0.11131611,-0.04372521,0.105283357,0.04774206,-0.00683176,-0.01648417,-0.07608706,0.0665693,-0.06781987,-0.10529371,-0.0509167425,-0.09259908,0.0385911763,-0.0853036,-0.04581534,-0.10173656,-0.00873901,0.10424767,0.04251754,0.02218566,0.06387591,-0.0708432,0.0594006,-0.07678332,-0.05078407,0.03290954,0.01204831,-0.103816196,-0.04695642,0.03334952,0.02600929,0.01227679,-0.08322261,0.10157759,-0.05385171,-0.09502272,-0.04790999,-0.02191381,0.06878106,0.02196378,-0.147588834,0.07196109,-0.03094941,0.05135317,0.09141511,-0.03786118,-0.10545012,-0.04513508,-0.03870209,-0.03455494,-0.00644654,0.00281158881,-0.10143284,0.02257414,-0.102044947,-0.11030581,0.20408441,0.10996229,-0.00913837,-0.01874556,0.0824921,0.00818824,-0.01211073,0.000801958609,0.04135236,0.09407096,0.09656778,-0.00326944,0.08729562,0.08882136,0.04601404,0.14806692,0.0923479423,0.01882593,-0.00917336,0.1258034,0.0345096,-0.00369032,0.07266949,0.03582973,0.05583508,-0.0479904562,0.0543344393,-0.0227892902,0.0702686906,-0.02047666,-0.09602613,0.04856487,-0.11644663,-0.04616715,-0.06868865,0.10328203,0.00956503209,-0.03040809,0.09560424,0.04360718,-0.03045961,-0.01341756,0.00606904,-0.03060942,0.03007725,0.00824835,-0.04083857,0.02132925,0.00782398,-0.00637721,-0.03519888,-0.0292268619,0.018243777,-0.08345284,-0.14783157,-0.00906381104,0.08649084,-0.051999215,-0.04743196,-0.01813814,0.05299416,0.00651623867,-0.06967039,0.04997672,0.09658471,-0.1040177,-0.12414541,-0.04756902,-0.06808021,-0.06255894,0.0305633,0.03945669,0.0210570637,-0.05277866,-0.1598708,-0.06732115,-0.11603452,0.02397316,-0.12535557,-0.13510458,-0.00638415,0.01249113,0.03851055,0.03128985,0.0004811,0.05382222,-0.07632895,0.09762549,-0.05367177,-0.0570064113,0.04298191,-0.0599546954,-0.0252584,0.01532525,-0.02725052,-0.0416063368,-0.03405306,0.10676374,-0.00037523,-0.0371700786,0.07039504,0.01625536,0.11272984,-0.04020382,0.05277138,0.028282436,0.04786832,-0.0116064,0.03903299,0.07068598,0.03570877,0.01079014,0.05306609,0.03693752,0.083663173,0.08913502,0.01474978,-0.03806299,-0.04615033,0.0762075,-0.00690664,-0.13213916,0.09462918,-0.00904345,-0.03135224,-0.03291092,-0.08823767,-0.01608727,-0.08153296,-0.12569429,-0.106052622,-0.13097285,-0.00973184,-0.04933288,0.01280905,-0.01392224,0.0110683301,0.0214206409,0.04602311,-0.12449705,0.03223604,-0.03854509,-0.09341136,0.09713388,-0.08458839,0.101048946,-0.04279068,-0.0427594073,-0.00454669,-0.11569156,-0.03985267,0.0947917253,0.0818512,0.00012956934,-0.03921846,0.00117214,0.0522330813,0.07699279,0.01554523,-0.01154099,0.10911208,-0.0509721,0.01450777,-0.0651012808,-0.03463662,-0.03090112,0.07259323,0.00832836,-0.00477743661,-0.0742767453,0.05200754,0.08294211,-0.119827501,-0.06430659,-0.02116813,-0.14291182,-0.03654916,0.185984209,-0.0159008075,-0.08747561,-0.0230093151,-0.01779131,-0.05073141,0.03407371,-0.00587549,0.05393249,0.00188416,-0.0747546554,0.0243561,0.04438427,0.04218216,-0.12691484,-0.0265260283,0.08380285,0.04915097,0.05745867,-0.04163942,-0.05706196,-0.03292028,0.00898655,0.05029853,-0.00106854,0.0518286,-0.04312127,-0.05416382,-0.06834521,-0.0405894,0.00717139,-0.0556603633,0.15745762,-0.0075584,0.122654594,0.0585176311,-0.00639524683,0.04043612,-0.12939377,0.02283204,0.118313797,-0.02918325,0.06724618,0.11518608,-0.0122625455,0.040570125,0.17335328,-0.0064259,0.12329827,-0.12620282,0.0989571363,0.14604163,0.02504213,-0.06450541,-0.1618647,-0.0002088,0.04733871,-0.14674328,-0.07853201,0.02086434,0.03083842,0.05147794,0.2155109,-0.03656414,0.123185627,-0.07774699,-0.09611388,-0.09037756,-0.0262417,0.0315307,0.0738797113,-0.02838421,0.0135781849,0.01480833,0.02639227,-0.01136329,-0.05658549,-0.01503728,0.1474595,0.11897815,0.05845504,0.03202261,0.067000404,-0.06070041,0.09117964,0.05524861,-0.0546519011,-0.14817773,-0.04097603,0.02430465,0.09735917,0.00444797,0.02974093,-0.09815148,-0.00526889,-0.07893418,0.02004995,0.02912493,-0.0486810729,-0.0959422886,-0.0852456167,-0.02637452,-0.01649811,-0.1146974,-0.03406716,-0.00076522,0.08181284,0.0022902,0.01879567,-0.0166139,-0.11951687,0.02029629,-0.02259651,-0.09732134,0.02265703,0.023267,0.03892662,-0.09409789,-0.09145173,0.07020203,-0.06549878,-0.05449439,-0.02525479,-0.0806108,-0.07067077,-0.12579305,0.00062356,0.03122263,-0.130423442,0.01349245,-0.06779079,-0.00093912,0.02328011,-0.029382294,-0.09553909,0.02952255,-0.021647038,-0.08278311,0.0520579182,0.01884584,0.05652129,0.0489742905,-0.05150357,0.07530653,-0.01024239,-0.1933084,0.02330927,0.04186866,0.07519776,0.02455849,0.03942137,-0.0416836329,0.0183155,-0.0352131,0.0262795929,-0.04562789,-0.11446996,-0.03757335,0.03010563,0.13178118,0.00773921,0.113021754,0.00108845,-0.0409767479,0.05126467,0.10036189,0.09605563,-0.1409173,-0.121718086,0.05266359,-0.02973923,-0.08905846,0.05021893,-0.08936704,-0.05384016,0.11517705,0.02159812,0.14365047,-0.02275689,0.0230109673,-0.00362691,0.20799202,0.02128349,-0.00201034872,0.0626610368,0.11984039,-0.02740446,-0.0339041,0.0473887846,0.0143118,0.0529192016,-0.13978247,-0.13926578,-0.01579637,0.02903196,-0.0974808335,-0.10408594,-0.06557621,-0.08526921,-0.04347514,-0.09684431,-0.09292877,-0.04712954,-0.04847857,-0.148370877,0.01365735,-0.09176304,0.06241287,-0.08401331,-0.07604697,0.01325588,0.01482769,0.03747378,-0.0196748655,-0.16232961,-0.11081419,-0.08292188,0.0514973,0.07678635,-0.02790435,-0.09104045,-0.063003242,-0.05353921,0.04705212,0.02566067,-0.02717239,-0.07947129,-0.08462516,0.0543341,-0.0528232642,0.03383024,-0.10995944,-0.178272441,0.04932487,-0.0296144839,-0.02983712,-0.08640618,-0.09313889,-0.0375447,-0.03317108,0.00208103,-0.04190025,-0.0094981,-0.11383754,0.125275701,-0.028712,0.01140167,0.06550705,-0.12426153,0.07676206,-0.06935196,-0.0788608,-0.09388383,0.01912047,-0.06324492,0.0664376,-0.00946388766,0.0381357,-0.01631412,-0.01547971,0.0669281259,0.10256464,-0.01031281,-0.05295882,-0.01656305,-0.01465122,0.0762566,-0.04606172,0.10746302,-0.05770539,0.02771695,-0.04811632,0.02713908,0.10408932,0.154374078,-0.01767378,0.05829691,-0.03035385,0.01569411,0.0053510922,0.08335637,-0.02879042,0.10536106,0.01771842,0.1054417,-0.06028008,0.0666787252},
{0.07718736,-0.0767591819,0.08268448,0.04435344,0.0367792919,0.01216974,0.05557117,0.0140125938,0.0647419319,0.05624278,0.15606198,0.07356177,0.05640403,0.00158769009,0.02097355,-0.0238919221,0.08664526,0.14615276,-0.01875661,-0.12949462,0.06829084,-0.10879827,-0.05548748,-0.08974574,0.17561194,0.19822969,0.05027097,0.01786324,0.14475396,-0.06819231,-0.03327454,0.04639752,-0.09330923,0.10251357,-0.00669926,0.02426383,0.05623845,-0.0203713,-0.07149684,-0.07600774,0.0458266623,0.08766185,-0.035974648,0.15593866,0.0138512,0.11424883,-0.04147305,-0.03554097,-0.01137385,0.06629091,0.02984503,-0.05362098,0.09015708,-0.06137849,0.056446642,-0.05095724,-0.11538165,-0.10259479,-0.0667843819,0.04341777,-0.07098751,-0.0783241,0.04182925,0.04826596,0.03848777,-0.1067486,-0.0123211341,-0.07038233,0.0101304315,-0.08263236,0.09396357,-0.0735338852,0.05215953,0.07408374,-0.06236255,-0.06327659,0.0107187,0.02104382,0.08637289,0.1297538,0.05433265,0.1179981,-0.07725913,0.0702526867,0.11437015,0.06347866,-0.00075982,-0.03672981,0.10081359,-0.01787147,-0.11802753,0.03409468,-0.05134755,-0.09752539,-0.04920982,-0.00289867,-0.0326623544,-0.02970803,0.01745681,-0.06898626,0.02314229,0.00771588,-0.0612259,-0.06476527,0.23740968,0.07332232,0.11042558,0.104834214,-0.03453672,0.01336353,0.0853123292,0.01314176,0.12464906,-0.11901629,0.0338521,0.0522161,0.0719166,0.05841761,0.00553262,-0.000138314732,0.010518,-0.00459147,-0.00097221,0.11416273,0.01073771,-0.02216516,0.02209101,0.07880347,-0.0630230531,-0.01610932,0.10219423,-0.14654782,-0.08775745,0.06712911,0.05046405,0.02883402,0.08253513,0.0757984295,0.0654156804,0.057075832,0.168796256,-0.12312351,0.0631338879,0.22054847,-0.05363534,0.01015217,0.07069816,0.01145763,-0.0997919738,0.00491228,-0.01709553,-0.04852182,-0.08005986,0.0170589,-0.0501894,-0.08175067,0.05896993,-0.07850021,-0.05401025,0.14914067,0.05908851,0.11874738,-0.1467858,-0.0197107214,-0.083135329,-0.07471523,-0.03937527,-0.0786036327,-0.08143772,-0.0855157897,-0.02364567,-0.03826523,0.0389335,0.0690813512,-0.00880665,0.1144736,0.04542729,0.16525626,-0.13238165,0.02259488,-0.01103825,-0.05615048,-0.0393293,-0.04479769,-0.105482936,-0.01807146,-0.11584227,-0.10267462,-0.03275993,-0.00295073,0.11120785,-0.00663503,-0.07706665,-0.00544843,-0.11227717,-0.10255093,0.08694444,-0.06247598,0.01505085,-0.0618876,0.07999707,0.0289100576,-0.09204578,0.0720485449,-0.05638251,-0.06357125,-0.1459645,0.127249092,-0.02215106,-0.10428453,-0.07515614,-0.0427860096,0.00686306,-0.09076125,-0.08783709,-0.00910731,-0.06611784,-0.10072251,-0.01816895,0.10695851,0.09261352,-0.03854682,0.05033134,-0.00072528,0.0205809,0.05647036,-0.0758022964,-0.06428899,-0.0803433,-0.01630947,-0.0330429,-0.03905054,0.05440265,-0.12216104,-0.0402667,-0.01099178,0.01370028,-0.08635627,-0.09535275,0.05282462,-0.02461564,0.00704472,-0.0232058223,0.00460989,0.08585122,-0.02151578,0.05635443,0.06992578,-0.0161747113,0.0269820038,-0.09422971,-0.01350168,0.04444846,-0.11122178,-0.0157585,0.01975473,0.09394269,0.0471666083,0.04593856,0.0155342957,-0.00166538,-0.03427375,-0.03468718,0.135755271,-0.05272711,0.082139723,0.06803122,0.0253172,-0.130384371,0.01937276,0.04801396,-0.03058056,-0.1517353,-0.07706973,0.08633541,0.0964095816,0.06561565,0.0471169,0.03085995,0.08478935,-0.0387953557,0.0830839053,0.16341312,0.04890886,-0.109399594,0.11705181,0.01952471,0.00533566,-0.01127409,-0.066610001,-0.0426394604,0.00065397,0.103751943,0.03261646,-0.02275838,0.01434154,0.09806396,0.0604997,0.00313726,-0.0256862231,-0.05000912,-0.10369498,-0.04370617,-0.01590641,0.020761041,0.00890409,0.03811555,0.04649804,0.12743762,0.07107002,-0.02650926,0.17054631,-0.01091507,0.05175281,0.04318817,-0.06537641,0.07512622,0.02219761,0.08124158,-0.04555482,0.081998691,0.02878602,-0.0606852,-0.0937353149,8.42200097e-05,0.0472616851,0.13856003,0.07794222,0.03979965,0.0324556157,-0.01548238,0.16744359,-0.09788758,-0.0736828744,-0.0229384042,-0.02290937,0.04772913,-0.08208564,-0.04700236,-0.070617266,0.09140575,0.11471809,0.12611885,-0.01780991,0.05240334,-0.03219456,-0.08275633,-0.02152939,0.03590089,-0.01347284,0.03382523,-0.14817934,-0.16619717,-0.0560401008,-0.10859165,0.06429115,-0.03343343,0.0106739,-0.00822734,-0.0702328309,0.09620487,0.139959246,0.01569022,-0.10012814,-0.02586252,0.00979283,-0.02961472,0.0910624,-0.04115504,-0.07387136,-0.07053847,0.103799015,-0.07172754,0.06710804,-0.1377055,-0.056123089,-0.0133579,0.02503815,-0.06978992,0.06325154,0.0741546,-0.07064921,-0.02364424,-0.00065381,-0.0596572,0.07202514,0.03566056,-0.0171085447,0.000207208519,-0.0544444732,-0.03715318,0.09073459,-0.06058358,0.22399965,0.06348186,0.0671007,0.04211615,0.11616846,-0.02258313,0.01061151,-0.1481317,-0.03108098,-0.06062221,0.0691228,-0.12574708,-0.1662115,-0.07447328,0.15710744,0.00523062,0.10663189,0.00500167,-0.01872426,0.0345179,0.0219357,0.05023132,0.20956852,-0.04676611,0.041449409,0.01082601,0.06401671,0.01950565,-0.08943021,-0.0310248528,-0.04378944,0.02337972,0.036539976,0.10888592,-0.0287671965,-0.12303907,0.01722908,0.0716109425,-0.11736809,0.13622154,0.12378234,-0.03792062,-0.05025173,0.07532565,0.06770827,-0.0498598,0.05874256,-0.0593721494,0.07734957,0.02885178,-0.0409091935,-0.031654,-0.0049498,-0.07840391,-0.00371825,0.04890252,0.13599506,-0.0929810703,-0.04422798,0.105517179,0.04135683,-0.01873613,0.05474354,-0.01036824,0.0268079527,-0.16346934,0.01421881,0.01746476,-0.03089413,-0.01555181,0.06951478,0.03931512,0.00844717,-0.11286386,-0.04721356,0.0360806361,0.01560004,-0.06584758,-0.043906,-0.0339775346,0.0421749614,-0.02712606,-0.02331926,-0.07793157,-0.0872551575,-0.03541171,0.036711473,0.04975878,0.1266246,-0.04291322,-0.11323854,-0.0289512444,-0.00981799,0.011427,0.05158453,0.09580365,-0.15102091,-0.02952002,-0.06377777,0.11494537,0.00207735342,0.05268254,-0.06955828,-0.10254999,-0.02474729,-0.00908491,-0.05774395,-0.00389432,-0.03864117,0.0582902096,0.03805878,0.03837058,0.07777337,-0.03538225,-0.06817614,-0.09229495,0.00339488,-0.0455705896,-0.06160638,-0.07429414,0.02037972,0.03456642,0.05508368,0.05444914,0.04147274,0.13394022,-0.06165176,-0.13446479,0.0653678104,0.11891688,-0.0976216942,0.03628,0.09254118,0.06705224,0.04807827,-0.03101712,0.0792385,-0.06315549,-0.06131585,-0.00954724,-0.019451566,0.05615062,0.01695251,0.01678721,0.10917218,-0.05692551,-0.03432133,0.04842741,-0.00355985,-0.00657005,0.0343176,-0.01560405,-0.0502805598,-0.07409468,0.03925776,-0.06764886,-0.107104912,-0.1353314,-0.04369795,-0.0353607386,-0.11484568,-0.13222404,0.03909498,0.03795309,-0.11427663,-0.03670643,0.03069545,0.13537776,0.00691477,0.05682697,-0.0333967693,-0.07276221,0.09064844,-0.11183377,-0.0083164,-0.0799412355,-0.09171314,-0.11350835,-0.0483717,0.00133091,-0.12467641,-0.14307833,-0.0988547131},
{-0.07338123,-0.00379328383,-0.03109822,-0.10859337,-0.0835072324,0.08851822,-0.08394484,-0.0875775591,-0.151270896,-0.097385,-0.09913658,-0.03750189,-0.04665106,-0.00757166417,-0.06976389,-0.166440755,0.12242716,-0.03375731,-0.00899785,0.06573515,-0.03103791,0.04591802,0.04988917,0.02342968,-0.00843025,-0.0458402,-0.12931022,0.05499355,-0.03190426,-0.07932891,-0.02865401,0.05131396,0.0127846,0.08835816,-0.00457792,0.01795966,-0.02291117,-0.06317946,0.00986585,-0.06355835,-0.0565717965,-0.0211465,0.0060341582,0.10371948,-0.00324034,0.04762957,0.09240228,0.0671494,-0.00746796,-0.01408168,0.0130892,0.08752152,0.0997091,-0.0045971,0.074795552,0.02230613,-0.01187292,-0.00565452,-0.0182348844,-0.09318055,-0.01151864,0.09016148,0.09778149,-0.02916574,0.10839038,0.14996246,-0.0104676448,0.05321295,0.0838990733,0.08828115,-0.08602457,-0.0139661171,-0.04686302,-0.01184089,0.07431625,-0.08719902,-0.07156137,-0.00195193,0.12454098,0.04567216,-0.07257077,0.00350311,-0.0518974,-0.117973082,0.02824478,-0.06541764,-0.04173971,0.07324398,0.10378847,-0.12667008,-0.00169752,-0.01793209,-0.10606544,0.05700827,-0.05984826,0.03605456,-0.106163539,-0.10157432,0.00365968,0.04609415,-0.02526875,0.080887,0.08360732,-0.01119412,-0.10894608,-0.00195737,-0.08981397,-0.0188317001,-0.14997557,0.03009134,0.0267669484,-0.11857489,-0.05920944,-0.03837109,-0.03796103,-0.01728205,0.02327044,-0.09087589,-0.05796675,-0.0903651044,-0.00217097,-0.04594225,-0.0981449,-0.02125368,0.03006568,-0.08211061,0.01011992,0.0246831,-0.0509422086,-0.09049667,-0.05276242,-0.05725215,-0.03779307,-0.03157036,0.0441048,-0.00169511,-0.01531018,-0.0427911058,0.00105859153,0.0186235625,-0.0434311666,0.02552904,0.0356830023,0.01324361,0.06566756,-0.03004591,0.07179479,-0.05369315,0.015283132,-0.04821965,-0.03796909,0.02069116,-0.09837919,-0.00195392,-0.03539676,0.00050494,0.02991193,0.07302147,-0.08982104,-0.0596568,0.02055818,-0.0534867,0.1747235,-0.0369327664,0.0098607959,-0.03077994,-0.06899176,0.000750955951,0.00112604,0.017846819,0.09452513,0.12410048,0.03558031,-0.0707658976,-0.05163941,0.0405318,-0.07156521,-0.10906102,0.00214076,-0.03884415,0.05227666,0.03311349,-0.11138455,-0.05902571,0.0602672845,-0.02044505,-0.07448464,0.1593806,-0.07757028,0.01553135,-0.07714004,-0.02697107,-0.10499133,-0.07343702,0.02030962,-0.05055688,0.00531013,0.03833684,-0.09118147,0.02468476,-0.12473281,-0.00914926175,0.01102505,0.0739129037,-0.03140435,0.0148556,-0.03536082,-0.063754186,0.00544217,-0.04433467,-0.00066178,0.0633794516,0.0683376,-0.01132259,0.0276157,0.04255696,0.08343533,-0.05107253,-0.09961353,0.14001133,-0.0556835,-0.0618633,0.07634195,0.04149874,0.07522506,-0.08143174,-0.0132584702,-0.09152082,0.01842357,-0.02565634,0.02062769,-0.13332097,0.06816305,0.04338275,-0.12949467,-0.04675634,0.0611155,-0.03009494,-0.02780152,0.10691384,-0.12278375,0.07415292,-0.00255236821,-0.06290584,0.04209038,-0.01225526,-0.02917346,-0.0287699,0.117582813,-0.0821889862,0.04007336,0.02302602,0.05336784,0.01780718,-0.00368242,0.07510925,-0.1498289,0.0164069254,0.08014991,-0.0186973494,-0.09655823,0.07140355,-0.00090092,-0.0985478833,0.01255964,0.089667201,0.01314077,0.06338986,0.0295211039,0.0969473,-0.07769666,-0.07611891,0.12346691,-0.26933107,0.03487415,-0.0227080714,0.01074828,-0.0275256,0.02943693,0.00849942,0.0898127705,0.0625714734,0.06359536,0.06247734,0.039618168,0.00356511,-0.04822125,-0.0041703,-0.04523379,-0.0935036242,-0.0474847183,-0.03962384,0.0628609434,-0.00149955,0.12037917,0.06946118,-0.01963678,-0.34455353,-0.043593,0.0192058887,-0.06098121,-0.04293024,-0.01164592,-0.09533865,0.0109715434,-0.15734032,0.06512026,-0.07385504,0.15035945,0.15192549,0.03441959,-0.12874052,0.03763553,0.00357108,-0.05434752,0.18291433,-0.00584782,0.02069175,-0.17009139,0.0372443,0.167226687,-0.09987292,-0.22879674,0.011483347,0.0138462419,0.0560578592,0.01173146,-0.20683812,-0.03333534,-0.00285097933,-0.08240418,0.10749619,0.14721031,-0.110402897,9.54857242e-05,0.09667061,-0.00474515,-0.02206036,-0.04558042,-0.0539896637,-0.02769218,0.00381653,0.0113618,-0.08217827,-0.1045742,-0.09276828,-0.11179119,-0.07784953,-0.01279345,-0.01954958,0.07752176,0.031088548,-0.0135697,-0.148221612,0.11494052,-0.07717587,-0.07034373,0.08653742,0.11074834,0.0336806737,0.12086013,-0.0184145346,0.09482673,-0.05004783,0.12149745,0.13898484,-0.00767391,-0.1166557,0.03101625,-0.06380822,0.04848182,0.0213272888,-0.05428222,0.05247004,0.05572725,0.066003263,0.04539352,-0.02520577,-0.04874718,-0.07699053,0.09087082,0.06106107,-0.05931341,0.02622815,0.03133623,0.01683686,0.08862691,-0.0326138027,0.10361971,0.0772704929,0.03547397,0.01887107,-0.06506743,-0.05475762,0.10787361,0.03386469,0.09873097,-0.01387358,0.10000029,0.00498048,-0.04399769,-0.09714217,0.08885247,-0.03888569,0.01613611,0.04834486,0.02262972,0.03454795,0.07375775,0.04617305,0.03388073,0.08164895,0.02656976,-0.06483284,-0.00986837,0.04680634,0.03987806,-0.110340357,0.07134199,-0.1488956,0.1139355,0.08563787,-0.119850852,0.06066509,-0.04265096,0.10820885,0.02711258,0.0432594456,0.02808447,-0.0649123,-0.150312707,-0.00821527,-0.00269003,0.05434002,0.11183683,-0.0946938,-0.05193799,-0.02823809,0.10436811,0.15535553,-0.150544599,-0.01019286,0.03551899,-0.03766625,-0.00730905,-0.02839664,-0.05028459,0.06436127,-0.03760336,0.04961565,0.130419582,0.08478305,-0.0178763494,0.04286382,0.13255024,0.04915568,-0.06111241,-0.0424816906,0.08011196,-0.0952185,0.00846258,0.00911304,0.04966402,0.01512419,0.03113704,0.07658609,-0.08370391,0.00504527,0.0406425446,0.09778494,0.0786533,-0.07389545,-0.0339281633,-0.0590490215,0.03126067,0.00672453,-0.00890382,-0.0592578985,0.10885593,0.074910149,0.02426428,0.03506167,0.05460158,-0.04286896,0.108308651,0.02337148,-0.05225144,-0.11431616,-0.08674011,-0.01522622,0.01678094,-0.12790617,0.07304758,-0.0532033108,-0.01668398,-0.09726176,-0.0368073,-0.07639702,0.08919723,-0.04938097,0.07952029,0.04014601,-0.0139676584,-0.00396285,0.01734135,-0.02321212,0.04995419,0.0419274,-0.00891629,-0.0253238,-0.0393525138,-0.06802822,0.0220346,0.1470975,0.00233684,-0.02375341,-0.09591345,0.05723047,0.0707161129,0.00039221,0.06955931,-0.111042522,0.08054878,0.120184012,-0.04643353,0.10404537,0.07630064,-0.00331439,-0.05961153,0.03402815,0.0129844,0.03055998,-0.0278659,-0.00850514695,0.08017544,0.02370225,0.01494906,0.01935885,-0.03341198,-0.06549913,-0.04772409,-0.00721858,0.06737521,-0.00909618,-0.14423156,0.0601660162,-0.03630584,-0.02148431,0.03582634,-0.0693774372,0.05133876,0.00613296,-0.12955007,0.12649755,0.07861388,-0.04227974,-0.15297695,-0.03907925,-0.00048753,-0.0243906,-0.07631665,0.02671691,-0.07624399,0.0554501489,-0.06881252,-0.00955034,-0.07122143,-0.08520113,-0.0181152765,-0.08437525,-0.14942138,0.02265768,-0.06337622,0.03383212,0.02498183,-0.0522493012},
{-0.05813096,0.0809795111,0.03068268,-0.02396182,0.0486782677,0.07580103,-0.08238465,-0.0123987691,-0.0283584073,-0.08598628,-0.04736699,-0.00970923,-0.07894659,-0.0283523053,-0.07887734,-0.0636606663,0.02643643,0.01424977,-0.06848429,-0.00309315,0.00945104,-0.07826591,0.00608666,0.07008684,0.0258281,0.04918682,0.02886939,0.03254153,0.07530496,0.05232714,0.05937888,-0.02668778,-0.01448618,0.02181083,-0.10670184,0.01278093,0.08820004,0.02032382,-0.05194369,-0.05622073,0.00773995649,0.01297119,-0.041692287,-0.02214475,0.06952979,-0.09720789,0.04998986,-0.00360171,0.06658087,-0.02478645,-0.0673691,-0.00249956,0.07763804,0.05174175,-0.051560193,-0.09605819,0.01341555,0.04647972,0.00871454738,0.07978026,0.06470568,-0.09105141,-0.0406989,0.03617292,-0.01650592,-0.0130816,-0.0279577468,-0.02202411,-0.0288888235,0.04634275,-0.0845321,0.00148809061,0.03547283,0.0262724,-0.08283667,0.0688908,-0.05291255,0.00095628,-0.05121491,-0.05298724,-0.04193134,0.01570095,-0.06031489,-0.0279177669,-0.09191822,-0.03604037,0.06870022,0.07319156,0.01043941,0.07211383,-0.03625467,0.02609346,-0.05996897,-0.09289858,0.00744808,-0.04086305,-0.00417450303,0.05628787,0.04735208,-0.02606108,0.01076372,0.04813882,-0.07417663,0.02432607,0.03485339,-0.08406994,-0.03949327,0.0219167899,-0.00994169,0.06429764,0.0266701337,-0.00420413,-0.02430981,-0.0710963,-0.0908626,-0.03910637,-0.05432078,0.02876017,0.0609963,0.0555004366,0.02811742,-0.01105763,-0.07122629,-0.0976442,0.03695924,-0.07884592,-0.10014561,0.03737163,0.0262254588,-0.05389937,-0.00643929,-0.0182804,-0.08706566,0.06708669,0.00800203,-0.02586118,-0.00993562,-0.0862032995,-0.00846162904,-0.00315078953,0.0245241094,-0.05376596,0.00616977504,0.02116699,0.03867247,-0.01702006,0.02071948,-0.1004619,0.0406585708,-0.09864423,0.043269,0.05936697,0.02400453,-0.0622298,-0.01707009,-0.09315551,-0.10233115,-0.09441861,-0.08759025,-0.03740227,0.00536613,0.05905537,-0.03435266,-0.101393096,-0.086353317,-0.00636577,0.00947361,-0.046788726,0.02911362,-0.0240623709,0.07105728,-0.0806265,-0.05726587,0.0130958706,0.02050265,-0.07121129,-0.08070313,0.03947154,-0.08502939,-0.01204538,0.03826047,-0.00848226,0.04809874,0.04060055,-0.083179079,-0.07088224,-0.09335423,-0.03179198,0.01137873,-0.08138517,-0.03838276,0.00847097,-0.04248662,-0.0808638,-0.11239042,-0.0933972,-0.03982908,-0.04731531,-0.07224239,-0.06695727,0.03367167,0.0935346782,0.05596747,0.041037336,-0.09295776,-0.05657131,0.06410523,-0.0726110563,0.00023916,0.04123171,-0.03707564,0.0441871658,-0.03901795,0.00795351,-0.07581024,-0.01556043,0.02267353,0.077817529,0.02972497,-0.01130662,0.03181439,0.00673315,-0.06561055,-0.06775442,-0.10337659,0.02834619,4.53171851e-05,-0.00778138,-0.01573448,-0.02545484,-0.00613839,-0.04069393,-0.03961045,-0.02228888,-0.02938516,-0.05480483,-0.02467829,-0.00326927,0.06871323,0.05954164,-0.09652502,0.10851403,-0.0299554523,-0.09619265,0.0067663,-0.10044631,0.005308,-0.05003017,-0.0477019064,-0.0683678612,0.06326193,-0.01378728,0.02140274,-0.10596523,0.06345472,-0.04198119,-0.06881802,-0.00795071013,0.01594564,-0.00385787361,0.02402438,-0.00994531,0.06960864,-0.0314580612,0.01583684,0.011033333,-0.08098992,0.0884878,-0.0685550719,0.03193117,0.08665296,-0.01641108,0.01580933,0.00389822,0.04187168,-0.0688267797,0.02408904,-0.02499248,0.00509666,-0.03320525,-0.069384329,-0.0592620634,-0.05041844,0.08240487,-0.0115166102,-0.03558175,0.02833439,0.00846353,-0.07415479,0.0179405641,-0.088851735,-0.06946954,-0.0542559065,0.032341,-0.07256963,-0.02704213,-0.05711271,-0.01910947,0.07736811,0.119604453,0.06517625,0.02538883,0.04628219,0.05893299,-0.00952468999,0.02876961,-0.10211664,0.03920101,-0.02989228,0.02990267,-0.06540975,0.0065545,-0.01691873,-0.0645361,-0.0828378,0.03150218,0.08907174,-0.02222652,-0.03043967,-0.10698228,0.0353646763,-0.01452565,-0.08931506,0.0238105226,-0.0955552608,-0.0957936347,-0.08914331,0.04701845,0.05871775,-0.0993491635,-0.02204354,0.04886827,0.00094149,-0.045570448,-0.0204697959,-0.06977826,0.06576483,0.02259013,-0.01786539,-0.100755215,-0.01397656,0.06478184,-0.0048726,-0.00720647,0.0108629,-0.05286971,-0.0607298,0.02341463,-0.00869404,0.04513443,0.03327881,0.033132125,0.0721187,-0.0388614163,0.05469212,-0.10229631,0.05232407,0.04809036,-0.08148368,-0.0135190226,-0.0534208,0.0557888448,-0.04900474,-0.07641044,0.02497063,-0.01902593,-0.05592193,0.06193088,0.10263649,-0.01936536,-0.04842893,-0.0317482725,0.01424875,0.05271523,-0.04190609,0.0228381678,0.00501104,-0.02604388,0.01235483,0.00866808,0.05229046,0.06593675,0.01868209,-0.00042563,0.05060996,0.05402733,-0.03927492,0.0677720979,-0.0621522628,-0.0402241722,0.06591111,0.02638346,-0.01031022,-0.07604224,0.05942142,0.00783033,0.02216566,0.00165788,0.07447949,-0.06537118,0.06732167,-0.09377555,-0.02497464,-0.07463108,-0.06433118,-0.08346675,-0.04192693,-0.05043032,0.00425336,-0.0508631,-0.04481887,-0.01503885,0.04756109,0.02067291,-0.05286311,-0.06330904,-0.08794855,-0.029673636,0.05549343,0.02559236,0.02735092,0.06916507,-0.0950394943,0.08502932,0.03410636,0.02145463,-0.05056546,-0.00754828937,-0.01678023,0.00946006,0.00856001955,0.07563688,-0.08104673,-0.04836681,-0.0209683,0.03963687,-0.10568129,-0.06561031,-0.03873735,-0.02093328,-0.11046046,-0.02334,-0.04306109,-0.0357349068,-0.10331146,0.0218885,-0.07453511,0.00993068,-0.06381711,-0.02692275,-0.112849437,-0.08935092,0.0296238698,-0.07737795,-0.09265821,-0.03806307,0.05169269,-0.0781984478,0.03877242,0.03605541,-0.06825565,-0.08330385,-0.10296632,-0.07938061,-0.02781194,-0.06688527,0.03177272,0.06862965,-0.00337936822,0.06399857,-0.08837081,-0.00530206,-0.0858443379,0.00212190882,0.06803991,-0.04055688,-0.02240433,-0.00265102228,0.00646783,-0.0349202529,-0.07879405,-0.02195308,0.05340438,-0.01925899,-0.0580895133,-0.00687549,-0.02710942,-0.0764594,-0.06290154,0.02987059,0.00152137,-0.05056034,-0.01238003,0.0895452574,-0.04654595,0.07029513,-0.02227016,0.00154124,0.07218845,-0.03752303,-0.03895969,-0.01100878,0.0207455214,-0.01612654,-0.03581875,0.09052533,-0.01156247,0.08968815,0.02024023,0.02605135,0.0670725554,0.06790461,0.05866029,0.07169832,0.07174803,-0.07090318,0.01225844,-0.05379701,0.00775810611,0.0641971,-0.00327041,0.0536336079,-0.09993638,-0.0141750453,-0.05414293,0.0228543,-0.0351683,0.05062161,-0.07868792,-0.08521921,0.06940728,0.01199458,-0.08194661,-0.0108632017,-0.08308379,0.01838627,-0.05602328,0.07264633,-0.08047619,-0.09557933,0.02530984,-0.07033002,-0.09467134,0.02917913,-0.02176376,0.0337044299,0.02876654,-0.06458589,0.05926684,-0.0496456996,0.01577154,-0.03197997,-0.000831835612,-0.07339085,-0.09943936,-0.09118757,0.08530536,-0.02644777,-0.09388585,-0.0658279,-0.07679088,0.04288024,0.07037403,-0.0586910062,0.0074551,-0.03370856,0.02883966,0.05987247,-0.00294679287,0.05990602,0.01465101,0.02704963,-0.05092604,0.01497489,-0.04073479,-0.0611010976},
{-0.05325045,0.00485854689,-0.00155808,0.05445748,0.00179526058,0.06679918,0.04507533,0.0782437101,0.0135691492,0.0124165,-0.00911082,0.04517604,0.04857579,0.0290683024,-0.04991363,-0.126135886,-0.00914882,-0.04929953,-0.01303765,0.00530494,0.02361194,0.05582143,0.01995771,-0.15411223,0.17947517,0.06184193,-0.00827392,-0.072095,0.08756007,0.02956439,-0.05116989,-0.0980856,0.05480896,-0.03777929,-0.01253128,0.04240956,0.00482374,0.00464805,0.03072864,-0.15052497,0.0447891019,-0.15827751,-0.047875538,0.10436982,-0.07552627,-0.06407713,0.00225219,0.03487457,0.14384009,-0.00955177,-0.0334689,-0.06185762,0.05104659,0.09564393,-0.069294833,-0.03304426,0.06562269,-0.08951877,-0.168307081,0.01785618,-0.07160798,-0.06966695,0.06463449,0.01022753,0.03286043,-0.00377612,-0.0742892921,0.0731058,0.0327598341,-0.04271921,-0.03545935,-0.00680182595,0.05590017,-0.06468562,0.06019748,-0.07905999,0.00480537,-0.01366268,0.09215671,0.00450882,-0.09043291,0.00342664,-0.02849294,-0.0478204042,0.12796928,0.09996647,0.12955795,0.00296381,-0.05368146,0.09856773,-0.06283708,0.02090049,0.07988641,0.08458725,0.07654607,-0.03100084,-0.0989684835,0.03598975,-0.11837041,-0.05871622,-0.05255653,-0.01480503,0.02578975,-0.18695058,0.01558877,0.07344459,0.05310206,0.100184053,0.09729705,-0.07693197,0.0400428437,-0.05249927,-0.00127081,-0.14819668,-0.12900625,-0.09328887,-0.03165873,-0.06994644,-0.04873634,0.0198910777,-0.00456239,-0.0430573,-0.01038633,-0.03004851,-0.10866474,-0.12528482,0.00216312,-0.08853541,0.0485680029,-0.04208419,-0.02354823,-0.08174747,-0.0575255,-0.05771997,-0.00300279,-0.2127485,-0.02454525,-0.0228769258,-0.00528948521,0.0797483101,-0.0534054004,-0.050152,0.032012023,0.06172848,0.11531146,0.00556762,-0.1143545,0.03405398,-0.00275133853,0.08191819,0.08168378,-0.12800257,-0.01831934,-0.05531614,-0.03631828,0.01317223,-0.02724755,-0.061924,-0.10129831,0.12672803,0.02620569,0.0932644,0.06493848,0.0534011275,0.040506747,-0.01478132,0.08305568,-0.0138248429,0.02597648,0.00585787604,-0.01610963,-0.03736562,-0.02187684,-0.130130172,-0.04870956,0.04218781,-0.0240549,0.05686766,-0.00351683,0.06189204,-0.03410798,-0.08684141,-0.06454132,0.00270304,0.0562461875,-0.0975286,0.07656027,0.00986686,-0.06168544,0.13019599,0.01026663,0.0894126,0.01785669,-0.13320711,0.08864632,-0.08649131,0.05525669,-0.06332649,-0.03878395,-0.07189106,-0.08166185,0.00620842399,-0.10552762,-0.000636522891,-0.14851072,-0.04068102,-0.16824092,0.00133792078,-0.02081736,-0.19782442,0.08880159,-0.156839773,-0.00890832,0.05519937,-0.02943882,-0.08755146,-0.15346228,0.00061139208,-0.11599092,0.04440251,-0.04912546,0.03258488,-0.07351671,-0.03582956,0.08121525,-0.02872389,-0.0566872805,-0.08305665,0.06248058,0.04596822,-0.02299277,-0.19507802,0.05269751,-0.01571413,0.0174682,0.01800602,0.02485308,-0.08912607,-0.01420138,0.07784003,-0.09478407,-0.10115446,-0.0710893422,0.03695764,-0.02410077,0.06889377,0.00224471,-0.05183078,-0.0502232388,-0.0363299251,0.00415813,0.03714672,0.00068545,-0.0496962,0.05082834,-0.01868311,-0.00131939,0.184058517,0.19263217,0.0443099737,-0.08652993,-0.04372437,0.11116327,0.126176491,-0.13484676,0.095104821,0.05111912,-0.10297607,-0.0274001546,0.09206141,0.16384597,0.04925889,-0.07238014,0.09278617,0.06433347,0.0992952362,-0.03711987,-0.07852971,0.08892953,0.08771424,-0.149095997,0.153578863,0.06284428,-0.00765397,0.0125684598,0.01176479,-0.02584555,0.04860964,-0.06711403,-0.0365082175,-0.0549878739,-0.03882719,-0.0504726619,0.0226849,-0.02518644,-0.00493557,-0.11611237,-0.00626608,-0.04711764,0.0494652241,0.05763921,0.09112177,-0.03588254,-0.03358361,0.000288180279,-0.12824428,-0.06145496,-0.06296143,0.1234642,0.0631345,0.04619481,0.02655533,-0.08528683,-0.00762537,0.05065654,0.06097175,-0.03824436,-0.01507871,-0.01391383,-0.1330488,-0.0191971064,-0.1385801,-0.03829356,0.065464288,0.00901029166,-0.0508017205,0.06665469,-0.05675739,0.06708176,0.0701685846,0.09813145,0.0975349,-0.04066529,0.00855316408,0.00463737454,-0.08024085,-0.04560933,-0.05580885,0.0180271,-0.0315429568,-0.0368337,0.07577181,-0.00589564,0.05099092,0.01950405,0.15270899,0.13357395,0.05754886,-0.08295595,0.09873723,-0.05432738,0.062232401,-0.16065845,0.000982984435,0.02763481,0.05091267,-0.09610642,0.01605932,-0.01083347,0.0647239164,-0.0029923,0.180040762,0.12113427,0.10129893,0.05568532,0.10567535,0.06831978,-0.11801484,-0.08471817,0.04167097,0.12674947,0.0312297083,0.05255969,0.16030765,-0.07958795,0.0526277833,0.10221098,-0.01192515,-0.05671089,0.06857919,-0.10054161,0.12463755,0.05458875,-0.07293502,0.01545278,0.03517607,0.03072034,0.127112791,-0.000512709317,0.0291045234,-0.04994139,0.02284246,0.11136625,0.00978492,-0.04258838,0.0835339,0.04510146,-0.04416782,-0.05143194,-0.05533898,-0.01657009,-0.06045787,0.05080356,0.09750935,0.01340978,0.07785694,-0.00040984,-0.0877326,-0.06114195,-0.07211321,0.01205622,-0.03723856,-0.07913466,0.0429277,0.08274891,-0.00277454,0.08549517,-0.155137703,0.04974331,-0.06287433,-0.03043021,0.03571565,-0.0654749274,0.02211778,0.04007102,0.037995782,-0.09190761,-0.0677931681,-0.1144174,-0.02202175,0.0350369699,-0.15432045,-0.0998239,-0.07380238,0.09982627,0.07479295,-0.07331818,-0.04213983,-0.11086431,0.08106909,-0.00732139125,-0.02225793,-0.00774951,0.0771877244,-0.03018799,0.15633057,-0.0504826,0.04834551,-0.07730451,-0.00252278,0.0685769469,0.11462723,-0.0533796698,-0.00566866,0.00260626,0.02920965,0.02064173,0.0306711737,0.08250482,0.0467098,0.08023779,0.12777174,0.03048369,-0.04890173,-0.03613983,0.00922033,0.00065971,-0.03095225,-0.0614182092,0.04630896,-0.0054897,0.02147266,-0.0239347015,0.0618437976,-0.02733798,0.02518459,0.03206496,0.0565501563,0.03260409,0.0774756446,-0.02176262,0.04486715,0.08834556,-0.08380352,0.00360815157,0.07267622,0.04878467,-0.03740337,0.05484777,-0.02012387,0.05301895,-0.11064086,0.0173586,0.0226045884,-0.04646026,-0.03364476,0.05851235,0.02749394,-0.00484025,0.0051392,-0.03761491,0.04747493,-0.0201962199,-0.01693647,-0.03189377,-0.02539059,-0.05102647,-0.10214467,0.01198748,-0.01277985,0.0689434111,0.06827433,-0.09649485,-0.02842005,0.03911396,-0.00984633,0.1144864,-0.02670314,-0.0106068021,-0.01507844,-0.0183445,-0.100821652,-0.09217136,-0.103433348,-0.08558276,0.06226273,0.02070884,-0.01910813,-0.03688157,-0.02893262,0.08346354,0.01977369,0.0792051,0.0325303376,-0.05051484,-0.01866142,0.05553547,-0.09077387,-0.07606751,0.05564747,0.09042431,0.00108362,0.06065742,0.01053714,-0.00112658,0.0226027388,-0.00170891,-0.05087781,0.06382632,-0.0701037496,0.03371858,0.00803117,-0.057776738,-0.04982832,-0.10538095,0.02922492,-0.04057339,0.01820817,0.04136219,0.06440599,0.05826143,-0.04308822,-0.04082786,0.0665212795,0.04254013,-0.01296292,-0.00830121,0.05725455,-0.00172042393,-0.01525204,-0.07309172,-0.05479257,-0.05001593,-0.01785653,-0.00677134,0.0171731673},
{0.02223246,0.0225077774,-0.05050447,-0.06711214,0.0194570031,-0.02802886,-0.05156184,-0.0462063774,-0.018176714,-0.00506549,-0.07844095,0.05184019,-0.01143163,-0.039580211,-0.11341153,0.0838766992,0.06629964,0.08093391,0.09783331,0.0613475,0.11365054,0.17184575,0.07744242,0.05654503,-0.00844967,0.02158948,0.01988181,0.14451773,0.02209976,0.08213387,-0.02220933,-0.04202363,-0.05748747,-0.01704358,0.0638734,0.06259774,-0.00035844,-0.1054314,0.1106065,-0.01653114,-0.00821877737,-0.04046262,-0.066951044,-0.12109652,0.11892583,-0.00087681,0.0399121,0.04643103,0.01893262,0.03167369,-0.03974404,-0.0657277,-0.05918447,-0.10094476,-0.041270263,-0.01270461,0.01473212,-0.07516218,0.100823939,-0.14082079,-0.02963933,0.00257434,0.01216227,0.03845695,-0.07165473,-0.00431235,0.175922856,-0.0837966,-0.101064309,-0.0385194,0.02773877,0.0162257142,0.00897761,-0.12461796,-0.00505416,-0.02985629,0.03035399,0.04853003,-0.08585,-0.00574678,-0.04099758,0.04778173,0.09365116,-0.0871170163,-0.10375722,0.02107695,0.00158606,0.17794894,0.06132717,-0.06856109,0.02864883,0.00962613,-0.00566489,0.10726558,-0.02995784,-0.06421021,-0.00864218175,-0.00539953,0.01309766,0.07180896,-0.0300011,-0.00546892,0.05781256,-0.08458974,-0.02939604,0.00104757,0.02312254,0.0382160731,0.05562533,-0.04763691,-0.0423449948,-0.0530686,-0.05092838,-0.19127391,0.05742219,0.07455533,0.07296029,0.0374824,-0.02242159,-0.065928109,-0.11704358,0.10360948,0.15954617,0.0008843,-0.07409448,0.02031539,0.0811364,0.0363284,-0.0154512385,0.04205569,0.04438879,0.03961995,-0.09535038,-0.02672222,0.10037104,0.06780341,-0.00325697,-0.0266860612,-0.0236375909,-0.0872678459,0.0360142849,0.01132553,0.00251932954,-0.16024667,-0.14295898,0.01518685,-0.0620483,0.03893278,0.0184671655,-0.12127681,0.01460135,0.05021754,-0.01051395,0.12045851,0.1250717,0.01562491,-0.12158418,0.07030956,0.04265027,0.05047481,-0.10863074,0.10342642,-0.01101107,0.0232008733,-0.095313534,-0.15474871,-0.04185728,0.0666500479,-0.02340954,-0.037169382,0.07206494,-0.04482587,-0.10615371,-0.0667927712,-0.08088752,-0.01329261,-0.107171,0.17074274,0.12171566,0.09917872,-0.01478117,-0.03594583,-0.0568065,0.01462601,-0.0598088093,-0.11860137,-0.09677441,-0.03416266,-0.04675418,0.04865042,-0.02410501,-0.13753994,0.01416572,-0.06257525,-0.07298284,0.08681399,-0.05504502,0.02358641,0.04637511,0.02281416,-0.04687932,-0.0879555643,0.00271938,0.0653857514,0.05730822,0.04664619,0.10660489,-0.00811615307,0.04128843,-0.10967337,-0.05802032,0.0360232219,0.05823909,-0.05810717,0.05249808,0.0064306,-0.0076829,-0.046547074,0.04261587,-0.07117556,0.02780446,0.00238196,0.06612541,-0.08507853,0.02169955,-0.00097682,0.0503605641,0.10524081,-0.07226982,-0.01557976,0.13637924,0.18393108,0.02700062,-0.08716968,-0.10240805,-0.14940901,-0.05733096,0.12574749,-0.045715,-0.08798636,-0.09024711,0.12258817,0.0577890351,0.05244157,-0.13140303,-0.06951703,-0.05898736,0.07010793,-0.0148777207,0.0278844889,-0.10958476,-0.01439145,0.00481452,-0.01147958,0.02512475,0.06517646,-0.14518455,-0.0374590605,-0.04038836,0.0482086837,0.00560767,0.03084623,0.02939432,0.0950292572,0.01222679,0.093447037,0.05960298,-0.13346922,0.00105951307,0.00073641,-0.15777482,0.03518569,-0.14055327,-0.13666427,-0.16523284,-0.103200652,-0.15334761,-0.0658308,-0.15997805,0.03549655,0.0295410529,-0.121381737,0.02580369,-0.14133066,-0.0405463278,-0.01029186,-0.06766243,-0.15412667,0.00580885,0.137160555,0.025607096,-0.05077536,0.106603101,-0.07329038,-0.03127657,-0.08520301,0.01050973,0.05560804,0.08533449,-0.0306202713,0.00943578,-0.00717523,0.00503705,-0.00632521,-0.0382470712,0.03289074,0.01577808,0.04878617,0.03431521,-0.03659847,0.05919632,0.03621295,-0.11642119,0.05032562,-0.09521358,-0.14529765,0.03401147,-0.01843945,0.1280468,-0.01796943,-0.0556991547,0.00469159,-0.05698776,0.145090222,-0.0770042241,0.0127080549,-0.02354167,-0.00522177,-0.0165668,-0.128085807,0.00491685,0.02042603,-0.10974761,-0.0711536855,-0.0405017436,0.03199656,-0.02561875,0.09526713,0.06873858,0.0454879887,-0.01807025,0.08462245,-0.0425532,0.06938674,-0.13321011,0.03299742,-0.09255533,-0.10233834,0.02134872,-0.01145158,0.09133379,0.038127515,0.05579332,0.109140798,0.09536956,-0.02575691,-0.08385335,-0.03518666,-0.09372962,0.050735496,-0.00530621,0.0373556577,-0.06002795,0.01248899,0.03435747,0.02490159,0.06580553,-0.10429314,-0.08319302,-0.05076473,0.01596799,-0.0879710838,-0.06052876,-0.10726881,-0.10968743,-0.0723673329,-0.07417393,-0.07771663,-0.0350342,0.02219362,0.0406304,-0.03168309,-0.10125691,0.08250209,0.0080076,-0.04466087,-0.01846542,0.0177985728,-0.0199418794,-0.0534914732,-0.10851604,-0.15275916,-0.06178413,-0.06684873,-0.10625276,-0.07809662,-0.03505507,0.03576992,0.02808373,-0.10801406,-0.13676727,-0.0354667,-0.07130972,0.10448843,-0.12737224,0.11442683,-0.12319383,0.01884888,0.0801384,-0.10719092,0.02005083,-0.1535714,-0.01256712,0.00055534,0.05176296,-0.04753964,-0.04858512,0.101904362,-0.03437574,0.03608644,0.04967633,0.02187482,-0.110639714,0.06932656,-0.13661687,-0.00024910126,-0.03525542,0.139083892,0.01754096,0.08168409,-0.068578057,0.11872104,0.02821362,-0.04662504,-0.06092733,-0.04118001,-0.0998259,0.0618199,-0.04665616,-0.02727034,-0.0508649722,-0.08846311,-0.01139702,-0.0641553849,-0.0242421,0.0477078,0.02105874,-0.04123641,-0.09032819,-0.05769113,0.113385297,-0.03447749,-0.0829788074,0.06512818,-0.04188752,0.03043805,0.0463904,0.0391475484,-0.04536931,0.0365993,0.05888005,0.01114883,-0.00611747,-0.12960418,0.05429472,0.00592605,0.05311321,0.02325012,0.0277211778,-0.04636107,-0.1010071,0.02693377,0.0759589598,-0.079183884,-0.08361758,0.07486214,-0.00483531,-0.105338193,-0.10823589,-0.131465092,-0.0595495,-0.17808272,-0.08008499,0.03013923,-0.0426116586,-0.10608692,-0.05571127,-0.14078796,0.00988882,-0.14706846,-0.12781683,-0.03870202,-0.16921882,-0.0568045154,-0.1317127,-0.13334335,0.01962885,0.00840709,-0.01735251,-0.15038753,-0.06555424,0.06395382,-0.00353542739,-0.04848637,-0.10064024,0.04000713,-0.03573614,0.04278945,-0.06352367,-0.01227686,-0.0648715645,-0.18436559,0.00753294,-0.14471436,0.07240812,-0.00433038,0.09266371,0.01326415,0.00125446566,0.07753383,-0.00698217,0.0538695902,-0.05517614,-0.0854530111,0.03307477,0.10343101,0.02869023,0.01267115,-0.08736433,0.01435306,0.01588541,-0.05114083,0.06458137,-0.119343989,-0.06220751,-0.00930204,0.02175193,-0.0309152,0.05599262,-0.02593704,-0.03566631,-0.05549201,0.01577625,-0.00220376,-0.07151397,0.105600692,-0.06492817,-0.09814723,0.02207753,0.0192862879,0.07014927,0.04047629,0.111686729,0.05148244,0.03016889,0.01667909,0.01593869,0.11254133,-0.0153797,0.14830196,0.06773115,-0.00930446,-0.05840204,-0.0980388597,0.10727209,-0.0824771,-0.05470937,-0.06207449,-0.0831401199,0.04019856,-0.00838013,-0.08554894,-0.01917699,-0.02781846,0.10112654,0.0109298527},
{0.02546983,0.0941029564,-0.03046001,-0.06109483,0.0809876472,-0.0711342,-0.04475739,0.0139818359,0.0405317284,0.05494268,-0.00448811,0.00627058,-0.0025334,0.0846386626,0.02927822,0.0120866727,-0.1233193,0.01823762,0.02024686,-0.00325833,0.01792388,0.05054491,-0.11155985,-0.0781434,-0.02740089,0.08883074,-0.00797889,-0.08129674,-0.10948671,-0.0234459,0.06755427,-0.06326425,-0.03259677,-0.03845841,-0.11690919,0.02030477,0.07601608,0.00993595,0.00465263,-0.0126138,-0.0766103566,0.04097036,-0.080192871,-0.00840346,-0.08395981,0.1335181,0.0519556,-0.21537702,-0.04102935,0.03895196,0.0689766,-0.05823593,-0.03816048,0.05144243,-0.031079194,0.02702721,-0.12857793,-0.01415091,-0.148091644,0.0557486,0.02076401,-0.02969362,0.08428196,0.0163785,-0.00385676,-0.06478149,0.11343538,-0.11135273,0.114447609,0.03313395,-0.0327273,-0.0472062826,0.06579429,-0.03687017,0.00366904,-0.09063004,-0.00266566,0.20624755,0.10842218,0.05741178,-0.0764681,0.06145206,0.08223318,-0.00027703456,0.06349357,-0.05598227,0.16257495,-0.12296251,-0.03197776,0.0082846,0.09515454,0.06597003,0.10368502,-0.03782687,-0.00337653,0.16071409,0.0942019969,0.01532783,-0.05211579,-0.0211802,-0.00973071,0.02841495,-0.04890237,0.01483861,-0.04008536,-0.02094077,-0.00402663,0.0863742828,0.03469918,0.07761123,-0.0169384927,0.12522414,-0.05369033,-0.0222627,-0.00425001,-0.07089879,0.03618223,-0.11691297,-0.00554834,-0.027035851,0.15527394,-0.12739849,-0.07919729,-0.02994463,-0.03996854,0.05162637,-0.05958983,-0.0331821,-0.0259208493,-0.05127817,0.0877295,-0.03924173,0.03072506,0.03008784,-0.09083997,0.0005873,0.07877019,0.0451787487,-0.0122240949,0.0661500171,0.012832134,-0.0243319,0.0800948143,-0.1979225,0.13048558,0.10711648,0.00141469,-0.04121602,0.0985277295,-0.10908431,-0.02388744,-0.00120954,-0.12023164,0.0274589,-0.02415319,-0.03705872,-0.0288631,0.07009416,0.04290319,0.07869817,-0.0619423,0.1290671,0.10649905,-0.0395598523,0.054303579,-0.02927572,0.04283745,0.0776567906,0.02344514,0.0747529194,0.12654059,0.07816558,-0.04288136,0.00538941752,0.08194164,-0.04601649,-0.10019251,0.03153204,0.13419868,0.04298089,0.02334687,-0.10388581,0.04173034,-0.0355746,0.00585733075,-0.08229011,-0.05269394,0.14685965,0.06996983,0.10497597,0.15615287,0.05372307,-0.09309956,0.05929857,-0.09997689,0.05022098,0.0584031,-0.06849498,-0.05584271,-0.01974722,0.01334593,-0.0869677737,-0.07974933,-0.0201855153,0.04731982,0.04881422,-0.0456799,0.12821953,-0.04255059,-0.02397641,-0.12421018,-0.0207778476,0.02957204,-0.03952805,0.01287331,0.0150457,-0.09150239,-0.059207238,-0.05151395,0.02066692,-0.01660093,-0.10414166,-0.11896577,0.00668708,0.07365192,0.01257167,-0.0939618424,-0.04329458,-0.05423116,-0.04029565,0.04951268,0.00150434,0.05348704,-0.0950299,-0.08465081,0.02629743,-0.02070423,-0.01892832,0.02654327,0.12179274,0.00558296,-0.10985557,-0.0144736748,-0.07325468,0.08511032,-0.09065992,0.02259877,-0.00379016,-0.128655493,-0.0730159357,-0.02560811,0.04632402,-0.03462611,-0.10275785,0.03838711,0.03961248,-0.10971321,-0.0926653668,0.29548445,0.010510576,-0.09939604,-0.08751001,-0.11480551,0.0154699953,0.04758422,0.0073014991,0.05413792,0.07222601,-0.134017408,-0.09502658,0.00801046,-0.07772771,0.06641902,0.06089829,0.04809961,0.0705077872,-0.00622124,0.01687137,-0.07118643,0.02344697,-0.00736717274,-0.00243615895,-0.11576276,0.02199802,0.0181557573,0.05618418,0.04677338,-0.04276925,0.02831063,-0.106255926,0.0553985089,0.02178941,-0.0656113401,-0.01899409,-0.06191146,0.04327672,-0.06920234,-0.06626275,-0.07022286,-0.00371962809,-0.02607344,-0.08142855,0.02532664,-0.13136935,-0.0753555596,-0.09447021,-0.00498775,-0.1261115,0.07323804,0.02144995,-0.10730294,0.12826136,-0.09563346,-0.03652317,0.01384194,0.0237444,0.06897623,0.06187496,-0.10017157,0.00656272,-0.00963031501,0.18076378,0.01112695,-0.0561345145,0.0666788295,-0.042475298,0.0020793,0.08617955,-0.06988084,0.0781038404,0.00891774,0.07351733,0.03615437,-0.0811149925,-0.0213576443,0.16377132,-0.10811244,-0.02911413,-0.00022115,-0.000144492747,0.0738991,-0.04092641,-0.12425619,0.10181489,0.01887619,-0.01640919,0.04096482,0.05057003,0.0296272,0.0347751,0.11696727,-0.014659656,0.01233523,-0.149975136,0.05408108,-0.02322814,-0.04103645,-0.07918102,-0.0799678,0.0521585457,0.02599595,0.0128224622,0.0509433,-0.00083335,0.0940842,-0.0086428,-0.10623714,-0.09845012,0.07956571,-0.04514105,0.01830316,-0.0205229763,0.05884742,-0.10289283,0.00463687,-0.0624255091,0.08815122,0.11600944,0.1106202,0.00200103,0.04730978,-0.05997956,-0.05810424,-0.11119521,-0.04786732,-0.02567743,-0.02401504,-0.0731466711,-0.0960203931,0.00285452721,-0.10183909,-0.08078276,0.06716646,0.01596417,0.02248868,-0.1393649,0.03322215,-0.03438988,-0.01783999,0.05681202,-0.05412773,-0.01436958,-0.12689665,-0.02933847,-0.01463335,0.02339217,0.07220727,0.01833805,0.09591853,-0.05080387,0.03379925,0.11026093,-0.0005179,-0.08174385,0.05584235,-0.022573,0.03357052,0.167346016,-0.07656556,0.00633539,-0.13134491,0.06789684,-0.126027524,0.02417478,0.02389796,-0.053587243,0.05256045,0.163460433,-0.07586452,-0.02891125,-0.124680184,-0.02598237,-0.00982354,0.00443602,0.04997684,0.03726862,0.11015141,-0.07133208,-0.03804932,-0.11503712,0.0530080274,0.06151272,0.06809213,-0.0331887938,0.06107863,0.0650949,-0.03749134,0.00475121,0.09268185,-0.00874039,0.0819064826,-0.01587611,0.114835523,-0.0309255,-0.05984724,-0.04681182,0.01546645,0.0377758481,-0.10049736,-0.03812046,-0.0598191,0.00537182,0.05407614,0.05278811,0.10613333,-0.02917027,-0.09876373,-0.10144977,-0.0283201337,-0.04248172,-0.01204737,-0.11431634,0.0150565049,0.000142203819,-0.12193128,-0.06084904,0.07116946,0.0232465602,-0.07110739,-0.00641765958,0.02028948,0.00316794,-0.19963704,-0.06073071,-0.0799941942,-0.10850871,-0.02590429,-0.15250674,-0.03854841,-0.11375038,-0.1620467,-0.09857904,-0.01829414,-0.0231716111,-0.09869533,0.06013877,-0.05219656,-0.1204549,0.02909314,0.06421418,-0.10722684,0.02843473,-0.0443670265,-0.03692619,-0.00413307,0.06497299,-0.07062572,-0.02215875,-0.07244398,0.03043875,-0.0906417295,0.11428099,0.06610547,0.02511351,-0.01504134,0.01923885,-0.02177639,-0.11501464,0.12110889,-0.08166067,0.07324941,0.0189232677,0.10633136,0.00154858199,0.07906208,-0.05869719,0.03586157,-0.00449396,0.09654299,-0.02789641,-0.03609674,0.07187305,-0.02842806,0.00770878233,-0.08277236,0.10877983,0.01318749,0.05342639,0.08343528,-0.0415935,0.02955621,0.01704967,-0.04752041,-0.00174033,0.0470214,-0.0146830138,0.10589526,0.00061147,0.06798977,-0.000548179145,0.13050054,0.09573176,-0.0144319944,-0.03515679,0.075096,-0.01679123,-0.10347695,0.0626178,0.07529278,0.08094595,0.13160324,0.02325148,-0.09508144,-0.0577814691,0.00256722,0.03894175,-0.00765877,-0.04589256,-0.0554202572,-0.062451,0.01934718,0.00874971,-0.06222368,0.15069401,0.00477472,-0.0562130697},
{-0.02245877,0.136052057,-0.00744486,-0.06488646,-0.0403707065,-0.08413752,-0.03962187,-0.090580225,-0.0175788738,0.02735206,-0.0391442,0.03061924,-0.07898077,-0.0299328249,0.03804618,-0.00520679867,0.05210392,0.06422434,0.00806645,-0.0668968,-0.11024807,-0.05977156,0.05121054,-0.09486878,0.04865545,0.04376687,0.00434518,0.00053757,-0.07675534,0.03276404,0.04227388,-0.04950492,-0.10489285,0.16424395,-0.04160022,0.0609673,-0.04089374,-0.07160393,0.02691068,-0.0018308,-0.131328672,0.00282458,-0.073712878,-0.07131674,-0.06804921,-0.01034294,-0.01410629,0.00227016,-0.09634309,0.03980643,-0.05905897,-0.05268592,-0.0335207,-0.07407266,-0.094763726,0.06617733,0.05635352,0.09324757,0.00124514964,-0.11343619,0.01232373,-0.07551779,0.07831449,-0.02234047,-0.04447166,0.04480372,0.0786475614,-0.04144646,-0.0515666232,0.11541849,0.021525,0.0694064647,-0.03085129,0.11288197,-0.06387922,-0.00874814,-0.06610452,0.00565075,-0.02538994,-0.07052404,-0.03083017,-0.10601493,0.08235874,-0.0418520197,0.07756171,0.04341956,0.02371752,-0.10602,-0.09708053,-0.04283699,-0.02762715,-0.06765481,-0.03713565,0.02990964,-0.03044385,0.05989025,0.0557303466,0.00444806,-0.04276129,-0.0359508,0.00338382,0.0188455,-0.01740595,-0.03976372,-0.06080579,0.03329914,-0.04346858,-0.0233570728,0.0295808,-0.03221287,-0.0130479671,0.11453213,-0.0748921,-0.07586619,0.04105077,-0.04004159,-0.09834562,-0.07524071,-0.11729091,-0.0756649226,-0.06456389,-0.08976511,-0.15311715,-0.08013413,-0.04325651,-0.04382889,0.07487162,-0.20557365,-0.00522973156,-0.03941311,-0.04363685,-0.04691425,-0.06892357,0.02940803,0.06212997,-0.07906208,0.02737206,-0.166985452,-0.102491431,-0.0880341008,-0.117382683,-0.0775225,-0.0250763725,-0.03256051,0.06517654,0.01850528,0.03670111,-0.00535118,-0.0523653254,-0.00717708,0.08695228,-0.07980171,-0.06409056,-0.01637893,0.06228301,-0.04889742,0.05607282,-0.05145941,0.06826064,-0.08829382,-0.08137806,-0.01690352,0.04662598,-0.101815715,0.023758665,-0.06176956,-0.00891608,-0.0733001158,0.07425235,0.033163175,-0.0586946,-0.03932302,0.0598889,0.102286428,-0.09267482,-0.0653934,-0.08196424,0.00808919,-0.1653233,0.04948497,-0.09874332,-0.03029739,-0.04318875,-0.1141386,0.0232854038,0.003904,0.02402479,0.04354416,-0.07374281,-0.09047338,-0.06802171,-0.06812067,-0.02897972,0.04962341,-0.10808552,0.05708527,-0.07636007,-0.00699085,-0.09652695,-0.15674008,-0.08551724,0.05520669,-0.00298056,-0.0989232957,-0.10837512,-0.0482985,0.07864228,-0.0887959078,-0.10149086,-0.02784805,-0.04417704,-0.0130781224,-0.06839269,0.05843178,0.05822087,-0.0071136,-0.09683195,0.0030642122,-0.04148734,0.04498988,0.04710552,0.02742898,-0.00570338,-0.05710797,0.06749941,-0.14426942,-0.010844891,-0.06524893,0.06507047,0.0678779,-0.02801282,-0.1388123,-0.07720281,0.05191968,-0.05468411,0.02135627,0.0029859,-0.04156875,-0.06400173,0.00675571,-0.09631962,0.06889862,0.0585374199,-0.04685093,0.00478074,0.03113497,0.05164073,-0.1225504,0.00343902712,0.0685671642,-0.11010615,-0.1992679,0.02148865,-0.03680855,0.0158495,-0.05626306,-0.03009091,0.207912669,-0.01253854,0.00497241132,-0.01623679,-0.0856567,-0.0173461,0.074853614,-0.03687174,0.054629799,0.02414925,0.03290832,-0.0807030797,0.01744516,0.07173923,-0.00881976,-0.02857846,-0.05957104,0.03901757,-0.114068836,-0.07135733,0.02571298,-0.05005176,-0.06444346,0.0660771132,0.0360788368,-0.10555387,-0.07839104,-0.0733473971,0.05128392,-0.04835439,-0.07296887,-0.0134311,-0.0435119718,-0.0934687629,0.02334901,-0.0515495613,-0.08736783,-0.10981569,-0.12485559,-0.07338589,-0.09186283,-0.0435315,-0.0977254286,-0.10610813,-0.0497838,-0.11740498,-0.07779942,-0.108472392,-0.06846984,-0.04567279,0.04195593,-0.00889658,-0.05048416,-0.13292947,-0.12851296,-0.02808093,-0.03721248,0.04668909,0.03258347,-0.04734528,-0.0962195,-0.10444445,-0.1647119,-0.031555105,-0.17669335,0.01290746,-0.0879374668,-0.0458039828,0.0228652563,-0.00146923,-0.0839646,-0.06071686,0.0705722198,0.03365195,0.02574922,0.03956376,-0.0368843153,-0.0640535057,-0.12516178,-0.00079874,-0.11199223,0.0220685,0.0786107257,-0.04810509,-0.07669014,-0.03254414,-0.09754398,0.01234858,-0.0441993,-0.02916905,0.054827,0.02302873,-0.01593019,0.03821668,-0.016321365,0.02401465,0.0949593931,0.12521029,-0.03105077,0.04228807,-0.01093983,0.03487331,-0.0640133843,0.0595198,0.0145791844,0.08706637,0.13214974,0.04302748,0.02253449,-0.02319821,0.10855144,-0.07319323,-0.14088531,-0.03005183,-0.0199730117,0.02770691,-0.07483358,-0.0132729,-0.132399216,0.04271641,0.01661013,-0.07152245,-0.04198867,-0.00976422,-0.07321113,-0.04727907,-0.03797477,0.04067893,-0.12535766,0.06600558,0.0846493915,-0.0164758079,0.00928239617,0.03547478,0.02647148,-0.04800138,-0.01069591,-0.10681777,0.02605253,0.02455057,-0.09508409,-0.09063305,0.08168372,0.02985554,-0.05500581,0.0700802,-0.0453283,0.04872062,-0.10880832,-0.08723178,0.01209517,0.07034737,-0.01364379,0.00834835,-0.03496416,0.00766153,-0.05432398,-0.06225539,-0.00962716,-0.09919272,0.07949581,0.06040316,-0.01361563,-0.07749676,-0.051998,0.0842543915,0.03663914,-0.08430857,8.9364994e-06,0.03471809,0.0412784442,0.02024742,0.07878508,0.0524928123,-0.05151639,-0.04315301,0.04496929,-0.04396009,-0.06502625,-0.07605063,-0.05423734,-0.06216305,-0.03536231,-0.0529234223,-0.09875835,-0.0610736,-0.0628707185,0.07659321,-0.07753394,-0.03086068,0.11760469,-0.01400996,-0.00034877,0.00401266664,-0.0296785,0.046481844,0.02787671,-0.06782231,-0.04012438,-0.0484,0.0568612479,0.0222509,0.10839414,0.00433628,0.05704262,-0.01608398,-0.05037273,0.00930813,-0.08137591,-0.00420687,0.06286964,0.00935543422,0.06565216,-0.06799189,0.04325658,0.00421944493,7.49256433e-05,-0.10424415,0.05052954,0.05649069,0.048245091,0.01069812,0.0157899745,0.01617771,0.06143559,0.05019295,0.00807915,0.0193599109,0.02667727,0.02757522,0.12963714,-0.02153756,0.02007535,0.01447291,0.03812584,0.04295632,-0.0320004225,0.0152347,0.04781453,0.02139294,0.09911601,-0.04669936,0.07709279,0.00130431,0.00975747,-0.020440178,0.11427109,0.06659387,0.08212006,0.07940733,-0.10411958,-0.06668562,-0.09330907,-0.0945620537,0.04671565,-0.02646376,0.1353937,0.00926813,-0.01499309,0.00959044,0.08806166,-0.0684487149,0.09398204,0.09333779,-0.0925468057,0.05492688,-0.00223994232,0.00082381,-0.04403611,0.07564937,-0.01915093,0.05785075,0.02229859,-0.03627487,-0.04772833,0.03713457,0.0313460343,-0.00472173,-0.09540472,0.02744681,-0.09715927,-0.09299164,0.02779075,-0.00168538,-0.03633777,0.00415578,0.01743202,0.02899726,-0.108283266,-0.01858545,0.0165429,-0.10359392,-0.0520130396,0.03719479,-0.08456613,0.0823058411,0.07896408,0.06637211,-0.00347905,-0.05443059,-0.10895794,0.03977105,0.01515694,0.03207606,-0.07613412,-0.04112393,-0.0131911198,0.06856328,0.06384879,0.05163826,-0.06039126,0.0353940427,-0.02736468,0.04722781,0.06356635,0.07757848,0.02032848,-0.02811665,-0.071531713},
{-0.0016465,0.0955117047,-0.05312955,-0.05595569,0.0487532243,-0.0839185,0.08290473,0.0530905537,-0.00640936382,-0.022727,0.09265629,-0.09293243,0.04938114,-0.102090418,0.08045761,-0.0790180713,0.03990854,-0.00546634,0.03684369,0.00057619,0.07096548,-0.07455368,0.00743779,-0.0114395,0.00356539,-0.07559089,0.0088237,-0.1401863,-0.04650246,0.04999039,0.04010263,-0.02587378,0.00662002,0.14662145,-0.09772699,-0.0222522,0.05295794,-0.0003241,-0.0173812,-0.03957665,0.0309576504,-0.02612862,-0.019623075,-0.06784061,0.02032647,0.00551815,-0.00791219,-0.10450448,-0.02873545,-0.04033679,-0.00818169,-0.05152177,0.07649204,0.05940121,0.029270176,-0.02402116,0.00049141,-0.0172506,-0.0754002929,-0.0267304,-0.0221183,-0.03739899,-0.00816335,-0.04179683,-0.02594957,0.07501227,0.00262205489,0.10511581,-0.109937504,0.10892691,0.08979433,-0.0808343589,0.06923106,0.02723331,-0.09239762,-0.0942276,-0.05209922,0.05703922,0.0302239,-0.08153313,0.07718173,0.12746921,-0.00385767,0.0476158559,0.09021088,0.13087603,0.06938858,0.13806316,0.13253342,-0.01201867,0.08643018,0.04769919,-0.01837819,0.00767654,0.02833415,0.11492577,0.0724726468,-0.06197085,0.03445797,-0.03145708,0.07286186,0.00622425,-0.03519956,-0.07749913,-0.11439849,0.20566791,-0.05455134,-0.154753447,0.1056564,-0.04278898,-0.0678380057,0.22182724,0.03560463,-0.02029724,-0.06769994,-0.02847686,-0.03370811,0.04921093,-0.00153897,-0.055765938,0.00369709,0.08225403,0.00195193,0.03155256,-0.07228459,0.03125075,0.04635646,0.13793999,-0.0307375155,-0.03479933,-0.03604214,-0.00765766,-0.08597154,-0.03731582,0.00660841,-0.10560624,-0.09994971,-0.0183728188,-0.0192495938,-0.118732683,0.0292759165,0.0043618,-0.0697828829,-0.08388443,-0.12752143,-0.10025806,-0.08282628,-0.0256083,0.0343038775,0.06703673,0.01729968,-0.110274,0.05263551,-0.04342192,-0.0924544,-0.00318159,0.02771771,-0.01564891,0.00391969,-0.04140666,0.00693349,-0.05270854,-0.1052709,-0.0791359469,-0.076539315,-0.06290068,-0.04477499,-0.087800473,-0.05013471,-0.00264869095,-0.10322747,0.01761172,-0.03471845,-0.0833106488,-0.04558525,-0.02271361,0.0181487,0.02056634,0.07630278,-0.07723513,0.0048711,-0.05809099,-0.011543,-0.0490193,0.0528266765,0.02914346,-0.04720335,0.03171459,0.0484478,0.08161794,-0.02512063,-0.01441452,-0.04548529,0.09326988,0.01876263,0.04673543,-0.07607789,0.01229182,-0.04966151,-0.04851305,-0.11643048,0.0406446084,0.01487381,-0.135049507,0.00611861,0.02777739,-0.02505543,0.189959377,-0.03566382,0.1276068,0.05950558,0.0101636508,-0.07901575,-0.10445419,0.04755287,0.01832391,-0.04458817,-0.092958838,-0.07949644,-0.02829327,-0.11836352,-0.00867209,-0.02458841,-0.00466094,0.01696996,0.05105574,0.0564304516,-0.05724002,-0.08774942,-0.00317455,-0.02050651,0.05414308,-0.10660896,-0.00019801,-0.09816378,0.01445437,-0.00264993,-0.0721974,-0.07739341,-0.0687121,0.11576424,0.02137059,-0.0492067114,-0.02458876,-0.01667554,-0.06646267,0.02618037,0.11742157,0.0974235833,0.0317471027,0.06955781,-0.01179229,0.01652322,0.00500339,-0.07256021,-0.06969081,-0.09110246,-0.0544256642,-0.0216614,-0.0643355101,0.09539709,-0.02857157,0.05892759,0.0706141219,0.00479468,-0.078510612,0.02860924,-0.03048592,-0.0359286591,-0.0123361,0.06327428,-0.02661056,-0.00224208,0.0728839,0.06477121,-0.0825772658,0.10403368,-0.08087778,0.01233,-0.12142169,0.0757357031,0.0686331242,-0.00922616,-0.10576265,0.00776117435,-0.06972459,0.02828114,0.01956512,0.05514991,0.099663794,-0.0185975898,0.15471266,-0.0290835705,-0.06774673,0.03552448,0.11083858,-0.05465357,-0.08021706,0.03900806,0.0368190035,-0.08133686,0.05007481,-0.0142671,0.1417736,0.0717344135,-0.04431595,-0.00559858,0.08919229,-0.07649913,0.05455189,0.02045642,0.07997604,-0.09240503,-0.07741896,-0.05536247,0.04343384,0.06841092,0.07478368,0.02587094,-0.03889487,0.047315713,0.12262715,-0.10432047,0.097346127,0.0894302055,-0.0393568352,0.08603766,0.05016823,-0.01401901,-0.0200108867,-0.05178433,-0.00534151,-0.03203951,-0.0401254445,-0.0829748735,0.11064117,0.02151495,0.1828325,-0.03997865,0.00515130628,-0.00846883,-0.08328321,0.10546955,-0.02734048,0.00645598,0.03425462,-0.03099673,-0.06400797,-0.09083255,0.06561887,0.04614888,0.12807226,-0.017533,0.160182238,0.04630821,0.05110886,0.01517247,-0.09258121,-0.06118359,0.00282603456,-0.04080701,0.0719818994,-0.06719659,-0.11260685,-0.09264798,-0.08659289,0.03971196,0.08696841,0.02499449,0.06239945,-0.08818148,-0.106088549,0.04416218,0.03709145,-0.10109215,-0.0528366789,-0.06628998,0.05988053,-0.11364163,0.08306156,0.08559137,-0.00090865,-0.01107482,-0.0567964,0.00496058,-0.09026283,0.07984418,0.111104563,-0.106198795,0.134765983,0.02601507,0.01756188,-0.03413888,0.08419218,-0.01437097,0.08889111,-0.10254043,0.00040051,0.01406441,0.04189079,0.04732277,0.12294248,-0.06766348,0.03126828,0.06067195,-0.06577773,0.07385776,-0.1061541,-0.09222405,-0.03859944,-0.0704873,-0.05378992,-0.06294499,-0.080153,0.0579454,0.10419325,0.09745947,0.140242845,-0.09035774,0.06826384,-0.03479921,-0.00053329,-0.0304561462,0.02190336,0.05259328,0.054057963,-0.13185313,-0.144882619,-0.05334621,0.06060215,-0.0500802509,0.09833955,-0.07686827,0.12162289,-0.0484405,-0.02937721,0.04856276,0.06255513,-0.02837187,0.05370016,-0.0923114941,-0.04813766,-0.04346713,0.0383074246,-0.07272697,0.072978,-0.01196459,0.12425911,-0.07409599,-0.08331537,-0.00795074645,-0.12859374,0.0589642748,-0.04440851,0.04759968,-0.06803223,-0.11217903,-0.0238320343,0.02280539,0.00520859,-0.04380842,-0.03869527,-0.0845615,0.05811415,-0.01623158,-0.03011028,0.00411653,-0.09990281,-0.0392003618,0.07984531,-0.00729446,-0.02774754,0.0334921926,0.0183269437,-0.03202469,-0.00423138,-0.11609973,0.0219441615,0.00770214,-0.0447782427,0.0934559,-0.07030228,0.09505859,0.01093631,-0.048825372,0.11612358,0.06894838,0.02304833,-0.04452978,0.07665037,0.01398044,0.13399175,-0.00181656,0.0332519561,0.04418976,0.03392614,0.03347735,0.01727362,-0.02023846,0.07249779,0.06386862,0.04168414,0.108447574,-0.03164828,-0.02370402,0.00424845,-0.03907116,0.05899854,0.03794945,0.02269192,0.0886614993,0.21375695,0.07298397,0.0170132,0.02933034,-0.11977931,-0.02273521,0.03898783,-0.0442794785,-0.10118312,-0.08051597,0.00609147782,-0.07015189,0.0657975599,-0.07680323,-0.08782871,-0.07252081,0.09444608,0.07183062,-0.06881221,0.09613631,-0.11981583,-0.09759087,-0.0495276079,0.00217668,0.03854627,0.00768789,0.05316315,-0.00385873,-0.10466769,-0.05130238,0.05220912,0.04353479,-0.15660764,-0.09890393,-0.0463122688,0.11429,-0.10226292,0.0606215,0.040335007,-0.05288291,0.024049,0.104814515,0.05977373,0.07213967,0.04544523,0.08793794,0.03875525,-0.08887447,0.06016787,-0.02960424,0.06843163,-0.04290623,-0.0613790937,0.03957781,-0.04102335,0.0158795,0.05394863,-0.0108086597,0.03440092,-0.02338373,-0.07227096,0.01574037,-0.05630386,0.09868952,-0.0795538276},
{-0.04020723,-0.000670780544,0.0775236,0.01475952,0.0451677181,0.04685286,0.09194208,-0.0618350543,-0.00704774307,-0.02006977,0.02717517,-0.0247052,-0.02944489,0.0624391586,0.0532503,-0.0688172355,-0.16550772,-0.05317247,-0.02730173,-0.06929969,0.01926248,0.05865253,-0.06711177,0.06409772,-0.04784365,0.09456656,-0.03327885,0.01884414,-0.00942288,-0.03548303,0.0624368,0.05715371,-0.05409428,-0.00818766,-0.02564825,0.08486214,-0.03389721,-0.09705877,-0.04952796,0.00594977,0.0516412891,-0.02321753,-0.14289302,-0.07643171,-0.01758072,-0.07223524,0.05423284,-0.02567552,-0.1030457,0.08343646,0.0059303,-0.05123767,0.01940038,0.00602447,-0.048382744,0.04452703,-0.09638339,0.05616478,0.0596227571,-0.08354894,0.04763647,-0.07249721,0.08590131,0.05905065,-0.05025395,-0.03659002,0.0629490241,0.0016779,-0.0349714756,-0.07875522,0.04634229,-0.0109021869,-0.1422511,-0.10260963,0.04337227,0.02857403,0.05436977,0.05413185,-0.01014641,0.05094153,-0.11663827,0.00053511,-0.08341911,-0.0882130414,-0.05385411,-0.10161894,-0.11788991,-0.02013537,0.00204526,-0.11689629,-0.08972928,-0.15095493,-0.08467053,0.05974715,-0.09025982,-0.04143462,0.0532855652,-0.02459858,-0.067507,0.04666137,-0.1333771,-0.09409335,0.06166727,0.08535866,-0.04631635,-0.04881557,-0.06159718,-0.0162233841,0.04861415,0.05029946,0.0260186046,0.02093277,0.09603689,0.07359118,0.06992826,0.0301561,-0.0652357,-0.00894174,0.07507863,-0.0242474396,0.09848396,0.07555874,0.02795685,-0.02435778,0.02948595,-0.02918101,-0.061679,0.04323051,-0.0100621385,0.03919568,-0.04789641,-0.0273852,-0.03598373,0.03034191,0.09105314,-0.13187926,0.08799989,0.0881152526,0.0574307032,-0.0824730173,-0.0772935152,-0.08175258,0.0117161386,-0.02435844,0.00123492,-0.03866763,-0.07142406,-0.10089058,-0.0693258196,0.00391255,-0.08904026,0.00094365,0.0570817,-0.0716636,-0.0454841,0.04926435,0.05074208,0.05525479,-0.06681203,0.13008124,0.03056071,-0.00301617,-0.01677842,-0.0105394963,-0.0092823124,-0.05953882,0.03744387,-0.0183986984,0.00206458,0.0701761693,-0.0533275,0.08427968,0.06530334,-0.0360372253,0.06213943,0.00431029,-0.11096657,0.05571411,-0.06441143,-0.05235556,-0.05930258,-0.12912743,-0.15333746,0.03234877,-0.0229375083,-0.00198946,-0.01087912,-0.10444172,-0.05411716,-0.0312452,-0.03221755,0.04599717,0.02736451,0.03842313,-0.05883368,0.08541812,-0.03013901,0.0832516,0.07297961,-0.05498806,0.08746325,0.0628895611,0.02361823,0.05558322,-0.08817495,0.01075949,-0.03509525,0.0493981577,0.02197247,0.05999726,-0.0944323,0.0442532972,0.08043277,0.02882576,0.1099309,-0.01104419,0.04363805,-0.0020794845,0.00538284,0.03026956,-0.00346952,-0.03423351,0.00883273,0.05659111,0.07289436,-0.00191106,0.0487843081,0.02520309,0.10875466,0.0343193,0.00915256,-0.06168109,0.02586911,-0.09327358,0.01767848,-0.05072697,0.02305357,-0.01014388,-0.08053456,0.09027906,0.14071465,-0.02321037,-0.0114450585,0.06452361,-0.06674843,-0.08057528,-0.08226245,-0.14745739,-0.0323379263,0.0230887998,0.06643379,0.01097065,0.00104239,-0.00389219,0.00701397,-0.07413393,-0.03608881,0.103522673,-0.04506647,-0.0489936024,-0.02597644,-0.0831499,-0.02334244,-0.00485104509,-0.08765621,0.072678477,0.05934061,-0.09707925,-0.0139805023,-0.10736421,-0.07424515,0.08803755,0.02681091,-0.14778201,-0.076286,-0.0183870997,-0.06112977,-0.01440816,-0.10441595,-0.08276679,-0.00898346584,0.0237366855,-0.09566761,-0.09931421,-0.0720004737,0.05799754,0.04099777,-0.027954,0.03899926,0.0545445792,-0.0286667962,-0.06394817,0.0418648198,0.02507796,-0.04329319,-0.14985123,0.06878328,0.05746606,0.05735905,-0.0314496383,-0.0647393,0.02731553,0.01173197,0.15500604,0.0387631916,0.24717812,-0.06615417,0.07351565,0.01861959,0.09508194,-0.11047617,-0.05545508,0.06709088,0.0019423,-0.0668404,0.00295089,0.02301441,0.02092762,-0.05198505,0.19735043,0.00759430369,0.09924749,0.03559537,-0.0609241724,-0.0794847682,-0.0649097934,0.05662296,-0.02101813,-0.07348085,-0.127134204,-0.05143873,-0.13555022,-0.07863609,-0.0868896097,-0.0648130029,0.00794601,0.00197814,-0.07498696,-0.03984773,0.00599432644,0.1110516,0.08535387,-0.04059157,0.08747336,-0.11392348,-0.13047324,0.01856971,0.03602631,-0.07206306,0.10708406,-0.07237906,-0.10664375,-0.12119661,-0.0684736967,-0.0407444,0.06831851,0.03212604,-0.04004676,-0.02209377,0.0930315778,0.01500525,-0.0204779617,-0.0147555,0.06079192,-0.0123337,0.02254802,-0.06382118,-0.01821337,-0.04232817,0.05978668,-0.06806409,-0.162981734,0.01527034,-0.0764828,-0.003761,-0.0437999219,-0.04282907,-0.05338553,0.01405865,0.04437985,-0.06753443,-0.00165893,-0.09877876,0.00638022,0.01747791,-0.04806717,0.01280559,0.0408081673,-0.0390737876,-0.0188219156,-0.11726358,-0.05162287,-0.11510949,0.02265265,-0.04206372,-0.03601871,-0.03778007,-0.05058704,-0.00198392,-0.039614,0.03620711,0.03100754,-0.18014926,-0.05846284,-0.08442099,-0.10613576,0.06667905,-0.00738213,-0.06978452,-0.02694095,-0.07659927,-0.1678492,-0.09747728,-0.02001316,-0.01406997,0.01814218,-0.0592241,0.229755983,-0.07207119,0.0292006,0.05645117,-0.02900148,0.101616986,0.01236461,-0.00160657,0.025678847,-0.05430333,-0.145961165,-0.02251834,0.06791323,0.1325697,0.04032267,-0.08416082,0.09146176,0.20534909,-0.01676514,0.00699749,-0.04475696,0.03068987,0.02819393,-0.039187666,-0.09508457,-0.01764248,0.107230932,-0.07055851,-0.0116142,0.07291444,-0.09121416,0.01425756,-0.00728144,-0.0695307627,0.02954396,0.0133756455,-0.02375335,-0.00386547,-0.10033452,0.09780421,-0.0736387074,-0.03150265,0.10058212,0.06844178,-0.01084898,-0.07510636,-0.09333317,0.05466038,-0.07602096,-0.09995233,-0.0444935,0.0748613849,-0.09090858,-0.0151656,-0.13728093,-0.0903141052,-0.0432112888,0.00017344,-0.06090702,0.0144885,-0.114252783,-0.09670396,0.0470003039,-0.03068572,-0.01084224,0.0314181,0.02494044,-0.00659286045,-0.08786429,-0.11642997,-0.02064942,-0.0436115,0.04889414,-0.03777929,-0.06382431,0.04587217,0.0384914316,-0.02325716,-0.05251944,0.03237353,0.02186971,-0.10439678,0.01813521,-0.1326231,-0.04656321,-0.0624444373,0.16813228,-0.00631009,-0.02288285,-0.07020503,-0.05943723,-0.1093799,-0.02571766,0.00607918343,0.09123971,-0.03589185,-0.06717505,0.06939183,-0.07524788,0.02839409,-0.01615691,-0.00784041919,0.01369838,-0.03064614,-0.0625787824,-0.10258795,-0.123102084,-0.01349011,-0.05235739,-0.06909216,-0.0825646,0.04868034,-0.01207396,-0.03398612,-0.06404519,-0.00684385,-0.0547329038,-0.03047364,0.07446712,0.01274721,0.01056194,-0.03608136,0.00076574,0.03259459,-0.05553262,0.01770474,-0.13484392,0.11356435,-0.0421144478,0.04324732,0.03009493,-0.03602499,-0.0840421841,0.04771888,-0.01019409,0.0183151215,0.05082538,0.05545697,0.12886214,0.1082311,0.01401466,-0.02549792,-0.02228065,-0.13538155,0.05166101,-0.11511225,0.0198598579,-0.05278518,-0.01237305,-0.11419597,0.12840033,0.0271582082,0.02483297,-0.06048068,0.12115072,0.01652085,-0.10065997,0.01013739,0.0213962514},
{0.08780117,-0.0317604095,0.06144767,0.05253976,0.0405936502,0.12115768,-0.05873074,0.0409536399,0.00352590252,-0.01481828,0.1470663,0.09520715,0.0309083,0.126687273,0.00427433,0.032111723,-0.05232694,-0.00661411,-0.05178614,-0.02482727,0.03190013,0.08686942,0.11952214,0.06523412,0.06354451,0.11196803,0.08535466,0.11140846,0.00201479,0.07881258,0.0381701,-0.16377532,0.11551889,0.02633961,-0.0532339,-0.02047105,0.09651384,0.06144485,0.05512137,0.07258172,0.248842955,0.02703738,-0.010842228,0.06898483,0.10692848,0.02736934,0.0741918,-0.03188165,0.06378859,-0.0525867,0.04491884,0.0867075,-0.06162885,0.0992108,-0.096812017,-0.01648377,0.0285365,0.06477971,-0.116048753,0.23364583,-0.09960946,-0.04089382,-0.0361584,0.12787937,0.08616145,0.01813625,-0.0355420597,-0.00939119,0.00764257554,-0.04954961,-0.02157231,0.0119828656,0.07048741,-0.04070632,-0.05225747,0.20624605,-0.01555547,0.06657246,-0.04590863,0.09796423,0.14688578,-0.05710271,0.00607699,0.195809573,0.00391213,0.07725526,0.0229332,-0.03980731,-0.07825604,0.04936818,0.04250711,0.05755305,0.07784217,-0.11119556,-0.0773019,-0.10695561,0.0583295636,0.05162148,0.01893242,0.03602298,0.11006593,-0.04633927,0.09157337,0.05413021,0.00920825,0.01852174,0.12903681,-0.0197055396,0.16891295,0.07526436,0.0860198662,0.12286194,-0.03032674,0.19246262,0.0757693,0.02356172,-0.02099513,-0.03456971,-0.0966496,0.0993589088,0.00184261,-0.02574718,-0.03491775,-0.0784438,0.12629351,0.05784567,0.17201702,0.02049458,0.0724094436,-0.05580449,0.15676372,-0.0374883,-0.00065545,0.05030993,-0.02355017,0.1955488,-0.02152889,0.0440700874,0.0960564166,0.134363979,0.0772248432,-0.10011985,0.105170667,0.2715066,0.12546752,-0.03613532,-0.0260028,0.05454987,0.0252286531,-0.10649528,-0.09825478,-0.02783612,0.05752824,-0.13544165,-0.05093359,0.0128299,0.19218497,-0.07916688,-0.08553915,0.19734101,0.2323467,0.0047704,-0.08024845,0.00266935304,0.0395247,0.02035935,0.09207068,-0.130610809,0.09316419,-0.000224409829,-0.12951936,0.02236081,0.17596586,-0.0206379499,-0.02379751,0.18179934,0.14314003,0.06693726,-0.07800886,-0.04128072,0.01951979,0.06752773,0.13117978,0.04401058,0.0328076109,-0.03539082,-0.03083629,-0.17147297,0.0241498,-0.02723365,-0.00355322,0.11650354,-0.04733903,-0.04503503,-0.0883844,0.04875004,0.03314159,-0.03462107,0.03405483,0.02101318,0.06249519,0.17750372,-0.0654259,-0.0757182166,0.12830082,-0.09831338,-0.00161255,-0.148301914,0.12515725,0.05570186,-0.00725197,-0.0434062034,-0.048358,0.07628736,-0.03534056,0.06410635,0.12579206,0.015801122,-0.03379969,0.01767632,-0.05567845,-0.03983119,-0.09033405,-0.14799452,-0.05747555,0.0732659,-0.0271840598,0.04893328,0.0261144,0.05156054,0.02938243,0.20734589,0.02041192,0.03273184,-0.00604618,-0.09430676,0.08222307,-0.02990968,0.06622616,0.08767584,0.13505062,0.08625536,-0.129744515,-0.01956055,-0.09662544,-0.10471549,-0.02709104,-0.05035105,-0.1285301,-0.00668124948,-0.11265928,-0.18105653,0.09530366,-0.05376038,0.00284419,0.11477578,0.12518056,0.112829521,-0.09004731,0.00957281608,0.03670721,0.04151966,0.01404972,-0.0434651189,0.08072204,-0.092362866,-0.09653037,-0.13953117,-0.0668864399,-0.07991784,0.06357033,-0.0376174,-0.11096749,0.17009501,0.09498243,-0.11168357,-0.04052891,-0.08079497,0.11205973,-0.00099348,-0.12225455,-0.050422214,0.17782985,-0.12407152,0.0909765884,-0.01929718,-0.0392167,0.05202651,-0.10549188,-0.124958195,0.0266655851,-0.05977849,-0.0386499092,-0.04218691,-0.04557003,0.07612368,0.07193604,0.03887007,-0.00831993,-0.0642653704,0.03155727,0.04240637,-0.07807012,-0.253326,-0.0451874696,-0.09801302,-0.06038008,0.05017675,-0.00772913,-0.03019802,0.07408691,0.15529639,0.07299512,0.00711499,-0.04297429,0.03721419,-0.03077725,0.00699332,-0.00602049,-0.09240218,-0.0120310439,-0.1276449,0.01818829,0.0153387235,-0.0171918646,-0.00853819866,-0.03342459,0.09091225,0.06736884,0.0689596236,0.09875777,0.02040389,-0.047297,0.0124592623,-0.00510561047,-0.03036577,0.03457934,-0.05184432,-0.07398573,0.0264110882,0.09535083,0.05315458,0.02178051,0.02634659,-0.02474293,0.09279964,0.10666177,-0.05152654,-0.00768498,-0.04906284,-0.09323563,0.034892384,-0.04257467,0.164353326,0.02765374,-0.01941961,-0.09733146,0.0882374,-0.0213646,0.124085039,-0.05626,0.0197314434,0.04647636,-0.06602005,0.01820022,0.11870226,-0.07310943,0.0044168,0.02678039,0.04441847,0.16251723,-0.0195214897,-0.11352258,0.01213694,-0.00499709,0.0973257944,0.00878513,-0.04628563,0.13450359,-0.07167269,0.08502735,0.03813836,-0.04077491,-0.0562232,0.02292994,-0.05378432,0.04234518,0.0339766219,-0.106626429,-0.0695192814,0.02103468,0.14397387,0.03423481,-0.06099144,0.03732438,-0.074327,-0.01049388,0.03915877,0.03041408,0.07048479,0.08467171,-0.06337191,0.02725958,0.04680663,-0.0584426,-0.00867219,0.10536917,-0.0182046,0.1046524,0.01977707,0.09485233,0.09574098,0.07839806,0.09251014,-0.05536687,0.01362941,0.0788333,-0.0441151112,0.08076927,0.04727711,0.08249804,-0.0736396,-0.04475924,-0.10166414,0.05114377,-0.091104612,0.04402799,0.103122167,0.0815891,-0.04015122,0.100856267,-0.03014587,-0.00535774,0.10292094,0.00983354,0.08786189,-0.05935538,-0.0057039,0.05290432,0.08853607,0.00936388504,0.03488071,-0.0440939,-0.0857741982,-0.12215656,0.04208121,-0.04950158,-0.04269348,-0.10913815,0.12617569,0.0534656867,0.07160926,0.0364356413,0.04473098,-0.03036359,0.15980661,0.00379032,-0.0143679501,-0.03223433,0.01623354,-0.04958906,-0.00766483,0.02013408,-0.06214583,-0.00573997,0.03900087,0.04513406,0.14168663,-0.0218367111,-0.02741072,0.09247584,0.15617977,-0.000641304709,0.106551826,0.01389351,-0.05251058,-0.06295758,0.108880989,0.05227815,0.0163383447,0.04175876,-0.01478994,0.06503998,0.13836889,0.0115976213,0.07712483,0.07029986,0.05086912,0.09253796,0.09707066,-0.01070123,0.10624496,-0.05059347,0.039542526,0.01479851,0.05757979,-0.08680495,0.07671919,0.08953348,-0.051595,0.11492765,0.00168828,0.0454366207,-0.05112767,0.01237441,0.08559661,-0.04314995,-0.07935568,-0.04131976,-0.03696281,-0.0374485962,0.12033745,0.07972328,0.07938404,-0.02487345,-0.00043068,0.07504738,0.08844305,-0.0423958637,-0.0658085,0.01241369,0.0307330731,0.0853961,0.0658042952,0.10909428,-0.06458441,0.03861765,-0.01909239,-0.07188444,0.0379152,-0.05204549,-0.06953023,-0.09811466,0.0140554486,-0.02498537,0.05052161,-0.01009794,0.05658778,-0.09578229,0.11208051,0.01202503,-0.01544493,0.07541827,-0.04474487,0.02651121,0.0602003112,0.06285322,-0.00435434,-0.09549393,-0.0490637012,-0.02984331,-0.06094877,-0.0628486723,0.01708346,0.05454462,-0.12061684,-0.04079349,0.01388413,0.03116346,0.08143621,-0.04598382,-0.03102941,0.01494911,0.0620823391,-0.02258913,0.13635518,-0.12198517,0.06373569,0.0109282825,-0.13458294,-0.08125486,-0.04517886,-0.06357893,-0.12669893,0.02979086,-0.0181945916},
{0.09717925,-0.0425471254,0.06795909,0.04970108,-0.055018682,0.12538777,-0.01914534,-0.0661060363,0.0350200385,0.07786769,-0.0889817,-0.01993807,0.02127261,0.0585489534,0.04141175,0.103168525,-0.08857673,-0.01709359,0.0173752,-0.09796451,0.0184468,-0.08923969,0.01261149,0.02880943,-0.02658836,-0.03679452,0.06862296,-0.08965932,-0.07775672,0.03571965,-0.10613819,0.01506381,-0.14300163,-0.07681833,0.09541836,-0.0773266,-0.0413116,0.05032887,-0.04015404,0.06937668,0.120879151,-0.04128417,0.090806611,-0.08200056,0.10673953,-0.06290524,-0.10464001,0.04933299,-0.06576012,-0.13982767,-0.01105285,-0.02551593,-0.02251285,0.01714762,0.0069038537,0.04134846,0.04067702,0.07913444,-0.160444468,0.02055641,-0.14751674,-0.04550307,0.05649513,0.07010309,0.04658904,0.050787,0.02445345,0.08215658,0.0712260231,-0.09894968,0.1281819,0.130772844,-0.06963599,0.12474692,-0.03262723,0.06997374,0.01249264,0.06936762,-0.10393944,0.0340247,0.10824707,0.08141325,-0.02548123,0.0507153273,0.03949615,0.01733407,0.06316368,0.09697413,0.01011237,0.02434983,-0.03103665,0.01808468,0.00236475,-0.11433242,0.0734627,0.07151106,-0.0204942431,0.00473133,0.04545143,0.02086021,0.05141361,-0.03616538,0.09484998,0.04453793,-0.06713071,0.06153451,0.06778242,0.0359689184,0.10355815,-0.06220046,0.0492142513,0.09185128,-0.14663886,0.11475319,0.02942444,0.00710317,-0.01663681,0.06294838,-0.00268148,-0.0887741372,-0.02637882,0.10278957,-0.00074088,-0.09675528,0.02927583,0.05523004,-0.0186639,-0.0214818,-0.0916449204,-0.03410619,0.02974144,-0.09075609,-0.01956576,-0.03229866,-0.04781877,-0.09661122,-0.02217805,0.110443443,-0.00792584382,-0.0723302737,0.0649101436,-0.00473556,0.0668420121,0.01744016,-0.02870557,-0.01207849,-0.05248677,0.02974194,0.0633570552,-0.02325047,-0.04382958,-0.1118167,-0.03517231,-0.1008627,0.03588387,0.10394645,-0.03388765,0.01974908,0.06667334,0.0163709,-0.01549459,-0.04521527,0.00071298,0.0218189489,0.022673674,0.03396796,-0.09187423,-0.135998368,0.06091091,-0.0656774938,-0.07004053,0.12540892,0.05795502,0.0195535682,0.07491194,0.05368258,0.18997638,-0.00923689,-0.06374829,0.02857408,0.10769478,0.03628303,0.0056224,0.10255521,0.0652847365,0.04698827,-0.02676894,-0.04867548,0.0389463,-0.0752748,0.05379115,-0.00415077,-0.12203762,0.09083802,-0.092819,0.00622225,0.06609514,0.03527326,-0.00944855,-0.0851775,-0.0525111,-0.0491033047,0.07617287,0.0427980758,-0.00346685,0.07590301,0.05287872,-0.0505532846,-0.08572238,0.00653474,0.04572895,0.0408101752,-0.12894057,-0.0402383,0.05684935,0.05725289,0.06795626,0.095743284,-0.03443509,-0.0390046,0.03590197,0.04626225,-0.0103497,-0.11227989,0.04374433,-0.1218893,-0.128482044,-0.10345942,0.02713444,-0.07149221,-0.0966955,-0.11606924,0.00373475,0.19065301,-0.05867095,0.09664144,0.0702221,0.04179986,-0.08735123,-0.02664283,-0.06940989,-0.02931835,0.0175307821,0.00230906,-0.03801827,0.02964823,-0.00031207,-0.14513466,-0.00428367779,-0.0445222445,-0.11591874,-0.01649264,-0.09638711,-0.04950762,-0.00209417,0.03629184,0.01819313,-0.0831785798,-0.08127199,-0.0376186781,-0.06803747,0.10123713,0.09145527,-0.122303814,-0.14903913,-0.066985875,-0.06605782,-0.00347368,-0.0429662429,-0.11276205,0.06674096,0.00303657,-0.04009214,0.03411579,-0.08156163,-0.0203848444,-0.04443483,-0.02665068,0.12277915,0.16008228,-0.0546478666,0.0643312857,0.07892209,0.09416275,-0.0578274988,0.07497863,0.10023927,-0.02954744,-0.05225218,-0.067615062,-0.0343781486,0.00549858,-0.0353019796,0.0765129,-0.03408764,0.01607999,-0.06994707,0.15018828,0.04631986,-0.0630739331,-0.11987294,-0.04424562,-0.10544691,0.00514309,-0.0967291892,-0.11972785,0.02343039,-0.0893197,-0.0125062,0.04044363,0.06875008,0.02857588,-0.00639053,0.08912913,0.07751993,0.06990933,-0.11648807,-0.00534863,0.07377575,0.00681224,-0.0591259748,0.0615584,0.03442909,-0.0799710006,0.0485530421,0.0407769084,0.10727917,-0.03358461,0.01983544,0.0170378592,0.13271803,0.004744,-0.11856636,0.0502158776,0.0406139605,-0.12489669,-0.12159842,-0.01669949,-0.04709547,0.0244066548,-0.03900498,0.00293277,0.03218892,0.19021317,-0.02200076,0.09455143,0.02366571,0.04063225,0.03079864,0.07041942,0.11837511,0.052344412,0.00833717,-0.00937758572,0.103664,0.01378674,-0.04987425,0.10212407,-0.10010569,0.021076981,0.00117217,0.0276756287,0.02965222,-0.02137824,-0.11851002,-0.00215525,-0.0425257,-0.10766219,0.0231934,0.01073468,0.18105797,0.0723616183,0.06361949,0.17475884,0.04502195,0.083221592,0.06092072,0.01115588,0.13600709,-0.0294778,-0.0707456,0.041138,-0.0162152,-0.06931917,-0.01539586,0.03526261,-0.05239532,0.00430773385,-0.0952735394,-0.151205987,-0.05087348,-0.04864511,-0.01323011,0.19179317,0.04030577,-0.13414645,-0.02963776,-0.0846864,0.06486531,-0.07085437,-0.01447018,-0.02816772,0.01069639,0.00823728,-0.03211984,0.01179599,-0.04191441,-0.0635921,-0.03008394,0.0975746,0.08853035,0.01625065,-0.01893313,0.12053211,0.04521505,0.13757545,-0.08420958,0.010946081,0.02660346,0.13162877,-0.08645708,0.08039203,-0.0937844068,0.00714227,0.11426516,0.096041068,0.05127905,-0.142976657,-0.04648529,-0.01793876,0.100187376,0.01731541,-0.00827917,0.07141475,0.03044668,0.082434,0.05978806,-0.00783525,0.02230887,-0.13071576,-0.0268009137,0.0170202,-0.16047874,-0.0434403308,0.02161107,-0.10960405,0.06141778,-0.02038734,0.10531123,0.07617288,0.0914658383,0.16425148,-0.0427514873,0.08690949,-0.07192874,0.06628188,0.01950895,0.0952243507,-0.01268343,0.10172448,-0.00191531,0.12816,0.050288,0.06277262,-0.08340345,0.10323077,0.08198217,0.18480764,0.0379142761,0.18092921,-0.03726774,0.09757683,0.101212449,0.0182216093,-0.10805497,0.02590995,0.03074962,0.158120006,0.0071942,0.0335558653,0.01414769,-0.06092534,0.05791959,-0.1015716,0.00233588158,0.09344227,0.01357217,0.16258185,0.00266421,-0.03442036,0.0104022,-0.0276129,0.02789761,-0.0763331801,-0.17317894,0.0404696,0.04732645,-0.13223001,0.04584106,-0.0980681,-0.03933855,-0.0221446,0.113286488,0.22738202,0.00355071,0.03795982,0.05798521,-0.00438686,0.13926369,0.00066895,-0.0227032211,-0.0327199,0.00399128,-0.0575261,-0.00672366,-0.00912445,-0.06147004,0.02568203,-0.0250118766,0.03039922,0.04341332,-0.0167587195,0.07045698,0.0769081041,-0.00816615,-0.03177216,-0.08741081,0.04207655,0.02566093,0.05373113,-0.1364448,-0.03702577,-0.07270424,0.0169117879,-0.04273964,-0.03068707,0.05117392,-0.00148185,-0.01603212,0.12673472,-0.02352852,-0.01411099,-0.03810682,0.1452286,-0.08613122,-0.0893690884,-0.11042567,0.0147495,-0.06703002,0.00859433599,0.03508917,-0.10707942,-0.0648835823,-0.14718148,-0.1405076,-0.00489956,-0.06357617,-0.00927875,0.01080541,0.02916323,-0.00591591,0.01301537,-0.06431858,-0.0470868088,0.05949862,-0.03389948,0.02073255,-0.04366738,-0.113546968,-0.05217388,-0.03458174,-0.17874287,-0.04412389,-0.09935699,-0.09937532,-0.0216664858},
